#include "kws_model_weights.h"

const float g_kws_dense1_weights[24][200] = {
    {
    0.149150982f, 0.116006322f, 0.174009487f, 0.258942693f, 0.0020715415f, 0.169866398f, 0.142936364f, 0.192653358f,
    0.198867977f, 0.155365616f, 0.242370352f, 0.161580235f, 0.254799604f, 0.161580235f, -0.004143083f, 0.130507112f,
    0.0124292485f, 0.238227278f, -0.0580031611f, 0.0435023718f, -0.00621462427f, -0.0497169942f, 0.0020715415f, 0.004143083f,
    0.151222527f, 0.174009487f, 0.132578656f, 0.190581813f, 0.0f, 0.0559316203f, 0.149150982f, 0.236155733f,
    0.0704324096f, 0.153294072f, 0.0455739126f, -0.016572332f, 0.140864819f, 0.138793275f, 0.0372877456f, 0.008286166f,
    0.0580031611f, -0.0621462464f, 0.223726481f, 0.194724903f, 0.132578656f, 0.238227278f, -0.0269300397f, -0.0269300397f,
    0.084933199f, 0.0725039542f, -0.134650201f, 0.0828616619f, 0.0580031611f, 0.0124292485f, -0.0600747019f, -0.157437161f,
    -0.0725039542f, 0.109791696f, 0.084933199f, 0.0870047435f, -0.0580031611f, 0.00621462427f, -0.0932193696f, -0.0227869563f,
    -0.120149404f, 0.155365616f, -0.103577077f, 0.0310731232f, 0.0600747019f, -0.004143083f, 0.101505533f, -0.107720159f,
    -0.0517885387f, -0.0290015806f, -0.203011066f, -0.124292493f, -0.0580031611f, -0.147079453f, -0.136721745f, -0.234084189f,
    -0.0455739126f, 0.016572332f, 0.0455739126f, 0.00621462427f, -0.109791696f, 0.0207154155f, 0.0497169942f, -0.0600747019f,
    -0.169866398f, -0.157437161f, -0.0476454534f, -0.221654937f, -0.167794868f, -0.00621462427f, 0.0124292485f, 0.20508261f,
    0.124292493f, 0.0642177835f, -0.136721745f, -0.0745754912f, -0.016572332f, -0.0932193696f, -0.0124292485f, 0.203011066f,
    -0.122220948f, -0.149150982f, -0.180224106f, 0.0704324096f, 0.0538600795f, -0.0290015806f, -0.033144664f, -0.0103577077f,
    -0.0642177835f, -0.190581813f, 0.0455739126f, 0.0932193696f, 0.0455739126f, 0.103577077f, -0.111863241f, -0.033144664f,
    -0.105648614f, -0.0310731232f, 0.0372877456f, 0.0704324096f, 0.0393592902f, -0.0207154155f, 0.0642177835f, -0.0932193696f,
    0.033144664f, -0.0745754912f, -0.0186438728f, -0.0683608726f, 0.0186438728f, 0.004143083f, 0.066289328f, 0.124292493f,
    0.0124292485f, 0.0870047435f, -0.0186438728f, -0.136721745f, 0.0725039542f, 0.178152576f, -0.0227869563f, 0.138793275f,
    0.118077867f, 0.103577077f, -0.0870047435f, 0.0704324096f, -0.016572332f, 0.128435567f, -0.194724903f, -0.161580235f,
    -0.0952909067f, 0.151222527f, 0.0352162048f, 0.0828616619f, -0.126364037f, 0.136721745f, -0.0455739126f, -0.142936364f,
    -0.033144664f, -0.103577077f, -0.0621462464f, 0.0725039542f, 0.0683608726f, 0.0290015806f, -0.0372877456f, -0.0517885387f,
    -0.033144664f, 0.128435567f, -0.0124292485f, 0.0476454534f, 0.0683608726f, -0.0600747019f, -0.128435567f, -0.0310731232f,
    -0.0435023718f, -0.0952909067f, 0.0455739126f, -0.0642177835f, 0.105648614f, 0.258942693f, -0.041430831f, 0.153294072f,
    0.0020715415f, 0.0186438728f, -0.008286166f, 0.186438739f, 0.0476454534f, -0.016572332f, 0.0973624513f, 0.142936364f,
    0.0f, 0.118077867f, 0.263085783f, 0.2299411f, 0.252728075f, 0.0290015806f, -0.004143083f, 0.0f,
    },
    {
    -0.00996830314f, 0.11961963f, 0.0548256636f, -0.167799756f, 0.028243525f, -0.034889061f, -0.146201774f, 0.0398732126f,
    0.114635482f, 0.00332276756f, 0.049841512f, -0.109651327f, -0.107989945f, -0.107989945f, 0.00830691867f, -0.176106676f,
    0.031566292f, 0.0731008872f, 0.0465187468f, 0.0299049076f, 0.034889061f, 0.069778122f, -0.184413597f, 0.0863919556f,
    0.0166138373f, -0.182752222f, -0.101344414f, 0.0365504436f, 0.0232593734f, -0.0980216414f, -0.0149524538f, 0.0166138373f,
    -0.0415345952f, 0.0830691904f, -0.0780850351f, 0.0415345952f, 0.0481801294f, -0.049841512f, 0.136233464f, 0.0647939667f,
    -0.00498415157f, -0.162815616f, -0.107989945f, 0.109651327f, 0.137894854f, 0.146201774f, -0.129587933f, 0.00664553512f,
    -0.099683024f, -0.164476991f, -0.0664553493f, 0.0647939667f, 0.0515028983f, 0.0614712015f, -0.0199366063f, 0.0481801294f,
    0.031566292f, -0.134572089f, -0.049841512f, -0.0897147208f, 0.114635482f, 0.129587933f, -0.162815616f, 0.0515028983f,
    -0.114635482f, -0.210995734f, -0.0714395046f, 0.0265821405f, 0.137894854f, 0.00830691867f, 0.1129741f, 0.121281013f,
    0.0980216414f, -0.028243525f, -0.0548256636f, 0.136233464f, -0.114635482f, -0.0780850351f, 0.0265821405f, 0.031566292f,
    0.0365504436f, 0.0664553493f, 0.107989945f, 0.0764236525f, 0.024920756f, -0.0481801294f, 0.0647939667f, 0.0182752218f,
    0.182752222f, -0.099683024f, 0.122942403f, 0.0299049076f, 0.103005797f, -0.141217619f, 0.131249323f, -0.11961963f,
    -0.0664553493f, -0.0132910702f, -0.0913761109f, 0.031566292f, 0.181090832f, -0.024920756f, 0.14952454f, 0.124603786f,
    -0.00166138378f, 0.0398732126f, 0.0880533382f, -0.0863919556f, 0.174445301f, -0.0166138373f, -0.0631325841f, 0.049841512f,
    -0.106328562f, -0.0863919556f, -0.131249323f, 0.0232593734f, 0.124603786f, 0.0913761109f, -0.121281013f, 0.0332276747f,
    -0.0963602588f, 0.0199366063f, 0.0897147208f, -0.0598098151f, -0.186074987f, -0.187736362f, 0.0299049076f, -0.186074987f,
    -0.106328562f, -0.124603786f, 0.0182752218f, 0.034889061f, 0.0681167319f, -0.167799756f, 0.0132910702f, -0.15783146f,
    -0.0365504436f, -0.122942403f, -0.0747622699f, -0.194381908f, -0.182752222f, 0.0332276747f, -0.116296865f, -0.0149524538f,
    -0.15617007f, -0.11131271f, -0.169461146f, -0.164476991f, 0.0764236525f, -0.0199366063f, -0.0946988761f, -0.186074987f,
    -0.0332276747f, -0.154508695f, -0.194381908f, -0.129587933f, -0.142879009f, -0.191059127f, 0.069778122f, 0.0415345952f,
    0.0398732126f, -0.161154225f, -0.152847305f, 0.1129741f, 0.141217619f, -0.0614712015f, -0.101344414f, -0.049841512f,
    0.0714395046f, 0.0980216414f, -0.132910699f, -0.124603786f, -0.0747622699f, -0.00830691867f, -0.0448573604f, 0.139556244f,
    0.00664553512f, -0.0431959778f, -0.0564870499f, 0.117958248f, -0.152847305f, -0.0182752218f, 0.0182752218f, -0.103005797f,
    0.144540384f, 0.129587933f, -0.167799756f, 0.0448573604f, -0.0265821405f, -0.0365504436f, 0.129587933f, -0.121281013f,
    -0.0515028983f, -0.179429442f, 0.0681167319f, 0.024920756f, 0.116296865f, -0.0913761109f, -0.167799756f, -0.167799756f,
    },
    {
    0.0146110412f, 0.13776125f, 0.210816443f, -0.060531456f, 0.162808746f, -0.0417458303f, -0.0104364576f, 0.166983321f,
    0.13358666f, 0.0166983325f, 0.0104364576f, 0.0730552077f, -0.0125237498f, -0.0166983325f, 0.192030817f, 0.0229602065f,
    0.039658539f, 0.162808746f, -0.00626187492f, 0.00417458313f, 0.175332487f, -0.0855789557f, 0.12732479f, -0.0166983325f,
    0.242125824f, 0.181594372f, -0.0354839563f, 0.141935825f, 0.116888329f, 0.106451869f, 0.00626187492f, 0.0146110412f,
    0.0146110412f, -0.0208729152f, 0.200379997f, 0.0f, 0.0313093737f, -0.0125237498f, 0.081404373f, 0.0709679127f,
    0.183681652f, 0.0521822907f, 0.231689364f, 0.217078328f, 0.231689364f, -0.064706035f, 0.233776659f, -0.0313093737f,
    0.121062912f, 0.027134791f, -0.0730552077f, -0.0897535384f, -0.054269582f, 0.00208729156f, 0.0104364576f, -0.0104364576f,
    0.054269582f, 0.0876662433f, -0.0772297904f, -0.0688806251f, -0.0584441647f, -0.091840826f, 0.0960154086f, -0.114801034f,
    0.160721451f, -0.114801034f, -0.173245206f, 0.152372286f, -0.0626187474f, 0.108539164f, -0.118975617f, -0.054269582f,
    -0.00834916625f, 0.0480077043f, 0.0354839563f, -0.104364581f, -0.223340198f, -0.208729163f, -0.0688806251f, 0.0187856238f,
    -0.229602069f, -0.154459581f, -0.204554573f, 0.045920413f, 0.13358666f, 0.164896026f, 0.0876662433f, -0.0521822907f,
    -0.00208729156f, -0.0480077043f, 0.00834916625f, 0.166983321f, 0.0104364576f, 0.0375712477f, 0.237951234f, 0.0584441647f,
    -0.0375712477f, -0.00834916625f, -0.0146110412f, -0.00417458313f, -0.0584441647f, 0.0f, -0.0772297904f, 0.164896026f,
    -0.00208729156f, -0.079317078f, -0.0480077043f, 0.0584441647f, 0.100189999f, 0.0250474997f, 0.0834916607f, 0.0876662433f,
    0.0981027037f, -0.0104364576f, -0.152372286f, 0.0375712477f, 0.0751424953f, -0.0960154086f, 0.0772297904f, -0.112713747f,
    0.0229602065f, -0.0208729152f, -0.210816443f, -0.033396665f, 0.0563568734f, -0.0626187474f, 0.0563568734f, -0.064706035f,
    0.13984853f, 0.091840826f, -0.00208729156f, -0.141935825f, 0.131499365f, -0.0730552077f, -0.183681652f, -0.0897535384f,
    -0.202467278f, -0.0125237498f, 0.0f, 0.100189999f, 0.033396665f, -0.0187856238f, -0.152372286f, -0.108539164f,
    -0.12941207f, 0.064706035f, -0.114801034f, -0.116888329f, 0.104364581f, 0.0417458303f, 0.0834916607f, 0.00626187492f,
    0.00208729156f, 0.171157911f, 0.12941207f, 0.045920413f, 0.106451869f, -0.0626187474f, -0.00417458313f, -0.114801034f,
    0.116888329f, 0.141935825f, 0.039658539f, 0.152372286f, 0.045920413f, 0.125237495f, -0.135673955f, -0.100189999f,
    -0.154459581f, 0.0250474997f, 0.0876662433f, -0.0709679127f, 0.110626452f, -0.00834916625f, -0.104364581f, -0.0313093737f,
    0.0187856238f, 0.166983321f, -0.0166983325f, 0.206641868f, 0.0f, -0.0375712477f, 0.0146110412f, 0.223340198f,
    0.150284991f, 0.0730552077f, 0.0563568734f, -0.00208729156f, 0.210816443f, 0.00834916625f, -0.027134791f, 0.12941207f,
    0.206641868f, 0.13984853f, 0.265086025f, -0.0375712477f, 0.033396665f, 0.0563568734f, 0.185768947f, 0.081404373f,
    },
    {
    -0.136260659f, 0.0371619985f, -0.208107188f, -0.136260659f, -0.0867113322f, -0.18581f, -0.148647994f, -0.18581f,
    -0.111485995f, -0.116440929f, -0.116440929f, -0.208107188f, -0.188287467f, -0.0545042641f, 0.0173422657f, -0.0743239969f,
    -0.118918397f, -0.0520267971f, -0.00495493319f, 0.0346845314f, -0.00990986638f, -0.079278931f, -0.188287467f, -0.106531061f,
    0.0644141287f, 0.188287467f, 0.0421169326f, -0.106531061f, -0.0173422657f, -0.113963462f, -0.106531061f, -0.138738126f,
    -0.198197335f, -0.0619366653f, -0.148647994f, -0.136260659f, -0.0247746669f, -0.14369306f, -0.178377599f, -0.00743239978f,
    0.0569817312f, 0.0445943996f, -0.118918397f, -0.16846773f, -0.0346845314f, -0.0123873334f, -0.0445943996f, -0.200674787f,
    0.0520267971f, 0.118918397f, -0.0123873334f, 0.076801464f, 0.195719868f, -0.0173422657f, 0.0842338651f, 0.121395864f,
    0.136260659f, 0.16846773f, -0.0371619985f, -0.0445943996f, 0.180855066f, -0.0891887993f, -0.106531061f, 0.141215593f,
    -0.0990986675f, -0.104053594f, 0.0619366653f, 0.0470718667f, 0.138738126f, -0.00990986638f, -0.0198197328f, 0.116440929f,
    0.136260659f, -0.00495493319f, 0.079278931f, 0.123873331f, 0.123873331f, 0.314638257f, 0.242791727f, 0.0173422657f,
    0.161035329f, 0.0173422657f, -0.0173422657f, -0.0718465298f, 0.0445943996f, -0.00990986638f, 0.183332533f, 0.111485995f,
    0.304728389f, 0.0272521321f, 0.0470718667f, 0.0718465298f, 0.277476251f, 0.0891887993f, 0.0668915957f, -0.0594591983f,
    0.0421169326f, 0.0545042641f, -0.136260659f, 0.138738126f, -0.0941437334f, 0.151125461f, 0.0966212004f, -0.076801464f,
    0.0867113322f, -0.0966212004f, 0.0966212004f, 0.0396394655f, 0.220494524f, -0.0371619985f, -0.0569817312f, 0.165990263f,
    0.111485995f, -0.0891887993f, -0.0520267971f, 0.175900131f, 0.165990263f, 0.0743239969f, 0.0990986675f, 0.116440929f,
    0.0966212004f, -0.00990986638f, 0.131305724f, 0.0644141287f, 0.136260659f, 0.175900131f, -0.0346845314f, -0.076801464f,
    -0.131305724f, 0.158557862f, -0.128828257f, -0.0198197328f, -0.0594591983f, -0.163512796f, 0.0867113322f, -0.0668915957f,
    -0.104053594f, -0.0322070643f, 0.0916662663f, 0.116440929f, -0.0817563981f, -0.0718465298f, -0.0198197328f, -0.0693690628f,
    0.141215593f, 0.18581f, 0.198197335f, -0.0222971998f, 0.183332533f, -0.0247746669f, 0.076801464f, 0.0495493338f,
    -0.00247746659f, -0.0173422657f, 0.00990986638f, 0.136260659f, -0.0842338651f, -0.0693690628f, 0.0842338651f, 0.0718465298f,
    0.148647994f, -0.165990263f, -0.0891887993f, -0.0941437334f, -0.146170527f, -0.0297295991f, 0.0148647996f, 0.151125461f,
    0.222971991f, -0.118918397f, -0.0693690628f, -0.0619366653f, -0.0297295991f, 0.0594591983f, -0.113963462f, 0.0743239969f,
    -0.0545042641f, -0.0668915957f, -0.0148647996f, -0.0891887993f, 0.0495493338f, -0.0520267971f, 0.0346845314f, -0.0222971998f,
    -0.0990986675f, -0.148647994f, -0.225449458f, -0.175900131f, 0.0396394655f, -0.0990986675f, -0.0619366653f, -0.16846773f,
    -0.0470718667f, 0.0f, 0.0222971998f, -0.195719868f, -0.18581f, 0.079278931f, -0.250224113f, -0.0470718667f,
    },
    {
    0.00452003675f, -0.0271202214f, -0.0881407186f, -0.108480886f, 0.00226001837f, -0.207921684f, -0.0406803302f, 0.00678005535f,
    -0.0497204028f, -0.0971807912f, -0.178541452f, -0.144641176f, -0.0113000916f, 0.0316402577f, -0.00226001837f, 0.0f,
    -0.0949207693f, -0.115260936f, -0.144641176f, -0.0745806098f, 0.101700827f, -0.214701742f, 0.0723205879f, -0.036160294f,
    -0.0542404428f, -0.160461307f, -0.140121132f, -0.0836206824f, -0.151421234f, 0.103960842f, -0.183061495f, 0.1107409f,
    -0.155941263f, 0.108480886f, -0.0406803302f, -0.1107409f, 0.122040994f, 0.0678005517f, 0.0678005517f, -0.1107409f,
    0.0474603847f, 0.0700605661f, 0.0203401651f, 0.0271202214f, 0.0768406242f, -0.0226001833f, -0.0904007331f, 0.0678005517f,
    0.0406803302f, 0.0904007331f, 0.0452003665f, -0.119780973f, 0.1107409f, 0.135601103f, -0.0429403484f, 0.0723205879f,
    0.0248602014f, 0.115260936f, 0.00226001837f, -0.158201292f, 0.0610204972f, 0.176281437f, 0.00678005535f, 0.0949207693f,
    0.0497204028f, -0.14916122f, -0.056500461f, -0.0632805154f, -0.0429403484f, -0.0226001833f, 0.176281437f, 0.140121132f,
    -0.0158201288f, 0.201141641f, 0.0158201288f, -0.0339002758f, 0.0971807912f, 0.0f, 0.250862032f, 0.0813606605f,
    0.287022322f, 0.253122061f, 0.0858806968f, 0.0836206824f, 0.0429403484f, 0.153681248f, 0.0700605661f, -0.103960842f,
    0.14690119f, 0.108480886f, 0.0293802395f, 0.106220864f, -0.0497204028f, -0.0339002758f, -0.0474603847f, -0.0836206824f,
    -0.0158201288f, -0.0497204028f, -0.126561031f, 0.144641176f, -0.0791006461f, 0.176281437f, 0.155941263f, -0.0813606605f,
    0.0316402577f, -0.0452003665f, 0.0632805154f, 0.108480886f, 0.1107409f, 0.0293802395f, 0.0452003665f, 0.0587604791f,
    0.24182196f, 0.180801466f, -0.0497204028f, 0.0745806098f, -0.0248602014f, 0.0429403484f, 0.0655405298f, -0.00226001837f,
    0.103960842f, 0.167241365f, 0.205661669f, 0.171761394f, -0.0452003665f, 0.0949207693f, -0.103960842f, -0.0926607549f,
    0.00678005535f, 0.124301009f, 0.0971807912f, 0.0226001833f, 0.119780973f, 0.0429403484f, 0.0497204028f, -0.124301009f,
    0.0700605661f, 0.0316402577f, 0.0723205879f, 0.00678005535f, -0.0745806098f, 0.0542404428f, 0.0632805154f, 0.0632805154f,
    0.119780973f, -0.0745806098f, 0.00226001837f, -0.0836206824f, 0.056500461f, 0.0994408056f, 0.174021408f, -0.0655405298f,
    0.0384203121f, 0.14690119f, -0.0745806098f, 0.115260936f, -0.103960842f, -0.0226001833f, 0.0339002758f, 0.106220864f,
    -0.00226001837f, -0.119780973f, -0.126561031f, 0.00452003675f, 0.0881407186f, -0.180801466f, -0.0316402577f, 0.216961771f,
    -0.115260936f, 0.0316402577f, -0.0497204028f, -0.0655405298f, 0.0632805154f, -0.106220864f, -0.0519804209f, -0.0452003665f,
    -0.144641176f, 0.00904007349f, -0.135601103f, 0.00452003675f, -0.205661669f, -0.0452003665f, -0.0339002758f, -0.101700827f,
    -0.0610204972f, 0.0271202214f, -0.135601103f, 0.0655405298f, -0.101700827f, -0.0519804209f, -0.0813606605f, -0.122040994f,
    -0.128821045f, 0.108480886f, -0.036160294f, -0.183061495f, -0.101700827f, 0.137861118f, -0.0316402577f, -0.268942177f,
    },
    {
    0.0168927312f, -0.158369362f, 0.0274506882f, 0.052789785f, -0.175262094f, 0.00844636559f, -0.192154825f, -0.204824358f,
    -0.0485666022f, -0.168927312f, -0.0380086452f, 0.103467979f, -0.145699799f, 0.063347742f, 0.0971332043f, -0.18159686f,
    -0.0147811398f, -0.010557957f, -0.18159686f, -0.126695484f, -0.0760172904f, -0.168927312f, 0.0168927312f, -0.164704129f,
    -0.0358970538f, -0.154146165f, -0.122472301f, 0.0802404732f, 0.00844636559f, 0.063347742f, 0.0823520645f, -0.149922997f,
    -0.145699799f, 0.0907984301f, -0.0844636559f, 0.0443434194f, 0.0675709248f, -0.0168927312f, 0.052789785f, -0.0802404732f,
    -0.141476631f, -0.122472301f, 0.103467979f, 0.021115914f, -0.118249118f, -0.0506781936f, -0.0570129678f, -0.122472301f,
    -0.0950216129f, -0.073905699f, 0.0612361506f, 0.139365032f, 0.10557957f, -0.0168927312f, 0.0253390968f, 0.217493922f,
    0.0021115914f, -0.0907984301f, -0.116137527f, 0.0929100215f, 0.116137527f, -0.0696825162f, 0.073905699f, -0.0570129678f,
    0.0147811398f, 0.0401202366f, 0.0717941076f, -0.0950216129f, 0.0675709248f, 0.0506781936f, 0.234386653f, 0.0f,
    0.221717089f, 0.010557957f, 0.232275054f, -0.101356387f, 0.268172115f, 0.111914344f, 0.259725749f, 0.052789785f,
    0.0781288818f, 0.0717941076f, 0.143588215f, -0.0126695484f, -0.0380086452f, 0.0337854624f, -0.0401202366f, 0.137253433f,
    0.192154825f, 0.173150495f, 0.0760172904f, 0.101356387f, 0.0232275054f, 0.0295622796f, -0.0295622796f, 0.0358970538f,
    0.10557957f, -0.198489591f, 0.0654593334f, 0.0971332043f, -0.0696825162f, 0.0042231828f, 0.0549013764f, -0.0612361506f,
    0.12036071f, 0.139365032f, 0.171038896f, -0.073905699f, 0.0570129678f, 0.0464550108f, 0.0992447957f, 0.0401202366f,
    0.230163455f, 0.0570129678f, 0.0464550108f, 0.0126695484f, 0.114025936f, 0.145699799f, 0.238609821f, -0.0443434194f,
    0.177373677f, 0.232275054f, 0.0823520645f, 0.202712774f, 0.223828688f, 0.0992447957f, 0.204824358f, 0.0274506882f,
    0.0232275054f, -0.0168927312f, 0.0126695484f, -0.133030266f, 0.0380086452f, 0.0042231828f, 0.0549013764f, 0.0696825162f,
    0.0337854624f, 0.0612361506f, 0.18159686f, -0.0992447957f, -0.0358970538f, -0.154146165f, 0.031673871f, 0.122472301f,
    0.183708459f, 0.126695484f, 0.139365032f, 0.0126695484f, 0.0971332043f, 0.12036071f, 0.171038896f, 0.130918667f,
    0.042231828f, 0.0675709248f, 0.0760172904f, -0.0992447957f, 0.0696825162f, 0.042231828f, 0.0464550108f, -0.10557957f,
    -0.0907984301f, -0.010557957f, -0.0781288818f, -0.0675709248f, -0.0464550108f, -0.0907984301f, 0.145699799f, 0.0232275054f,
    0.0760172904f, 0.154146165f, -0.0126695484f, -0.103467979f, -0.124583893f, 0.0147811398f, -0.107691161f, 0.021115914f,
    0.0274506882f, 0.0190043226f, 0.021115914f, -0.0802404732f, 0.010557957f, -0.179485261f, 0.021115914f, -0.192154825f,
    0.0232275054f, 0.0021115914f, 0.0295622796f, -0.052789785f, -0.0717941076f, 0.0612361506f, -0.0865752473f, -0.154146165f,
    -0.111914344f, -0.0168927312f, -0.0865752473f, -0.16259253f, -0.16259253f, -0.0781288818f, -0.215382323f, -0.242833018f,
    },
    {
    0.0998347625f, 0.177484021f, 0.157517076f, 0.250696182f, -0.0221855026f, 0.281755894f, -0.0332782529f, 0.272881687f,
    0.00665565114f, 0.0155298524f, 0.126457363f, 0.197450981f, 0.166391268f, 0.0022185503f, 0.0776492581f, -0.0022185503f,
    0.0421524569f, 0.164172724f, 0.23960343f, 0.219636485f, 0.0510266572f, 0.188576773f, 0.206325173f, -0.0221855026f,
    0.0998347625f, 0.155298516f, 0.0665565059f, 0.272881687f, 0.0288411546f, 0.0377153568f, 0.144205764f, 0.23960343f,
    0.170828372f, 0.155298516f, 0.232947782f, -0.0022185503f, 0.0843049139f, 0.0576823093f, -0.0221855026f, 0.117583163f,
    0.0687750578f, -0.0665565059f, 0.23960343f, 0.110927515f, -0.0465895571f, 0.0288411546f, 0.204106629f, 0.0931791142f,
    0.17970258f, 0.0687750578f, -0.0976162106f, 0.119801715f, 0.00665565114f, 0.0177484024f, 0.0576823093f, -0.0488081053f,
    -0.137550116f, -0.0576823093f, -0.124238819f, -0.0776492581f, -0.0532452092f, -0.0488081053f, 0.119801715f, -0.0421524569f,
    0.0288411546f, -0.0155298524f, -0.0266226046f, 0.117583163f, 0.0665565059f, 0.195232421f, 0.0133113023f, 0.0f,
    -0.0110927513f, 0.07986781f, -0.0643379614f, -0.0754307136f, -0.0643379614f, -0.0465895571f, -0.133113012f, 0.0887420103f,
    -0.219636485f, -0.15973562f, 0.0687750578f, 0.164172724f, 0.144205764f, 0.0953976661f, -0.0266226046f, -0.0266226046f,
    0.0f, -0.0465895571f, -0.144205764f, 0.175265476f, -0.144205764f, 0.157517076f, -0.0133113023f, 0.277318776f,
    0.0377153568f, 0.110927515f, -0.0510266572f, -0.153079972f, 0.139768675f, 0.0776492581f, -0.0709936097f, 0.157517076f,
    -0.153079972f, 0.164172724f, -0.0865234584f, 0.0133113023f, -0.122020267f, -0.0510266572f, -0.0177484024f, 0.0022185503f,
    -0.0155298524f, -0.00665565114f, -0.0776492581f, 0.144205764f, 0.115364619f, 0.0687750578f, -0.175265476f, 0.0754307136f,
    0.133113012f, -0.110927515f, -0.0421524569f, 0.135331571f, 0.0177484024f, -0.00443710061f, 0.128675923f, 0.133113012f,
    0.130894467f, -0.0465895571f, 0.128675923f, 0.130894467f, 0.0177484024f, -0.0244040526f, -0.0421524569f, 0.126457363f,
    -0.108708963f, 0.128675923f, 0.173046917f, -0.0377153568f, 0.0665565059f, 0.0931791142f, -0.0022185503f, 0.161954179f,
    0.0244040526f, -0.0843049139f, 0.115364619f, -0.0643379614f, 0.0510266572f, 0.133113012f, 0.0576823093f, 0.0421524569f,
    0.157517076f, 0.115364619f, 0.00665565114f, 0.230729237f, 0.135331571f, -0.0332782529f, 0.133113012f, -0.0576823093f,
    0.0909605622f, 0.0776492581f, 0.0443710051f, 0.250696182f, 0.104271866f, -0.00887420122f, 0.0953976661f, 0.0865234584f,
    -0.0687750578f, 0.0687750578f, 0.197450981f, 0.104271866f, 0.0310597047f, -0.0332782529f, -0.0732121617f, 0.161954179f,
    0.102053314f, 0.146424323f, 0.255133271f, -0.0354968049f, 0.0554637574f, -0.00887420122f, -0.00443710061f, 0.0488081053f,
    0.0133113023f, 0.261788934f, -0.0332782529f, 0.113146067f, 0.197450981f, 0.161954179f, 0.0621194094f, -0.0332782529f,
    -0.0110927513f, 0.190795332f, -0.0177484024f, 0.232947782f, 0.106490418f, 0.168609828f, 0.252914727f, 0.0820863619f,
    },
    {
    0.155813903f, 0.0603778884f, 0.0720639303f, -0.0837499723f, 0.0662209094f, 0.122703455f, -0.0701162592f, -0.099331364f,
    0.00584302144f, -0.0233720858f, -0.0584302172f, 0.0331104547f, 0.0856976509f, -0.00779069541f, 0.126598805f, 0.0525871925f,
    0.161656931f, 0.153866231f, 0.196715057f, -0.112965085f, 0.0331104547f, -0.120755777f, 0.0409011506f, 0.0370058045f,
    0.144127861f, 0.157761589f, -0.0389534757f, 0.15191856f, -0.0603778884f, 0.241511554f, 0.0837499723f, 0.208401099f,
    0.0856976509f, 0.136337176f, 0.0428488255f, 0.21034877f, 0.146075532f, 0.15970926f, -0.00973836891f, -0.0798546299f,
    -0.0564825423f, -0.00584302144f, 0.142180189f, -0.00389534771f, 0.0331104547f, 0.0467441715f, -0.0194767378f, 0.136337176f,
    -0.124651127f, 0.0253197607f, 0.140232518f, 0.22787784f, 0.200610414f, 0.243459225f, 0.241511554f, 0.13438949f,
    -0.0934883431f, -0.099331364f, 0.0447965004f, 0.116860434f, 0.0486918464f, -0.0720639303f, 0.188924357f, 0.0915406719f,
    0.163604602f, 0.15191856f, -0.0876453221f, -0.0876453221f, -0.0447965004f, 0.0155813908f, -0.0720639303f, -0.0292151086f,
    0.0720639303f, 0.200610414f, -0.0759592801f, 0.142180189f, -0.0954360217f, -0.0233720858f, -0.0214244127f, -0.00194767385f,
    0.0331104547f, 0.171395302f, -0.0331104547f, -0.124651127f, -0.0506395213f, -0.0292151086f, 0.146075532f, -0.0311627816f,
    -0.0818023011f, 0.0467441715f, 0.0895930007f, 0.0467441715f, 0.112965085f, -0.163604602f, -0.0447965004f, 0.068168588f,
    0.186976686f, 0.0136337169f, -0.112965085f, 0.15191856f, 0.116860434f, -0.0584302172f, -0.0175290648f, 0.068168588f,
    -0.0623255633f, 0.0662209094f, -0.0447965004f, -0.122703455f, -0.124651127f, -0.163604602f, -0.0973836929f, -0.109069735f,
    -0.0214244127f, 0.0973836929f, -0.0194767378f, -0.136337176f, -0.155813903f, -0.0973836929f, -0.00973836891f, 0.112965085f,
    0.00584302144f, -0.0856976509f, -0.0428488255f, -0.124651127f, -0.0486918464f, 0.0194767378f, 0.0467441715f, -0.112965085f,
    -0.107122064f, 0.0720639303f, -0.0116860429f, 0.0525871925f, 0.142180189f, 0.21813947f, -0.0662209094f, 0.107122064f,
    0.0253197607f, 0.107122064f, 0.0409011506f, 0.0779069513f, 0.0759592801f, -0.00389534771f, -0.099331364f, -0.155813903f,
    -0.188924357f, -0.0331104547f, 0.0564825423f, 0.0389534757f, 0.175290644f, 0.144127861f, -0.0389534757f, 0.126598805f,
    -0.0603778884f, -0.074011609f, 0.126598805f, 0.198662728f, 0.0428488255f, -0.00194767385f, 0.247354582f, -0.00389534771f,
    0.0603778884f, 0.245406911f, -0.0214244127f, 0.161656931f, 0.0934883431f, -0.074011609f, -0.0798546299f, -0.188924357f,
    0.120755777f, -0.0292151086f, 0.15191856f, 0.105174385f, 0.185029015f, -0.0564825423f, -0.0331104547f, 0.0447965004f,
    0.0214244127f, -0.0934883431f, 0.214244127f, 0.0934883431f, 0.161656931f, -0.0895930007f, 0.149970889f, 0.188924357f,
    -0.0136337169f, 0.118808106f, 0.153866231f, 0.212296456f, 0.153866231f, 0.0701162592f, -0.0798546299f, 0.00389534771f,
    0.0759592801f, 0.169447631f, -0.0915406719f, -0.0662209094f, -0.068168588f, -0.00194767385f, -0.0389534757f, 0.118808106f,
    },
    {
    0.113852963f, 0.124018401f, 0.258202255f, 0.231772095f, 0.0589595698f, 0.0955551639f, 0.243970633f, 0.113852963f,
    0.189077243f, 0.148415461f, 0.227705926f, 0.217540473f, -0.0182977971f, -0.0406617709f, -0.048794128f, 0.213474303f,
    0.136216938f, -0.006099266f, -0.0630257428f, -0.048794128f, 0.150448561f, 0.207375035f, 0.0284632407f, 0.156547815f,
    0.0670919269f, 0.0508272164f, 0.146382377f, 0.107753694f, 0.160613999f, 0.024397064f, 0.243970633f, -0.0182977971f,
    -0.0731911883f, 0.124018401f, 0.0f, 0.195176512f, 0.0467610359f, 0.142316207f, 0.012198532f, 0.252102971f,
    0.225672826f, 0.246003717f, 0.199242681f, 0.235838279f, -0.0467610359f, 0.105720609f, 0.0630257428f, -0.0467610359f,
    0.237871364f, -0.0101654427f, -0.0630257428f, -0.0996213406f, -0.17891179f, -0.191110328f, -0.0569264814f, 0.0752242804f,
    -0.024397064f, 0.0325294174f, 0.0508272164f, 0.0691250116f, 0.0182977971f, 0.207375035f, -0.105720609f, 0.0935220718f,
    -0.0650588349f, 0.156547815f, 0.0508272164f, 0.124018401f, 0.0996213406f, 0.0711581036f, 0.0426948592f, 0.121985316f,
    -0.103687517f, -0.024397064f, 0.0508272164f, 0.00813235436f, -0.0813235417f, -0.0182977971f, 0.0731911883f, -0.0609926581f,
    0.0650588349f, -0.0711581036f, 0.0345625058f, 0.0101654427f, -0.105720609f, 0.0508272164f, -0.142316207f, -0.126051486f,
    -0.048794128f, -0.0650588349f, -0.0508272164f, 0.0528603047f, -0.193143412f, 0.0365955941f, -0.012198532f, 0.142316207f,
    -0.0426948592f, 0.0711581036f, 0.0548933931f, 0.0f, -0.0365955941f, 0.0223639738f, 0.136216938f, 0.231772095f,
    -0.077257365f, 0.0508272164f, -0.111819871f, 0.0874228105f, 0.0711581036f, 0.124018401f, -0.0406617709f, -0.146382377f,
    -0.00813235436f, -0.0630257428f, -0.0813235417f, 0.0874228105f, 0.0142316204f, 0.140283108f, 0.0345625058f, -0.142316207f,
    -0.0874228105f, 0.111819871f, 0.0833566338f, 0.0752242804f, -0.00813235436f, 0.0142316204f, 0.128084585f, 0.126051486f,
    0.121985316f, 0.048794128f, -0.124018401f, 0.162647083f, -0.0426948592f, 0.203308865f, 0.0711581036f, 0.0711581036f,
    0.134183854f, 0.138250023f, -0.0264301524f, -0.0833566338f, 0.0752242804f, 0.193143412f, 0.144349292f, 0.0894558951f,
    0.11791914f, 0.0447279476f, 0.15451473f, -0.0548933931f, 0.0691250116f, -0.119952224f, 0.156547815f, 0.101654433f,
    -0.144349292f, 0.11791914f, -0.146382377f, 0.115886047f, -0.097588256f, 0.134183854f, -0.012198532f, -0.111819871f,
    -0.006099266f, 0.103687517f, -0.0182977971f, 0.136216938f, -0.0508272164f, 0.235838279f, -0.0101654427f, 0.115886047f,
    -0.103687517f, 0.012198532f, 0.0813235417f, 0.0935220718f, 0.0426948592f, 0.124018401f, -0.077257365f, 0.124018401f,
    0.0345625058f, -0.0894558951f, 0.158580914f, 0.0345625058f, 0.209408119f, 0.18094489f, 0.254136086f, -0.0548933931f,
    0.13011767f, 0.148415461f, 0.213474303f, 0.231772095f, 0.121985316f, 0.0935220718f, -0.012198532f, 0.227705926f,
    0.187044144f, -0.006099266f, -0.006099266f, 0.160613999f, 0.150448561f, 0.097588256f, 0.126051486f, 0.201275766f,
    },
    {
    0.00565940281f, -0.166009143f, 0.0471616909f, -0.218830243f, 0.00943233818f, -0.0754587054f, -0.132052734f, -0.224489644f,
    -0.105642185f, 0.0282970127f, -0.0245240778f, 0.0924369097f, -0.18110089f, -0.0301834811f, -0.033956416f, -0.133939192f,
    -0.150917411f, -0.00943233818f, 0.090550445f, -0.109415121f, -0.141485065f, -0.198079094f, -0.124506861f, -0.149030939f,
    -0.0264105462f, -0.203738496f, 0.0509346239f, 0.0603669621f, -0.133939192f, -0.107528649f, -0.0509346239f, -0.132052734f,
    -0.166009143f, -0.196192622f, -0.11884746f, -0.132052734f, 0.0980963111f, 0.00565940281f, 0.139598593f, -0.103755713f,
    -0.0113188056f, 0.0660263672f, 0.0565940253f, 0.116960987f, -0.0811181068f, 0.00754587026f, -0.126393333f, -0.158463269f,
    0.0792316347f, 0.0509346239f, -0.033956416f, -0.149030939f, -0.126393333f, 0.0660263672f, 0.101869248f, -0.0396158174f,
    0.0377293527f, 0.0999827832f, -0.149030939f, 0.0282970127f, 0.0415022857f, 0.0679128319f, -0.111301586f, -0.0584804937f,
    -0.186760291f, 0.132052734f, -0.0811181068f, -0.0245240778f, 0.0301834811f, -0.0415022857f, 0.239581376f, 0.0697992966f,
    0.137712136f, -0.0226376113f, 0.090550445f, 0.137712136f, 0.0679128319f, 0.207511425f, 0.0226376113f, 0.0207511429f,
    -0.016978208f, 0.145258009f, -0.0226376113f, 0.101869248f, 0.0754587054f, -0.0301834811f, 0.15469034f, -0.00754587026f,
    0.0716857687f, 0.0433887541f, 0.182987347f, 0.116960987f, 0.0830045715f, 0.116960987f, -0.0716857687f, -0.090550445f,
    0.122620389f, -0.0679128319f, 0.124506861f, 0.139598593f, 0.184873819f, 0.122620389f, 0.0471616909f, 0.0603669621f,
    -0.0471616909f, 0.137712136f, -0.0999827832f, 0.145258009f, 0.139598593f, -0.0471616909f, 0.160349742f, 0.147144467f,
    0.209397897f, 0.192419693f, -0.0660263672f, -0.0999827832f, 0.0433887541f, 0.0773451701f, -0.033956416f, 0.160349742f,
    0.226376101f, 0.126393333f, 0.0622534305f, 0.120733924f, -0.0603669621f, 0.169782087f, -0.0415022857f, 0.0471616909f,
    -0.12827979f, 0.0811181068f, 0.0358428843f, -0.162236214f, 0.166009143f, -0.0377293527f, 0.167895615f, -0.0471616909f,
    0.196192622f, 0.173555017f, -0.016978208f, 0.0830045715f, -0.00188646757f, -0.113188051f, -0.0924369097f, 0.00565940281f,
    0.122620389f, 0.158463269f, -0.00377293513f, 0.00565940281f, -0.00565940281f, -0.00565940281f, -0.141485065f, -0.126393333f,
    0.0773451701f, 0.0226376113f, -0.0660263672f, 0.130166262f, -0.0358428843f, -0.0565940253f, 0.122620389f, -0.0471616909f,
    -0.090550445f, -0.0830045715f, -0.0792316347f, -0.016978208f, -0.0132052731f, -0.0377293527f, 0.0433887541f, -0.109415121f,
    0.0132052731f, -0.0735722333f, 0.0490481555f, -0.0660263672f, -0.171668544f, 0.0886639729f, -0.0301834811f, -0.0415022857f,
    0.0547075607f, 0.0679128319f, -0.0603669621f, -0.173555017f, -0.194306165f, -0.0603669621f, 0.00565940281f, -0.137712136f,
    -0.122620389f, 0.0679128319f, -0.0999827832f, -0.198079094f, -0.149030939f, 0.122620389f, 0.00377293513f, -0.141485065f,
    -0.130166262f, 0.0113188056f, -0.209397897f, -0.00565940281f, -0.0716857687f, -0.033956416f, -0.222603172f, -0.171668544f,
    },
    {
    0.118701793f, -0.154672042f, -0.0737389922f, -0.0251791682f, 0.0575523861f, 0.115104772f, 0.125895843f, -0.158269063f,
    -0.107910722f, -0.129492864f, 0.0143880965f, -0.127694353f, 0.125895843f, 0.0593508966f, 0.00539553631f, -0.15107502f,
    0.0791345313f, -0.0359702408f, -0.136686921f, 0.0485598259f, 0.0899256021f, -0.0629479215f, -0.138485432f, -0.0629479215f,
    -0.0683434606f, 0.0629479215f, -0.028776193f, 0.0827315524f, -0.032373216f, -0.156470552f, 0.0575523861f, -0.106112212f,
    -0.197836325f, -0.044962801f, -0.0827315524f, 0.109709233f, 0.102515191f, -0.032373216f, -0.0845300704f, 0.0215821452f,
    -0.0809330419f, 0.0125895841f, 0.0269776806f, 0.178052694f, 0.0125895841f, 0.00359702413f, 0.174455673f, 0.00539553631f,
    0.197836325f, 0.138485432f, 0.102515191f, -0.0125895841f, -0.0107910726f, 0.0719404817f, -0.0989181623f, 0.0539553612f,
    0.0305747055f, 0.0539553612f, -0.178052694f, 0.0773360208f, -0.1330899f, 0.100716673f, -0.134888411f, -0.0845300704f,
    0.06654495f, -0.0755375102f, -0.0611494109f, -0.0881270915f, -0.208627403f, -0.188843772f, -0.0377687551f, 0.064746432f,
    -0.0305747055f, 0.127694353f, 0.0233806577f, -0.138485432f, 0.143880963f, -0.106112212f, 0.0791345313f, 0.223015502f,
    0.125895843f, 0.142082453f, -0.125895843f, 0.156470552f, -0.160067573f, 0.0395672657f, 0.0773360208f, 0.0593508966f,
    -0.116903283f, 0.129492864f, -0.118701793f, -0.100716673f, 0.0395672657f, -0.0557538755f, 0.086328581f, -0.115104772f,
    0.116903283f, 0.104313701f, -0.107910722f, 0.106112212f, 0.131291375f, -0.06654495f, 0.086328581f, -0.0251791682f,
    0.064746432f, -0.0143880965f, 0.0233806577f, 0.00899256021f, -0.0251791682f, -0.0485598259f, 0.167261615f, -0.0719404817f,
    -0.0989181623f, 0.124097332f, -0.0593508966f, 0.0413657762f, -0.113306262f, -0.0575523861f, -0.143880963f, -0.06654495f,
    0.129492864f, -0.0737389922f, 0.0575523861f, -0.016186608f, 0.064746432f, -0.0143880965f, 0.113306262f, -0.0431642905f,
    0.028776193f, 0.106112212f, 0.129492864f, 0.0539553612f, 0.115104772f, -0.109709233f, -0.0629479215f, -0.0413657762f,
    0.15107502f, -0.0917241126f, -0.188843772f, -0.147477984f, -0.0395672657f, 0.0629479215f, -0.147477984f, -0.0233806577f,
    0.0737389922f, -0.0539553612f, -0.0359702408f, -0.179851204f, -0.0467613153f, 0.016186608f, 0.086328581f, -0.167261615f,
    -0.179851204f, -0.0719404817f, -0.116903283f, -0.0431642905f, -0.028776193f, -0.0683434606f, -0.0773360208f, 0.102515191f,
    -0.170858651f, -0.0305747055f, -0.142082453f, -0.170858651f, -0.0413657762f, -0.118701793f, 0.107910722f, 0.228411034f,
    -0.0629479215f, 0.125895843f, 0.0377687551f, 0.0467613153f, 0.0305747055f, -0.0377687551f, -0.0179851204f, -0.0377687551f,
    -0.0197836328f, -0.0971196517f, 0.0881270915f, 0.0539553612f, -0.00359702413f, 0.00899256021f, -0.0791345313f, -0.06654495f,
    0.032373216f, -0.0143880965f, 0.0683434606f, -0.188843772f, 0.0179851204f, 0.176254183f, -0.0881270915f, -0.158269063f,
    0.0143880965f, 0.0341717303f, -0.0719404817f, -0.131291375f, -0.176254183f, 0.032373216f, -0.176254183f, -0.156470552f,
    },
    {
    0.124932632f, 0.122815132f, 0.268922776f, 0.110110119f, 0.23927775f, 0.112227619f, -0.0275275297f, 0.0211750232f,
    0.235042751f, 0.256217778f, 0.226572737f, 0.241395265f, 0.0974051058f, 0.0232925247f, 0.0910525993f, 0.254100263f,
    -0.0148225157f, 0.211750224f, 0.20328021f, 0.207515225f, 0.247747764f, 0.222337738f, 0.093170099f, 0.0995226055f,
    0.152460158f, 0.209632725f, 0.237160251f, 0.0656425729f, 0.0614075661f, -0.0148225157f, 0.129167631f, -0.00423500454f,
    0.148225158f, 0.0169400182f, 0.171517685f, -0.0275275297f, 0.00635250658f, -0.0741125792f, 0.0656425729f, 0.101640105f,
    0.0338800363f, 0.199045211f, -0.00423500454f, 0.00635250658f, 0.0359975398f, 0.196927711f, 0.0254100263f, 0.112227619f,
    0.103757612f, 0.160930172f, 0.0910525993f, 0.218102738f, 0.0296450313f, 0.0190575197f, -0.0105875116f, 0.230807751f,
    0.205397725f, 0.131285146f, 0.103757612f, 0.116462626f, -0.00847000908f, 0.0338800363f, 0.0825825855f, 0.0825825855f,
    0.0550550595f, 0.169400185f, 0.139755145f, -0.0974051058f, -0.0995226055f, 0.0592900626f, 0.0508200526f, 0.235042751f,
    0.0614075661f, -0.0317625329f, -0.0338800363f, 0.188457698f, 0.0211750232f, -0.184222698f, -0.0190575197f, 0.129167631f,
    -0.0402325429f, -0.116462626f, 0.0190575197f, -0.0741125792f, 0.0635250658f, 0.0148225157f, 0.0402325429f, 0.0508200526f,
    0.129167631f, 0.00635250658f, -0.0698775724f, 0.0741125792f, -0.00211750227f, 0.0952875987f, 0.0952875987f, -0.0529375561f,
    0.0762300789f, 0.0825825855f, 0.201162711f, -0.150342658f, -0.0804650858f, -0.0762300789f, 0.124932632f, 0.0254100263f,
    -0.127050132f, -0.0359975398f, -0.0635250658f, 0.169400185f, 0.0296450313f, 0.158812672f, -0.0169400182f, -0.0508200526f,
    -0.0211750232f, 0.107992619f, -0.00211750227f, -0.124932632f, -0.0635250658f, 0.00211750227f, 0.148225158f, -0.0148225157f,
    0.152460158f, 0.0868175924f, 0.0487025529f, -0.0550550595f, 0.148225158f, 0.116462626f, -0.0296450313f, 0.0465850495f,
    0.0762300789f, 0.122815132f, 0.169400185f, 0.167282686f, 0.0105875116f, -0.0698775724f, 0.0889350921f, -0.0952875987f,
    0.154577672f, 0.0508200526f, 0.0677600726f, 0.0211750232f, -0.0889350921f, -0.0719950795f, 0.0529375561f, 0.0423500463f,
    0.160930172f, 0.112227619f, 0.103757612f, 0.207515225f, -0.0211750232f, 0.0762300789f, 0.146107659f, 0.0995226055f,
    0.165165171f, -0.0783475861f, 0.093170099f, 0.093170099f, 0.0804650858f, 0.0762300789f, -0.105875112f, -0.0317625329f,
    -0.00211750227f, -0.101640105f, 0.0868175924f, -0.0254100263f, 0.107992619f, 0.101640105f, 0.0254100263f, -0.0952875987f,
    0.118580125f, 0.129167631f, 0.129167631f, -0.0148225157f, -0.0910525993f, 0.188457698f, -0.0614075661f, 0.137637645f,
    0.124932632f, -0.0254100263f, 0.254100263f, 0.177870184f, 0.0868175924f, 0.110110119f, 0.0741125792f, 0.131285146f,
    0.0635250658f, -0.0656425729f, 0.169400185f, 0.0762300789f, 0.0f, -0.0847000927f, 0.243512765f, 0.0169400182f,
    0.0995226055f, 0.0254100263f, 0.254100263f, 0.256217778f, 0.154577672f, -0.0148225157f, 0.222337738f, 0.196927711f,
    },
    {
    -0.068446666f, -0.0812804177f, -0.209617913f, -0.106947914f, -0.198923126f, -0.222451657f, 0.0620297901f, -0.241702288f,
    -0.145449162f, -0.216034785f, -0.109086871f, -0.0812804177f, -0.188228339f, -0.0149727082f, -0.151866034f, -0.0363622904f,
    -0.0385012478f, -0.034223333f, 0.00855583325f, 0.00641687494f, -0.0534739569f, -0.0299454164f, -0.0770024955f, 0.0577518754f,
    -0.0235285424f, 0.0106947916f, -0.0598908328f, -0.0278064571f, -0.13047646f, 0.00641687494f, 0.0320843756f, -0.16683875f,
    -0.104808956f, -0.00855583325f, -0.0513349995f, 0.121920623f, 0.0705856234f, 0.141171247f, -0.168977708f, 0.0192506239f,
    -0.0171116665f, 0.068446666f, -0.0898362473f, -0.0727245808f, 0.156143963f, -0.068446666f, 0.0727245808f, 0.00641687494f,
    -0.0449181236f, -0.160421878f, 0.136893332f, 0.119781666f, 0.0962531269f, 0.0727245808f, 0.188228339f, -0.0278064571f,
    0.0128337499f, 0.0941141695f, -0.0235285424f, -0.068446666f, 0.162560835f, -0.0449181236f, 0.0898362473f, -0.0491960421f,
    0.0470570847f, 0.0748635381f, 0.109086871f, -0.121920623f, 0.151866034f, -0.0898362473f, 0.218173742f, 0.0855583325f,
    0.128337502f, 0.164699793f, -0.0534739569f, 0.162560835f, 0.149727076f, 0.235285416f, 0.2203127f, 0.181811452f,
    -0.00641687494f, -0.0278064571f, -0.0106947916f, 0.241702288f, -0.0363622904f, 0.121920623f, 0.0320843756f, -0.0385012478f,
    0.121920623f, 0.0770024955f, 0.213895828f, 0.109086871f, 0.0192506239f, -0.0727245808f, -0.0941141695f, -0.0385012478f,
    -0.104808956f, -0.0855583325f, 0.0534739569f, 0.0299454164f, 0.0513349995f, 0.0363622904f, 0.0855583325f, -0.160421878f,
    0.209617913f, -0.104808956f, 0.0513349995f, 0.190367296f, -0.0171116665f, -0.0385012478f, 0.271647692f, 0.109086871f,
    0.2203127f, -0.00641687494f, 0.00213895831f, -0.0406402089f, 0.216034785f, 0.0128337499f, 0.173255622f, 0.0363622904f,
    0.207478955f, -0.0320843756f, 0.203201041f, 0.034223333f, 0.241702288f, 0.143310204f, 0.0919752046f, -0.117642708f,
    0.231007501f, 0.0406402089f, 0.111225829f, 0.158282921f, 0.0256674998f, -0.0727245808f, 0.0705856234f, -0.128337502f,
    0.0299454164f, 0.0962531269f, -0.0663077086f, 0.0876972899f, 0.154004991f, 0.0876972899f, 0.0770024955f, 0.111225829f,
    0.203201041f, 0.181811452f, 0.0919752046f, 0.0534739569f, 0.149727076f, -0.0299454164f, 0.0f, 0.16683875f,
    0.00213895831f, -0.0663077086f, -0.0705856234f, -0.0299454164f, 0.0834193751f, 0.17539458f, -0.0663077086f, 0.0641687512f,
    -0.0534739569f, 0.0320843756f, -0.141171247f, -0.207478955f, -0.0919752046f, 0.0556129143f, 0.0192506239f, 0.132615417f,
    -0.00427791663f, -0.0748635381f, 0.16683875f, -0.0641687512f, -0.0449181236f, -0.13047646f, 0.0213895831f, -0.0278064571f,
    0.102669999f, 0.0213895831f, 0.117642708f, 0.00213895831f, -0.198923126f, 0.0363622904f, -0.0470570847f, -0.0705856234f,
    0.00855583325f, -0.0812804177f, -0.113364793f, -0.0812804177f, -0.0406402089f, 0.171116665f, -0.0791414604f, -0.0320843756f,
    -0.235285416f, 0.115503751f, 0.00427791663f, -0.0663077086f, 0.0256674998f, 0.0834193751f, -0.164699793f, -0.218173742f,
    },
    {
    0.210814908f, 0.052703727f, 0.125678122f, 0.0709473267f, 0.0770285279f, 0.0567578599f, 0.204733714f, 0.131759316f,
    0.0405413285f, 0.0445954613f, -0.0486495942f, -0.052703727f, 0.257437438f, 0.0972991884f, 0.0689202547f, 0.220950246f,
    0.129732251f, 0.158111185f, 0.0486495942f, 0.137840509f, -0.0304059964f, -0.0405413285f, 0.0445954613f, 0.178381845f,
    0.0993262529f, 0.178381845f, 0.11351572f, 0.212841973f, 0.139867589f, 0.0283789299f, 0.0831097215f, -0.00608119927f,
    0.241220906f, 0.141894653f, 0.164192379f, 0.225004375f, 0.0891909227f, 0.0891909227f, 0.139867589f, 0.15608412f,
    0.210814908f, -0.0182435978f, -0.0425683931f, 0.0891909227f, -0.0283789299f, -0.0263518635f, 0.186490119f, 0.202706635f,
    0.121623985f, 0.0425683931f, 0.0243247971f, -0.0182435978f, -0.081082657f, 0.0790555924f, -0.0689202547f, -0.0790555924f,
    0.0304059964f, -0.0648661256f, 0.154057056f, 0.141894653f, 0.202706635f, 0.111488655f, -0.0182435978f, -0.0364871956f,
    0.119596921f, 0.0952721238f, 0.231085569f, 0.170273572f, 0.174327716f, 0.0101353321f, 0.0283789299f, 0.107434519f,
    -0.158111185f, -0.0729743913f, -0.0851367861f, -0.0972991884f, -0.194598377f, -0.12365105f, 0.101353317f, 0.0668931901f,
    -0.0952721238f, -0.0466225296f, -0.0202706642f, 0.0668931901f, 0.119596921f, 0.0425683931f, 0.0101353321f, 0.0952721238f,
    -0.0547307953f, -0.0851367861f, 0.0182435978f, 0.0587849244f, -0.0851367861f, -0.111488655f, 0.160138249f, 0.0385142639f,
    -0.0162165314f, 0.204733714f, -0.0405413285f, 0.0750014558f, -0.0608119927f, 0.111488655f, 0.052703727f, 0.212841973f,
    -0.0709473267f, -0.0972991884f, 0.20067957f, -0.0831097215f, -0.0608119927f, -0.0466225296f, 0.0506766587f, 0.107434519f,
    0.0709473267f, -0.00608119927f, 0.0445954613f, 0.115542784f, 0.150002912f, -0.0689202547f, 0.0993262529f, 0.212841973f,
    0.0871638581f, 0.117569849f, 0.014189465f, 0.107434519f, -0.117569849f, 0.0871638581f, 0.0547307953f, -0.0790555924f,
    0.0750014558f, -0.111488655f, 0.0729743913f, 0.0445954613f, 0.0567578599f, 0.0932450593f, -0.0547307953f, 0.0445954613f,
    0.00608119927f, 0.0445954613f, 0.172300652f, 0.0871638581f, -0.0932450593f, 0.158111185f, 0.166219443f, 0.204733714f,
    -0.0689202547f, 0.10338039f, 0.225004375f, 0.0222977307f, -0.0993262529f, -0.0952721238f, -0.10338039f, -0.0344601274f,
    -0.101353317f, 0.0608119927f, -0.0445954613f, 0.131759316f, 0.0243247971f, 0.0972991884f, 0.0547307953f, -0.081082657f,
    0.12365105f, 0.0304059964f, 0.210814908f, -0.0466225296f, 0.0222977307f, 0.0283789299f, 0.208787844f, 0.0993262529f,
    -0.052703727f, 0.186490119f, -0.0932450593f, 0.176354781f, -0.0831097215f, -0.0202706642f, 0.117569849f, 0.166219443f,
    0.0121623985f, 0.164192379f, 0.0486495942f, 0.194598377f, 0.154057056f, 0.105407454f, 0.125678122f, 0.00608119927f,
    -0.0283789299f, 0.186490119f, 0.253383309f, 0.145948783f, 0.052703727f, 0.00202706642f, -0.0405413285f, -0.0364871956f,
    0.0324330628f, 0.210814908f, 0.0750014558f, 0.218923181f, 0.0121623985f, 0.127705187f, 0.109461591f, 0.0952721238f,
    },
    {
    0.0605180934f, 0.0584312603f, 0.0354761221f, 0.0f, 0.0834732354f, 0.233725041f, -0.0417366177f, 0.160685971f,
    0.00834732316f, 0.0792995691f, 0.0417366177f, 0.248332858f, 0.143991321f, 0.131470338f, 0.129383504f, -0.0730390772f,
    0.0125209847f, -0.0271288007f, -0.0709522441f, -0.0605180934f, 0.0605180934f, -0.0584312603f, -0.0125209847f, -0.00834732316f,
    0.0584312603f, 0.104341537f, 0.116862521f, -0.0646917522f, 0.227464557f, 0.0104341544f, 0.160685971f, 0.200335756f,
    -0.0730390772f, 0.108515203f, 0.166946471f, 0.112688862f, 0.10642837f, 0.0626049265f, 0.0605180934f, -0.00834732316f,
    -0.141904488f, 0.210769907f, 0.0646917522f, -0.0897337273f, -0.118949354f, 0.171120122f, -0.104341537f, 0.143991321f,
    -0.0626049265f, 0.0396497846f, -0.0876468942f, 0.00834732316f, 0.217030406f, 0.0166946463f, 0.0104341544f, 0.175293788f,
    0.158599138f, 0.0730390772f, 0.135644004f, 0.0584312603f, 0.118949354f, 0.210769907f, 0.194075257f, 0.0521707684f,
    -0.0563444309f, -0.0521707684f, 0.148164988f, 0.158599138f, 0.0646917522f, -0.0250419695f, 0.0813864022f, -0.0626049265f,
    0.0939073861f, -0.0479971096f, 0.164859638f, 0.166946471f, 0.0959942192f, 0.0918205529f, -0.150251821f, -0.0709522441f,
    -0.173206955f, 0.0479971096f, 0.112688862f, 0.00626049237f, 0.0626049265f, 0.135644004f, -0.189901605f, 0.0876468942f,
    0.0792995691f, -0.183641106f, 0.114775695f, -0.0313024633f, 0.0125209847f, -0.0104341544f, -0.0166946463f, 0.0959942192f,
    0.104341537f, -0.104341537f, -0.162772804f, 0.0250419695f, -0.0667785853f, 0.0187814776f, 0.198248923f, 0.208683074f,
    -0.0459102765f, 0.189901605f, -0.100167878f, 0.0396497846f, -0.0605180934f, 0.0605180934f, -0.0125209847f, 0.10642837f,
    0.0521707684f, -0.0813864022f, 0.0813864022f, 0.0730390772f, 0.0417366177f, -0.183641106f, -0.00208683079f, -0.00208683079f,
    -0.175293788f, -0.194075257f, -0.191988438f, 0.0897337273f, 0.0980810449f, 0.0876468942f, -0.0688654184f, -0.0563444309f,
    -0.0646917522f, -0.0876468942f, -0.13981767f, 0.150251821f, -0.0396497846f, 0.0104341544f, -0.143991321f, -0.0104341544f,
    -0.185727939f, -0.110602029f, -0.0626049265f, 0.179467455f, -0.0479971096f, 0.185727939f, -0.12312302f, 0.164859638f,
    -0.050083939f, 0.0479971096f, -0.0438234471f, 0.10642837f, -0.0939073861f, 0.146078154f, 0.0605180934f, -0.0459102765f,
    0.187814772f, 0.0187814776f, -0.0292156301f, -0.0959942192f, -0.0271288007f, -0.0542576015f, 0.206596255f, -0.0417366177f,
    0.0146078151f, -0.0959942192f, 0.162772804f, -0.050083939f, 0.114775695f, 0.0709522441f, -0.137730837f, 0.0751259103f,
    0.160685971f, -0.108515203f, 0.110602029f, 0.214943573f, -0.0208683088f, -0.0313024633f, 0.0876468942f, 0.0939073861f,
    0.0918205529f, 0.206596255f, 0.077212736f, 0.00626049237f, 0.252506524f, 0.0813864022f, 0.0834732354f, 0.0333892927f,
    0.0542576015f, 0.0229551382f, 0.210769907f, 0.102254711f, -0.0417366177f, -0.00626049237f, 0.256680191f, 0.108515203f,
    0.256680191f, 0.0208683088f, -0.0459102765f, 0.110602029f, -0.0166946463f, -0.112688862f, 0.137730837f, 0.265027523f,
    },
    {
    0.10353981f, 0.0263555888f, -0.0658889711f, 0.114835061f, 0.0112952525f, 0.0188254211f, 0.131777942f, -0.0112952525f,
    -0.0715366006f, 0.207079619f, 0.199549451f, 0.163781151f, 0.0828318521f, 0.0376508422f, -0.0338857584f, -0.0188254211f,
    0.21084471f, 0.231552675f, -0.0602413453f, 0.154368445f, 0.00188254204f, 0.120482691f, 0.141190648f, 0.18072404f,
    0.122365236f, 0.131777942f, -0.020707963f, 0.163781151f, 0.203314543f, -0.0131777944f, 0.192019284f, -0.0470635518f,
    0.203314543f, 0.0188254211f, 0.0734191388f, 0.17507641f, 0.144955739f, 0.00564762624f, -0.0150603363f, -0.0527111776f,
    0.0357683003f, 0.144955739f, 0.0640064329f, 0.0376508422f, -0.0960096419f, -0.0188254211f, 0.022590505f, 0.0527111776f,
    0.0960096419f, -0.0960096419f, -0.0376508422f, 0.182606578f, -0.0696540549f, 0.178841487f, -0.0771842226f, 0.122365236f,
    0.0131777944f, 0.201432005f, 0.233435214f, 0.124247774f, 0.21649234f, 0.0828318521f, -0.0489460938f, 0.043298468f,
    -0.0489460938f, -0.0263555888f, -0.0169428792f, 0.129895404f, 0.131777942f, 0.0978921875f, 0.109187439f, 0.158133537f,
    0.0903620198f, 0.0545937195f, 0.131777942f, 0.00188254204f, -0.167546242f, 0.086596936f, 0.0790667683f, -0.163781151f,
    0.0395333841f, 0.020707963f, 0.0131777944f, -0.0188254211f, 0.043298468f, 0.13366048f, 0.0470635518f, 0.0376508422f,
    0.0508286357f, -0.131777942f, 0.0602413453f, 0.13366048f, -0.160016075f, -0.150603369f, -0.0489460938f, -0.0602413453f,
    0.0f, -0.00941271055f, -0.0602413453f, -0.148720816f, 0.156250983f, 0.105422355f, 0.152485907f, 0.0602413453f,
    0.0263555888f, 0.043298468f, -0.17507641f, -0.0470635518f, 0.107304893f, 0.135543033f, 0.109187439f, -0.0884794742f,
    -0.150603369f, -0.00941271055f, 0.112952523f, 0.0131777944f, 0.0470635518f, 0.165663704f, 0.120482691f, 0.120482691f,
    -0.150603369f, -0.128012866f, 0.0470635518f, 0.0263555888f, 0.0790667683f, 0.107304893f, -0.0263555888f, 0.137425572f,
    -0.0150603363f, -0.086596936f, 0.022590505f, -0.0602413453f, 0.178841487f, -0.086596936f, -0.0903620198f, -0.0696540549f,
    0.00564762624f, 0.169428781f, 0.0941271037f, -0.0508286357f, -0.0282381307f, 0.186371669f, 0.0809493065f, 0.171311319f,
    -0.00564762624f, 0.169428781f, -0.124247774f, 0.0847143903f, 0.0244730469f, -0.0188254211f, -0.020707963f, 0.197666913f,
    0.0395333841f, -0.0602413453f, 0.148720816f, 0.171311319f, -0.0301206727f, 0.156250983f, -0.0997747257f, -0.107304893f,
    0.135543033f, -0.0395333841f, 0.231552675f, -0.00376508408f, 0.199549451f, 0.212727249f, 0.0244730469f, 0.122365236f,
    0.0451810099f, -0.0545937195f, 0.105422355f, 0.0338857584f, 0.112952523f, -0.0244730469f, -0.0771842226f, -0.0997747257f,
    -0.0978921875f, 0.124247774f, 0.165663704f, 0.227787584f, 0.0357683003f, 0.141190648f, 0.239082843f, 0.00376508408f,
    0.158133537f, 0.141190648f, 0.0338857584f, -0.043298468f, 0.129895404f, -0.0282381307f, -0.0301206727f, 0.150603369f,
    0.178841487f, -0.043298468f, 0.0658889711f, -0.0414159261f, -0.0978921875f, -0.00753016816f, 0.00376508408f, 0.160016075f,
    },
    {
    -0.151553988f, 0.0823256224f, -0.0673573315f, 0.0523890331f, 0.0729704425f, -0.0486469604f, -0.207685098f, -0.164651245f,
    -0.12723051f, 0.0972939208f, -0.149682954f, -0.164651245f, -0.0205814056f, -0.102907032f, -0.108520143f, 0.106649108f,
    -0.106649108f, -0.149682954f, 0.11787533f, -0.160909176f, -0.172135398f, -0.0673573315f, -0.00935518462f, -0.168393329f,
    0.0243234802f, 0.0037420739f, -0.18336162f, 0.0130972583f, 0.0523890331f, 0.0729704425f, -0.140327767f, -0.136585698f,
    0.0580021441f, -0.0355497003f, 0.0804545879f, -0.0898097754f, -0.0411628112f, 0.104778066f, -0.108520143f, -0.00561311096f,
    0.0280655548f, -0.0710994005f, -0.125359476f, -0.0205814056f, -0.11787533f, -0.123488441f, -0.130972579f, 0.104778066f,
    -0.159038141f, -0.119746365f, -0.0449048877f, 0.0617442206f, -0.0037420739f, -0.0654862896f, 0.0355497003f, 0.177748516f,
    0.11787533f, 0.174006432f, -0.00561311096f, -0.145940885f, 0.0280655548f, 0.0841966644f, -0.106649108f, 0.0187103692f,
    0.155296072f, 0.0243234802f, -0.121617399f, 0.0636152551f, -0.069228366f, 0.112262219f, -0.0954228863f, -0.0149682956f,
    0.198329911f, -0.0916808099f, -0.0598731823f, 0.00748414779f, 0.237621695f, 0.215169251f, 0.0205814056f, 0.0542600714f,
    0.0710994005f, 0.134714663f, 0.12723051f, -0.0767125115f, 0.140327767f, 0.0411628112f, -0.0673573315f, 0.20020096f,
    0.0935518444f, 0.0205814056f, 0.211427182f, -0.0374207385f, -0.00561311096f, -0.0224524438f, 0.0392917767f, -0.170264363f,
    -0.00187103695f, 0.121617399f, -0.0130972583f, 0.170264363f, -0.0879387334f, -0.0673573315f, 0.0318076275f, -0.0168393329f,
    -0.125359476f, -0.0972939208f, 0.177748516f, 0.0205814056f, 0.153425023f, 0.157167107f, -0.0130972583f, -0.0617442206f,
    0.0037420739f, 0.12723051f, 0.0580021441f, -0.069228366f, 0.101035997f, -0.0935518444f, -0.0224524438f, -0.0430338494f,
    0.0580021441f, -0.074841477f, 0.134714663f, -0.0879387334f, -0.0954228863f, 0.18336162f, 0.149682954f, 0.069228366f,
    0.0467759222f, 0.151553988f, 0.116004288f, -0.140327767f, -0.0449048877f, 0.132843629f, 0.159038141f, -0.0318076275f,
    -0.0187103692f, -0.0149682956f, 0.153425023f, 0.181490585f, -0.0860676989f, 0.0916808099f, 0.0299365912f, -0.119746365f,
    -0.0411628112f, 0.145940885f, -0.123488441f, -0.0804545879f, 0.196458876f, -0.0767125115f, 0.134714663f, -0.114133254f,
    -0.0879387334f, -0.0673573315f, -0.0243234802f, 0.172135398f, -0.12723051f, 0.119746365f, 0.0336786658f, 0.0654862896f,
    0.0916808099f, 0.104778066f, -0.147811919f, -0.0486469604f, -0.0916808099f, -0.0411628112f, -0.0767125115f, -0.102907032f,
    0.116004288f, 0.112262219f, 0.0898097754f, -0.0841966644f, 0.0299365912f, -0.0542600714f, -0.0561311096f, -0.102907032f,
    0.0467759222f, 0.0392917767f, 0.18336162f, -0.157167107f, 0.134714663f, -0.0654862896f, 0.0149682956f, -0.0336786658f,
    -0.159038141f, 0.0467759222f, 0.069228366f, -0.196458876f, 0.0430338494f, -0.0374207385f, 0.0130972583f, -0.174006432f,
    0.0636152551f, -0.159038141f, -0.0355497003f, 0.0318076275f, -0.190845773f, -0.14406985f, -0.170264363f, 0.0767125115f,
    },
    {
    0.0182720777f, 0.0182720777f, 0.0749155208f, -0.0712611005f, 0.0913603902f, -0.00182720774f, 0.0566434413f, -0.111459672f,
    0.08953318f, 0.0475074016f, 0.142522201f, -0.0877059698f, 0.0383713618f, 0.0475074016f, -0.166275904f, 0.100496426f,
    -0.164448693f, -0.109632462f, 0.0950148031f, 0.00365441549f, 0.148003832f, 0.158967078f, -0.0639522746f, -0.127904549f,
    -0.0182720777f, 0.126077339f, 0.126077339f, -0.0255809091f, -0.0274081156f, -0.155312657f, -0.0712611005f, 0.111459672f,
    -0.00913603883f, -0.0548162311f, 0.00182720774f, 0.0913603902f, 0.0383713618f, -0.0219264925f, -0.113286883f, 0.0822243467f,
    -0.149831042f, 0.0950148031f, -0.204647273f, 0.0931875929f, -0.0475074016f, -0.111459672f, -0.206474468f, -0.0840515569f,
    -0.020099286f, 0.124250129f, 0.158967078f, 0.148003832f, 0.18089357f, -0.115114085f, 0.188202396f, -0.0767427236f,
    -0.00548162311f, 0.0584706478f, -0.0913603902f, -0.102323636f, -0.102323636f, 0.116941296f, -0.0840515569f, 0.232055381f,
    0.0950148031f, -0.0858787671f, -0.0182720777f, 0.0237537008f, 0.00730883097f, 0.0749155208f, 0.17906636f, -0.0420257784f,
    -0.0968420133f, 0.0822243467f, -0.0365441553f, -0.149831042f, 0.0548162311f, 0.102323636f, -0.00730883097f, 0.0438529849f,
    0.0548162311f, -0.138867795f, 0.0639522746f, -0.0950148031f, -0.146176621f, 0.0657794774f, -0.020099286f, -0.0475074016f,
    0.0913603902f, 0.0274081156f, -0.00730883097f, -0.109632462f, -0.146176621f, 0.0822243467f, -0.0127904546f, -0.162621483f,
    -0.040198572f, 0.0109632462f, -0.100496426f, 0.105978049f, -0.104150839f, 0.0255809091f, -0.116941296f, -0.0913603902f,
    0.0566434413f, -0.100496426f, -0.0164448693f, 0.0475074016f, 0.0f, -0.0858787671f, -0.109632462f, -0.00548162311f,
    0.0950148031f, 0.116941296f, 0.153485447f, 0.0657794774f, 0.124250129f, 0.0950148031f, -0.0767427236f, -0.0950148031f,
    -0.124250129f, 0.186375186f, 0.162621483f, 0.151658237f, 0.098669216f, -0.0730883107f, 0.0913603902f, 0.00182720774f,
    0.193684027f, 0.0858787671f, 0.160794288f, 0.0146176619f, 0.049334608f, -0.0365441553f, -0.049334608f, -0.0219264925f,
    -0.0785699338f, -0.109632462f, -0.0456801951f, 0.186375186f, 0.0182720777f, -0.102323636f, 0.0548162311f, -0.162621483f,
    0.0931875929f, -0.0274081156f, 0.0749155208f, -0.113286883f, 0.0566434413f, 0.08953318f, -0.115114085f, -0.164448693f,
    0.0676066875f, -0.131558955f, -0.0456801951f, 0.111459672f, -0.0109632462f, 0.148003832f, 0.135213375f, -0.0749155208f,
    0.0475074016f, -0.00730883097f, -0.0566434413f, -0.0274081156f, 0.040198572f, 0.0127904546f, 0.0749155208f, 0.109632462f,
    -0.155312657f, 0.0475074016f, 0.00182720774f, -0.0840515569f, 0.0383713618f, -0.115114085f, 0.00730883097f, 0.116941296f,
    -0.0365441553f, -0.0529890247f, 0.113286883f, 0.0913603902f, 0.080397144f, -0.0877059698f, 0.00913603883f, -0.137040585f,
    0.142522201f, -0.0511618182f, 0.126077339f, 0.148003832f, 0.0730883107f, 0.0950148031f, 0.115114085f, -0.169930324f,
    -0.020099286f, -0.0420257784f, -0.120595708f, -0.162621483f, -0.153485447f, 0.0274081156f, 0.0767427236f, 0.115114085f,
    },
    {
    -0.0842184052f, -0.013749944f, -0.0532810315f, -0.020624917f, 0.0601560064f, -0.0360936038f, 0.00687497202f, -0.0154686868f,
    -0.0721872076f, -0.0429685749f, 0.190780476f, -0.0446873195f, 0.206249163f, 0.0464060605f, 0.0240624025f, 0.14609316f,
    0.142655671f, 0.0635934919f, 0.207967907f, -0.0515622906f, 0.125468239f, 0.182186753f, 0.1718743f, 0.101405837f,
    0.0171874296f, 0.140936926f, 0.125468239f, 0.139218181f, -0.0584372617f, -0.041249834f, 0.0721872076f, -0.0635934919f,
    0.0395310894f, 0.0378123447f, -0.0687497184f, 0.0635934919f, -0.118593268f, 0.164999336f, -0.0618747473f, 0.175311789f,
    0.173593044f, -0.0223436598f, 0.207967907f, 0.0635934919f, 0.163280591f, -0.0567185208f, -0.0601560064f, 0.0567185208f,
    0.0515622906f, 0.0481248051f, 0.0859371498f, 0.0515622906f, -0.142655671f, -0.013749944f, 0.104843326f, -0.190780476f,
    -0.140936926f, -0.0360936038f, -0.0773434341f, 0.139218181f, 0.108280808f, 0.0876558945f, -0.128905728f, 0.070468463f,
    0.0549997762f, -0.132343218f, 0.0549997762f, -0.125468239f, -0.0085937148f, 0.159843102f, -0.154686868f, 0.108280808f,
    -0.104843326f, -0.103124581f, -0.0842184052f, 0.14609316f, 0.132343218f, -0.159843102f, 0.140936926f, -0.108280808f,
    -0.113437042f, 0.137499437f, -0.0567185208f, 0.144374415f, -0.049843546f, 0.116874523f, -0.0859371498f, -0.0635934919f,
    0.049843546f, -0.0893746391f, 0.12203075f, 0.0378123447f, -0.0842184052f, -0.0292186309f, -0.0257811453f, -0.0859371498f,
    0.180468023f, 0.111718297f, 0.070468463f, -0.0223436598f, -0.0549997762f, 0.0739059523f, -0.0910933763f, 0.0979683548f,
    0.116874523f, -0.0910933763f, -0.127186984f, 0.0360936038f, 0.113437042f, -0.0635934919f, -0.00171874301f, -0.116874523f,
    0.0567185208f, 0.0859371498f, -0.0910933763f, 0.161561847f, 0.111718297f, 0.0240624025f, -0.0876558945f, 0.0532810315f,
    0.137499437f, 0.0962496102f, 0.0601560064f, -0.0790621787f, 0.0670309737f, -0.070468463f, -0.111718297f, 0.164999336f,
    -0.130624473f, -0.0773434341f, 0.0653122365f, -0.128905728f, -0.0928121209f, 0.0979683548f, 0.0120312013f, 0.0309373736f,
    0.109999552f, 0.166718066f, 0.0739059523f, 0.0481248051f, 0.0910933763f, -0.0395310894f, -0.0429685749f, 0.099687092f,
    0.0653122365f, -0.0515622906f, -0.0807809234f, 0.120312013f, 0.0670309737f, 0.21828036f, 0.149530634f, -0.0687497184f,
    0.163280591f, -0.070468463f, -0.0721872076f, 0.106562063f, -0.0756246895f, 0.0120312013f, 0.0773434341f, 0.144374415f,
    0.139218181f, 0.0549997762f, -0.0721872076f, -0.00515622925f, 0.125468239f, 0.070468463f, -0.00343748601f, 0.16843681f,
    0.118593268f, -0.0240624025f, 0.166718066f, 0.116874523f, 0.0223436598f, -0.0257811453f, -0.099687092f, -0.013749944f,
    0.147811905f, -0.109999552f, -0.111718297f, 0.137499437f, 0.0189061724f, -0.0326561183f, 0.175311789f, 0.182186753f,
    0.070468463f, 0.0464060605f, 0.166718066f, 0.0395310894f, 0.101405837f, -0.0292186309f, 0.00343748601f, -0.0464060605f,
    0.0154686868f, -0.0515622906f, 0.0395310894f, 0.0601560064f, 0.0481248051f, 0.118593268f, -0.00515622925f, 0.135780692f,
    },
    {
    -0.00219009444f, 0.175207555f, 0.0438018888f, -0.221199542f, -0.240910381f, -0.221199542f, -0.0525622666f, -0.0240910389f,
    -0.0175207555f, -0.1576868f, 0.0503721721f, -0.153306603f, 0.0328514166f, -0.129215568f, -0.162066996f, -0.109504722f,
    -0.183967933f, 0.074463211f, -0.170827359f, -0.0569424555f, -0.135785848f, -0.0657028332f, -0.131405666f, -0.183967933f,
    -0.0438018888f, 0.102934435f, -0.173017457f, -0.201488689f, -0.0700830221f, 0.01971085f, -0.142356142f, -0.0788433999f,
    0.0262811333f, -0.0525622666f, -0.0328514166f, -0.137975946f, -0.0788433999f, -0.0459919833f, -0.0963641554f, -0.194918409f,
    -0.0613226444f, 0.124835387f, -0.0262811333f, -0.133595765f, -0.22995992f, -0.0700830221f, -0.100744344f, -0.0306613222f,
    -0.0394216999f, 0.0284712277f, 0.0175207555f, 0.0372316055f, 0.0284712277f, -0.0416117944f, 0.00438018888f, 0.0131405666f,
    0.0985542536f, 0.194918409f, 0.0503721721f, -0.210249066f, 0.0394216999f, 0.0416117944f, 0.2365302f, 0.0350415111f,
    -0.00219009444f, -0.0897938758f, 0.212439165f, 0.113884911f, 0.105124533f, 0.0854136795f, -0.0131405666f, 0.0459919833f,
    0.116075009f, 0.0985542536f, 0.223389626f, 0.135785848f, 0.1576868f, 0.275951892f, -0.0328514166f, -0.0350415111f,
    0.0438018888f, 0.0525622666f, 0.0941740572f, 0.197108507f, 0.100744344f, 0.146736324f, 0.0284712277f, 0.0788433999f,
    0.258431137f, 0.179587752f, 0.0788433999f, -0.074463211f, 0.278142005f, 0.133595765f, 0.0503721721f, 0.0153306611f,
    0.0350415111f, -0.159876898f, 0.00657028332f, 0.113884911f, 0.01971085f, 0.0854136795f, 0.124835387f, -0.0700830221f,
    -0.0613226444f, 0.164257079f, 0.00876037776f, -0.00876037776f, 0.234340101f, 0.175207555f, 0.219009444f, -0.067892924f,
    0.192728311f, 0.0700830221f, -0.0657028332f, 0.0766533017f, -0.0350415111f, 0.0262811333f, 0.00657028332f, -0.067892924f,
    0.210249066f, -0.00657028332f, 0.00219009444f, -0.0131405666f, 0.116075009f, 0.0832235888f, 0.15111652f, -0.129215568f,
    0.214629263f, 0.227769822f, 0.109504722f, -0.0372316055f, 0.0941740572f, -0.116075009f, 0.208058968f, 0.00438018888f,
    0.131405666f, 0.19929859f, 0.100744344f, -0.00657028332f, -0.0700830221f, 0.190538213f, 0.159876898f, -0.00876037776f,
    -0.0897938758f, 0.0591325499f, -0.067892924f, 0.0657028332f, -0.081033498f, -0.01971085f, 0.111694813f, 0.20586887f,
    -0.067892924f, 0.0788433999f, 0.221199542f, -0.0788433999f, 0.214629263f, 0.15111652f, 0.127025485f, -0.0131405666f,
    -0.0919839665f, -0.102934435f, 0.186158031f, -0.0985542536f, 0.100744344f, -0.1182651f, 0.0876037776f, -0.081033498f,
    0.113884911f, 0.179587752f, 0.223389626f, -0.067892924f, -0.0722731203f, -0.0438018888f, 0.0262811333f, -0.164257079f,
    0.122645289f, -0.0876037776f, -0.0613226444f, -0.127025485f, -0.0240910389f, -0.01971085f, 0.0525622666f, -0.0963641554f,
    -0.194918409f, 0.00219009444f, -0.109504722f, -0.0481820777f, -0.111694813f, -0.188348114f, -0.0635127425f, -0.00219009444f,
    0.0635127425f, -0.00657028332f, -0.127025485f, -0.129215568f, -0.153306603f, 0.0131405666f, 0.0153306611f, -0.0985542536f,
    },
    {
    0.0917125717f, -0.015950013f, -0.0737688094f, -0.0737688094f, -0.0438625365f, -0.101681329f, -0.125606358f, -0.207350165f,
    -0.0877250731f, -0.0618062988f, -0.0219312683f, -0.159500122f, -0.0877250731f, -0.0458562858f, -0.173456386f, 0.101681329f,
    -0.207350165f, -0.00398750324f, -0.0239250194f, -0.133581355f, 0.0478500389f, 0.0638000518f, -0.0458562858f, -0.0319000259f,
    0.0897188261f, -0.155512631f, -0.223300189f, 0.0458562858f, -0.167475134f, 0.0558250472f, 0.0498437919f, -0.0259187706f,
    -0.149531364f, 0.0478500389f, -0.13158761f, 0.117631346f, 0.0817438141f, -0.0677875578f, -0.0996875837f, -0.0478500389f,
    -0.173456386f, -0.147537619f, 0.0598125495f, -0.115637593f, -0.0996875837f, -0.0478500389f, -0.105668835f, 0.0737688094f,
    -0.165481389f, -0.0299062748f, 0.177443892f, -0.121618852f, 0.135575116f, 0.11364384f, -0.0677875578f, -0.0757625625f,
    0.201368913f, 0.107662588f, -0.0119625097f, 0.0338937789f, -0.0757625625f, -0.15351887f, -0.0638000518f, 0.137568861f,
    0.0737688094f, -0.0996875837f, -0.0279125236f, -0.0737688094f, -0.0638000518f, -0.0239250194f, 0.0757625625f, -0.159500122f,
    0.0398750305f, 0.0518375412f, 0.233268946f, 0.239250198f, -0.0518375412f, 0.123612598f, 0.0418687835f, -0.0458562858f,
    0.155512631f, 0.253206462f, -0.0677875578f, 0.0937063247f, 0.181431398f, -0.0119625097f, 0.195387661f, 0.00598125486f,
    0.103675082f, 0.0418687835f, 0.079750061f, 0.0897188261f, 0.167475134f, 0.199375167f, -0.0199375153f, 0.0299062748f,
    -0.149531364f, -0.00797500648f, -0.0677875578f, -0.109656341f, -0.00398750324f, 0.0299062748f, -0.125606358f, -0.0518375412f,
    -0.0518375412f, 0.165481389f, 0.0996875837f, 0.0179437641f, 0.133581355f, 0.167475134f, 0.145543873f, 0.0757625625f,
    0.17146264f, -0.0618062988f, 0.207350165f, 0.0299062748f, 0.079750061f, 0.121618852f, 0.0139562618f, 0.219312683f,
    0.213331416f, 0.213331416f, 0.191400155f, 0.201368913f, 0.22728768f, 0.149531364f, -0.0598125495f, 0.0378812812f,
    0.151525125f, 0.0677875578f, 0.0757625625f, -0.0458562858f, -0.0518375412f, 0.103675082f, 0.149531364f, -0.0259187706f,
    0.0976938307f, 0.0498437919f, 0.0638000518f, -0.0917125717f, 0.0418687835f, 0.0777563155f, 0.00996875763f, 0.00398750324f,
    0.0179437641f, 0.15351887f, -0.0598125495f, 0.123612598f, 0.139562607f, 0.0f, 0.147537619f, 0.13158761f,
    0.18940641f, 0.179437652f, -0.119625099f, 0.145543873f, 0.143550113f, 0.155512631f, -0.0777563155f, -0.127600104f,
    0.0458562858f, -0.00398750324f, -0.0179437641f, -0.0279125236f, 0.0837375671f, -0.0737688094f, 0.0119625097f, 0.0817438141f,
    0.139562607f, 0.0398750305f, -0.0996875837f, 0.0378812812f, -0.0817438141f, -0.0398750305f, -0.117631346f, -0.0458562858f,
    -0.0338937789f, -0.0638000518f, 0.123612598f, 0.015950013f, 0.0378812812f, -0.155512631f, -0.0957000777f, -0.0338937789f,
    -0.0757625625f, 0.0338937789f, 0.0877250731f, -0.105668835f, -0.0458562858f, -0.0259187706f, -0.00598125486f, -0.0139562618f,
    -0.147537619f, -0.205356419f, -0.115637593f, 0.079750061f, -0.197381407f, 0.0677875578f, -0.0598125495f, -0.22728768f,
    },
    {
    0.196739987f, 0.237304941f, 0.166316286f, 0.012169484f, 0.190655246f, 0.241361439f, 0.00202824734f, 0.012169484f,
    0.223107204f, 0.0608474202f, 0.257587403f, 0.105468862f, -0.042593196f, -0.00405649468f, 0.0811298937f, 0.194711745f,
    0.227163702f, -0.012169484f, -0.0141977314f, 0.0588191748f, -0.0588191748f, 0.139949068f, 0.0263672154f, -0.0162259787f,
    0.233248442f, -0.0223107208f, -0.0507061854f, 0.223107204f, 0.00608474202f, 0.105468862f, 0.0628756657f, -0.0709886551f,
    0.0669321641f, -0.0344802067f, 0.0182542261f, 0.046649687f, -0.0791016445f, 0.0202824734f, 0.0385366976f, 0.131836072f,
    0.00405649468f, 0.046649687f, -0.0588191748f, -0.0162259787f, -0.0446214415f, 0.0365084521f, 0.0689604133f, 0.0993841216f,
    -0.144005567f, -0.131836072f, 0.0770733953f, 0.229191944f, 0.0446214415f, 0.146033809f, 0.0141977314f, 0.0689604133f,
    -0.0446214415f, -0.0486779362f, 0.0567909256f, 0.12169484f, -0.101412371f, -0.0567909256f, -0.139949068f, 0.0872146338f,
    -0.0182542261f, 0.166316286f, -0.0851863921f, 0.0223107208f, -0.0628756657f, -0.0628756657f, 0.11763835f, -0.0405649468f,
    0.119666591f, 0.0953276232f, -0.0223107208f, 0.0304237101f, 0.0709886551f, -0.0202824734f, -0.139949068f, -0.202824742f,
    -0.0507061854f, -0.109525353f, -0.182542264f, 0.0730169043f, -0.119666591f, -0.0588191748f, -0.0182542261f, 0.12372309f,
    -0.156175047f, -0.0243389681f, -0.160231546f, 0.144005567f, -0.0912711322f, -0.111553602f, 0.192683503f, 0.208909482f,
    0.0527344309f, 0.111553602f, -0.093299374f, 0.00811298937f, -0.11763835f, 0.042593196f, -0.101412371f, -0.0141977314f,
    -0.0344802067f, -0.109525353f, -0.0669321641f, 0.046649687f, -0.0689604133f, -0.089242883f, 0.0912711322f, -0.093299374f,
    -0.170372784f, -0.0446214415f, 0.0405649468f, -0.0446214415f, -0.0263672154f, 0.0953276232f, -0.133864328f, 0.0851863921f,
    -0.0202824734f, -0.0547626764f, -0.206881225f, -0.113581851f, -0.194711745f, -0.12169484f, -0.0385366976f, -0.0405649468f,
    0.0f, 0.178485766f, 0.0507061854f, 0.109525353f, 0.0791016445f, 0.105468862f, 0.166316286f, 0.0202824734f,
    0.0344802067f, -0.0669321641f, -0.127779588f, -0.0750451535f, -0.0223107208f, 0.109525353f, -0.00405649468f, -0.113581851f,
    0.0912711322f, 0.107497111f, 0.0851863921f, 0.109525353f, -0.0567909256f, -0.14806205f, 0.146033809f, 0.0101412367f,
    0.0f, -0.0344802067f, -0.0547626764f, -0.0243389681f, 0.160231546f, -0.00608474202f, -0.0730169043f, -0.0141977314f,
    0.12980783f, 0.0344802067f, -0.0344802067f, 0.0689604133f, -0.0973558724f, -0.0831581429f, 0.0750451535f, -0.042593196f,
    0.0365084521f, 0.160231546f, -0.00405649468f, 0.206881225f, 0.0709886551f, 0.219050705f, -0.0831581429f, 0.0547626764f,
    -0.0953276232f, -0.0567909256f, 0.0304237101f, -0.0283954628f, 0.00608474202f, 0.1156101f, 0.202824742f, -0.0182542261f,
    0.170372784f, 0.0243389681f, 0.237304941f, 0.0365084521f, 0.223107204f, 0.133864328f, 0.146033809f, 0.0141977314f,
    0.0162259787f, 0.0527344309f, 0.13589257f, 0.00405649468f, 0.0730169043f, -0.0446214415f, 0.101412371f, 0.184570506f,
    },
    {
    0.0261433683f, 0.0261433683f, 0.0806087181f, 0.0261433683f, 0.183003575f, 0.0174289122f, 0.252719223f, 0.128538221f,
    0.0936804041f, -0.0217861403f, 0.115466543f, 0.00435722806f, 0.0980376303f, 0.156860203f, 0.191718042f, 0.0958590209f,
    0.274505377f, 0.187360808f, 0.0305005964f, 0.130716845f, -0.00653584208f, -0.0631798059f, 0.0108930701f, 0.115466543f,
    0.241826162f, 0.00653584208f, 0.0697156489f, 0.196075261f, -0.0588225797f, 0.0980376303f, 0.0653584227f, -0.0239647552f,
    0.19825387f, -0.00653584208f, 0.222218633f, 0.21350418f, 0.152502984f, 0.141609907f, 0.139431298f, 0.230933085f,
    0.26579091f, 0.0457508937f, 0.0566439629f, 0.0566439629f, 0.113287926f, 0.26579091f, 0.261433691f, 0.0522867367f,
    -0.0217861403f, 0.156860203f, 0.174289122f, -0.00871445611f, 0.00871445611f, -0.0522867367f, -0.0958590209f, 0.124181002f,
    -0.0610011928f, 0.10675209f, -0.183003575f, -0.14814575f, -0.163396046f, -0.132895455f, -0.0893231779f, -0.132895455f,
    0.0130716842f, 0.176467732f, 0.0588225797f, 0.0392150506f, -0.0130716842f, 0.0697156489f, 0.113287926f, 0.163396046f,
    -0.0413936675f, 0.0610011928f, -0.0239647552f, 0.0936804041f, -0.119823769f, 0.0653584227f, -0.0936804041f, 0.137252688f,
    -0.0501081236f, 0.104573473f, -0.0849659443f, -0.0174289122f, -0.124181002f, 0.132895455f, 0.0283219814f, -0.1089307f,
    -0.0697156489f, -0.154681593f, 0.102394857f, 0.0261433683f, -0.0827873349f, -0.141609907f, 0.0806087181f, 0.276683986f,
    0.0196075253f, 0.122002386f, -0.0827873349f, -0.0392150506f, -0.0610011928f, 0.0217861403f, 0.111109316f, 0.220040023f,
    -0.104573473f, -0.0784301013f, -0.102394857f, -0.113287926f, -0.00871445611f, 0.119823769f, 0.115466543f, 0.0f,
    -0.0566439629f, -0.0653584227f, -0.113287926f, -0.00653584208f, 0.0566439629f, -0.104573473f, 0.0261433683f, 0.0370364375f,
    -0.00653584208f, 0.156860203f, 0.159038827f, -0.126359612f, 0.0348578244f, 0.0305005964f, 0.122002386f, 0.226575851f,
    0.0348578244f, -0.0827873349f, 0.0435722806f, -0.0871445611f, -0.1089307f, 0.115466543f, 0.220040023f, -0.0370364375f,
    0.172110513f, -0.0697156489f, -0.0653584227f, -0.102394857f, -0.0370364375f, -0.00871445611f, 0.14814575f, -0.00217861403f,
    0.196075261f, 0.132895455f, 0.130716845f, 0.220040023f, 0.172110513f, -0.0196075253f, 0.0849659443f, -0.0479295105f,
    -0.0806087181f, 0.0718942657f, -0.122002386f, -0.00653584208f, 0.0544653498f, 0.102394857f, 0.0217861403f, 0.0784301013f,
    -0.0806087181f, 0.152502984f, 0.16557467f, 0.248362005f, -0.0522867367f, 0.0610011928f, 0.204789713f, -0.00653584208f,
    0.0958590209f, 0.0392150506f, -0.0762514919f, -0.0522867367f, 0.183003575f, 0.143788531f, 0.0217861403f, 0.202611104f,
    0.0697156489f, 0.211325556f, -0.00217861403f, 0.159038827f, 0.250540614f, -0.00435722806f, 0.211325556f, 0.0784301013f,
    0.0784301013f, 0.226575851f, 0.19825387f, 0.206968337f, 0.0108930701f, 0.113287926f, 0.102394857f, 0.0305005964f,
    0.0697156489f, -0.0392150506f, 0.0631798059f, 0.267969519f, 0.154681593f, 0.178646356f, 0.0501081236f, 0.0392150506f,
    },
    {
    -0.06189261f, 0.199431747f, 0.0257885866f, 0.19083555f, 0.0550156534f, -0.0567348935f, -0.0171923917f, -0.0808042437f,
    -0.0601733699f, 0.159889236f, 0.151293039f, -0.111750543f, -0.0842427164f, 0.15817f, 0.0378232598f, 0.154731527f,
    0.0515771732f, -0.0532964133f, 0.0876811966f, 0.134100661f, -0.10143511f, -0.0773657635f, -0.0137539133f, 0.0292270668f,
    0.214904889f, 0.0704888031f, 0.154731527f, -0.0378232598f, 0.0292270668f, 0.199431747f, -0.0326655433f, -0.0704888031f,
    -0.0223501101f, -0.122065984f, 0.10487359f, -0.0859619603f, 0.111750543f, -0.0825234801f, -0.0051577175f, 0.0790849999f,
    0.134100661f, 0.12034674f, -0.14613533f, -0.00343847834f, -0.00859619584f, 0.0928389132f, 0.094558157f, 0.0429809801f,
    -0.0876811966f, -0.144416094f, -0.0171923917f, 0.10487359f, 0.12034674f, 0.0653310865f, -0.02063087f, 0.10831207f,
    0.173643157f, 0.19599326f, 0.180520117f, 0.218343377f, 0.094558157f, -0.0808042437f, -0.06189261f, -0.122065984f,
    -0.0189116299f, -0.0584541336f, 0.185677826f, 0.0154731525f, 0.16504696f, 0.0739272833f, 0.0326655433f, -0.0773657635f,
    -0.106592827f, 0.0275078267f, 0.156450763f, 0.173643157f, 0.0636118501f, 0.0171923917f, -0.178800881f, 0.0859619603f,
    -0.0515771732f, -0.156450763f, -0.16504696f, -0.0962773934f, 0.10831207f, 0.00687695667f, -0.094558157f, 0.0790849999f,
    -0.159889236f, -0.15817f, 0.0378232598f, 0.142696857f, 0.0722080469f, -0.10831207f, -0.0584541336f, 0.1272237f,
    0.0928389132f, -0.0979966298f, -0.137539133f, -0.0171923917f, 0.149573803f, 0.094558157f, 0.0378232598f, 0.0171923917f,
    0.0567348935f, 0.204589456f, 0.0223501101f, -0.10831207f, 0.0756465197f, 0.0326655433f, -0.0790849999f, 0.0515771732f,
    -0.106592827f, -0.113469787f, -0.161608487f, 0.113469787f, -0.142696857f, -0.151293039f, 0.0704888031f, -0.201150984f,
    0.0722080469f, 0.0739272833f, 0.10143511f, -0.0051577175f, -0.201150984f, -0.125504464f, -0.0532964133f, 0.0928389132f,
    0.15817f, -0.140977606f, 0.030946305f, 0.0859619603f, 0.0515771732f, 0.00343847834f, 0.134100661f, -0.10143511f,
    -0.0825234801f, -0.0825234801f, -0.0378232598f, 0.0670503303f, 0.0532964133f, -0.153012291f, -0.10831207f, -0.0687695667f,
    -0.0137539133f, -0.130662173f, -0.0498579368f, 0.142696857f, -0.0154731525f, -0.118627504f, 0.168485433f, 0.166766196f,
    0.0842427164f, -0.00687695667f, 0.0773657635f, 0.0687695667f, 0.0378232598f, 0.182239354f, 0.0154731525f, -0.0601733699f,
    0.0154731525f, 0.137539133f, 0.0257885866f, 0.0154731525f, 0.204589456f, 0.12034674f, -0.113469787f, -0.0997158736f,
    0.0773657635f, 0.180520117f, 0.12034674f, -0.00687695667f, 0.0429809801f, 0.0722080469f, 0.12034674f, 0.0154731525f,
    -0.128942937f, 0.0876811966f, -0.10487359f, -0.0481386967f, 0.0343847834f, 0.211466417f, 0.00859619584f, -0.0859619603f,
    0.0343847834f, 0.0532964133f, -0.0257885866f, 0.00343847834f, 0.170204684f, 0.0240693484f, 0.142696857f, -0.118627504f,
    0.0704888031f, 0.134100661f, 0.0876811966f, 0.151293039f, 0.0997158736f, 0.0326655433f, 0.0979966298f, -0.00687695667f,
    },
};
const float g_kws_dense1_bias[24] = {
    0.0170353837f, -0.016763689f, -0.0197760668f, 0.0708458349f, 0.0773989856f, 0.0566900223f, 0.0179485083f, 0.0418177061f,
    0.0195654891f, 0.0871400163f, -0.0201151241f, 0.0166909024f, 0.0901298374f, 0.0610186756f, -0.0040836418f, -0.0011959679f,
    0.0599318855f, -0.0169249605f, 0.00155023881f, 0.0446263961f, 0.0444958471f, -0.0140068382f, 0.0536793433f, -0.0260313042f,
};

const float g_kws_dense2_weights[12][24] = {
    {
    0.314729601f, 0.132717296f, -0.117549613f, 0.204763845f, 0.0834223032f, 0.200971916f, -0.193388075f, -0.0796303824f,
    -0.109965764f, 0.0f, -0.166844606f, -0.0758384615f, 0.0834223032f, 0.011375769f, -0.163052693f, -0.367816538f,
    -0.144093066f, 0.333689213f, -0.291978061f, -0.265434593f, -0.121341534f, 0.398151904f, 0.481574208f, 0.0568788424f,
    },
    {
    -0.0195014495f, -0.288621455f, 0.351026088f, -0.237917691f, -0.327624351f, -0.460234225f, 0.468034804f, 0.0234017409f,
    0.33152464f, -0.25351885f, 0.0546040609f, 0.475835383f, -0.374427855f, 0.393929303f, 0.405630171f, -0.218416244f,
    0.0546040609f, 0.171612754f, -0.218416244f, 0.12480928f, 0.191114217f, 0.495336831f, -0.24961856f, 0.41343075f,
    },
    {
    0.124995828f, 0.298066974f, -0.173071146f, -0.205121353f, -0.147430971f, -0.378192484f, -0.00320502114f, -0.11217574f,
    -0.176276162f, 0.0224351473f, 0.259606719f, -0.368577421f, -0.173071146f, 0.0801255256f, -0.121790804f, -0.057690382f,
    -0.0897405893f, -0.407037675f, -0.176276162f, 0.128200844f, 0.0416652746f, 0.192301273f, 0.150635988f, -0.391012579f,
    },
    {
    0.205421582f, -0.145003468f, -0.0120836226f, -0.257783949f, -0.435010403f, -0.511539996f, 0.185282215f, 0.145003468f,
    0.112780482f, -0.426954657f, -0.0443066172f, 0.165142849f, -0.483344913f, 0.471261293f, 0.435010403f, 0.281951189f,
    -0.0765296072f, -0.213477328f, 0.120836228f, -0.41889891f, 0.201393709f, 0.189310089f, 0.495428532f, -0.273895442f,
    },
    {
    -0.443280786f, -0.0765666813f, 0.12089476f, 0.451340437f, 0.435221136f, -0.0523877293f, 0.245819345f, 0.398952723f,
    -0.253879011f, 0.467459738f, 0.354624629f, -0.161193013f, 0.407012343f, 0.378803581f, -0.0322386026f, 0.24178952f,
    0.507758021f, -0.116864935f, -0.048357904f, 0.511787832f, 0.346564978f, -0.467459738f, 0.354624629f, 0.036268428f,
    },
    {
    -0.34754619f, -0.257663548f, -0.1228396f, 0.161788747f, -0.00599217555f, 0.116847426f, -0.191749617f, 0.380503148f,
    0.00299608777f, -0.248675287f, -0.344550103f, 0.116847426f, 0.167780921f, -0.0749021918f, 0.146808296f, 0.176769182f,
    -0.218714401f, 0.158792645f, -0.0659139305f, 0.230698764f, -0.146808296f, -0.239687026f, -0.272643983f, 0.371514887f,
    },
    {
    0.217276886f, 0.0299692266f, -0.101146139f, -0.172323048f, -0.265976876f, 0.0374615341f, 0.202292278f, 0.427061468f,
    -0.0486999936f, -0.262230724f, 0.408330709f, -0.232261509f, -0.307184577f, 0.310930729f, 0.12736921f, -0.20603843f,
    0.213530734f, -0.0374615341f, -0.12736921f, -0.00374615332f, -0.378361493f, -0.0749230683f, 0.475761473f, -0.258484572f,
    },
    {
    0.249741897f, 0.317573011f, 0.0894137621f, -0.228159264f, 0.0369988009f, -0.178827524f, -0.1294958f, -0.265158057f,
    -0.249741897f, 0.308323324f, -0.391570628f, -0.172661066f, 0.246658653f, -0.0154161658f, 0.363821536f, 0.172661066f,
    -0.194243699f, -0.305240095f, -0.120246097f, -0.283657461f, 0.388487399f, 0.0369988009f, 0.178827524f, -0.228159264f,
    },
    {
    0.29069221f, -0.154784158f, 0.385072798f, -0.128357589f, -0.117031924f, -0.479453385f, 0.294467419f, 0.0641787946f,
    0.381297559f, -0.0943805873f, 0.215187728f, 0.101931028f, -0.0717292428f, 0.256715178f, -0.128357589f, 0.0717292428f,
    -0.324669212f, -0.339770108f, 0.403948903f, -0.385072798f, -0.317118764f, -0.109481476f, 0.400173694f, 0.268040866f,
    },
    {
    0.521160364f, 0.25032112f, 0.369326234f, -0.422673345f, -0.0984869897f, -0.295460969f, 0.381637096f, -0.0574507453f,
    -0.205181241f, -0.225699365f, -0.168248609f, 0.172352239f, 0.196973979f, 0.188766733f, 0.361118972f, -0.0902797431f,
    -0.188766733f, 0.0943833664f, 0.131315991f, -0.172352239f, -0.127212361f, -0.0492434949f, 0.147730485f, -0.155937746f,
    },
    {
    0.155333117f, -0.36485219f, 0.368464589f, 0.0f, -0.354014993f, -0.0758603588f, 0.44793734f, -0.101147145f,
    0.0650231615f, -0.372076988f, -0.0975347459f, 0.415425777f, -0.299829036f, -0.00722479587f, -0.101147145f, 0.458774537f,
    -0.148108318f, 0.148108318f, 0.231193468f, 0.0397363789f, -0.187844694f, 0.216743872f, 0.419038147f, 0.158945516f,
    },
    {
    0.0f, 0.162198007f, -0.414925128f, -0.0867570713f, 0.418697178f, 0.286675543f, 0.0226322804f, -0.362116486f,
    0.192374378f, 0.173514143f, 0.388520807f, 0.365888536f, 0.135793686f, 0.0867570713f, -0.0150881866f, -0.0188602339f,
    -0.271587372f, -0.479049921f, 0.365888536f, -0.0075440933f, 0.267815322f, -0.479049921f, -0.00377204665f, -0.45641765f,
    },
};
const float g_kws_dense2_bias[12] = {
    0.0337579809f, 0.00969368871f, -0.0481526852f, 0.0453865044f, 0.137706891f, 0.0232730098f, 0.0934652537f, -0.0288039893f,
    0.0316482671f, 0.0363033749f, 0.00150117278f, 0.0624595098f,
};

const float g_kws_scores_weights[3][12] = {
    {
    0.347787291f, 0.347787291f, -0.512528658f, 0.20135054f, 0.115929097f, 0.176944405f, 0.567442417f, 0.146436751f,
    0.494224042f, 0.774894476f, 0.640660822f, -0.0671168491f,
    },
    {
    -0.64315176f, 0.00649648253f, -0.441760808f, -0.825053275f, 0.545704544f, 0.526215076f, -0.766584933f, -0.0259859301f,
    -0.773081422f, 0.389788955f, 0.220880404f, 0.188397989f,
    },
    {
    0.158924878f, -0.630023658f, -0.272442639f, -0.692458391f, 0.55056119f, -0.351905107f, 0.420015752f, -0.397312194f,
    -0.0113517772f, 0.368932754f, -0.465422869f, 0.720837831f,
    },
};
const float g_kws_scores_bias[3] = {
    -0.0773734003f, 0.0438519865f, 0.0385093614f,
};
