#include "kws_model_weights.h"

const float g_kws_dense1_weights[24][200] = {
    {
    0.100044116f, 0.048098132f, 0.0904244855f, -0.0808048621f, 0.173153266f, -0.0904244855f, -0.00192392524f, 0.126979068f,
    0.0827287883f, 0.0885005593f, -0.0577177554f, 0.186620742f, -0.0788809359f, 0.144294396f, -0.151990101f, -0.0654134601f,
    -0.084652707f, -0.138522625f, -0.128902987f, 0.140446544f, -0.117359437f, 0.221251398f, -0.0981201902f, 0.142370462f,
    -0.0750330836f, -0.0173153281f, 0.00384785049f, 0.0519459806f, 0.10966374f, -0.128902987f, -0.0538699068f, 0.146218315f,
    0.0230871029f, 0.0384785049f, -0.048098132f, -0.0134674767f, 0.169305414f, 0.0173153281f, -0.101968035f, -0.0134674767f,
    0.0f, 0.00769570097f, 0.0230871029f, -0.13082692f, -0.155837938f, 0.119283363f, -0.163533643f, -0.142370462f,
    -0.123131216f, -0.0153914019f, -0.151990101f, -0.107739814f, -0.10966374f, -0.0134674767f, 0.0250110291f, -0.177001119f,
    0.113511592f, 0.0923484117f, 0.134674773f, 0.0981201902f, 0.0173153281f, 0.207783923f, -0.063489534f, -0.136598691f,
    -0.0923484117f, 0.063489534f, -0.151990101f, 0.0115435515f, -0.134674773f, 0.0942723379f, 0.00384785049f, -0.151990101f,
    -0.0519459806f, -0.00961962622f, 0.0115435515f, 0.0577177554f, -0.0461742058f, -0.161609724f, -0.0654134601f, 0.0230871029f,
    0.0904244855f, 0.00384785049f, 0.0750330836f, 0.00769570097f, 0.0115435515f, -0.136598691f, -0.188544676f, 0.10966374f,
    -0.0134674767f, -0.111587666f, -0.198164299f, -0.0115435515f, -0.155837938f, -0.0346306562f, 0.198164299f, 0.1750772f,
    0.159685791f, 0.0269349534f, 0.103891961f, -0.0519459806f, 0.244338512f, 0.0538699068f, 0.0750330836f, -0.0307828039f,
    0.0461742058f, 0.0365545787f, -0.0750330836f, 0.0885005593f, 0.0769570097f, 0.128902987f, -0.146218315f, 0.040402431f,
    -0.113511592f, 0.084652707f, -0.103891961f, 0.132750839f, -0.169305414f, 0.0423263535f, -0.202012151f, -0.0577177554f,
    -0.0596416816f, -0.10966374f, 0.10966374f, 0.0211631767f, 0.055793833f, -0.0538699068f, -0.040402431f, -0.0923484117f,
    -0.188544676f, 0.0211631767f, -0.0519459806f, 0.117359437f, -0.10966374f, 0.211631775f, -0.00384785049f, -0.0230871029f,
    -0.00577177573f, -0.0134674767f, -0.144294396f, -0.142370462f, -0.0596416816f, -0.00384785049f, 0.00192392524f, 0.151990101f,
    0.0711852312f, 0.128902987f, -0.207783923f, 0.136598691f, 0.0346306562f, -0.0750330836f, -0.144294396f, 0.048098132f,
    -0.0769570097f, -0.115435511f, 0.0461742058f, -0.132750839f, 0.0500220582f, 0.0654134601f, -0.121207289f, -0.123131216f,
    0.0173153281f, -0.0384785049f, 0.113511592f, 0.0153914019f, -0.167381495f, -0.0269349534f, 0.0942723379f, -0.155837938f,
    0.00961962622f, -0.096196264f, 0.182772905f, 0.128902987f, 0.00769570097f, -0.0942723379f, 0.0346306562f, 0.140446544f,
    -0.0211631767f, 0.111587666f, 0.0423263535f, 0.0923484117f, -0.0461742058f, -0.00192392524f, 0.063489534f, -0.00769570097f,
    -0.113511592f, -0.132750839f, 0.0981201902f, 0.103891961f, 0.0442502797f, -0.132750839f, -0.126979068f, -0.146218315f,
    -0.0230871029f, 0.0211631767f, -0.0577177554f, 0.0981201902f, -0.125055134f, 0.13082692f, 0.132750839f, -0.0692613125f,
    },
    {
    0.0279311705f, 0.0538672581f, 0.0359115042f, 0.0279311705f, -0.115714848f, 0.169582114f, -0.0399016738f, 0.0359115042f,
    0.0379065908f, 0.0458869226f, -0.0359115042f, 0.0418967567f, 0.0678328425f, 0.145641103f, 0.0658377632f, 0.0798033476f,
    -0.0658377632f, 0.215469033f, -0.101749264f, 0.0159606691f, -0.0558623411f, 0.14763619f, -0.073818095f, 0.149631277f,
    0.1715772f, 0.0319213383f, 0.0478820056f, 0.073818095f, 0.157611609f, 0.239410043f, 0.0837935135f, -0.0179557521f,
    0.101749264f, -0.0359115042f, -0.0239410028f, 0.0119705014f, 0.137660772f, -0.123695187f, 0.0139655853f, 0.0219459198f,
    0.111724682f, -0.141650945f, -0.0758131817f, 0.00798033457f, -0.0498770922f, -0.0259360876f, 0.0837935135f, -0.0937689319f,
    -0.0199508369f, -0.0299262553f, -0.10573943f, -0.139655858f, 0.0917738453f, -0.0359115042f, -0.0538672581f, -0.0199508369f,
    0.0059852507f, -0.153621435f, -0.149631277f, -0.145641103f, -0.0179557521f, 0.073818095f, -0.0798033476f, -0.0957640111f,
    0.10374435f, 0.0299262553f, -0.0139655853f, -0.0458869226f, -0.115714848f, -0.0658377632f, 0.137660772f, -0.0837935135f,
    -0.0917738453f, -0.111724682f, -0.0339164212f, 0.0399016738f, 0.0977590978f, 0.0379065908f, 0.119705021f, -0.0219459198f,
    -0.145641103f, -0.133670598f, -0.115714848f, -0.00798033457f, 0.0558623411f, 0.10573943f, 0.0359115042f, 0.0239410028f,
    0.12968044f, -0.0558623411f, -0.0319213383f, -0.0299262553f, 0.0379065908f, 0.0319213383f, 0.0299262553f, -0.0319213383f,
    0.0139655853f, 0.1715772f, 0.145641103f, -0.0498770922f, -0.0598525107f, 0.00798033457f, 0.10374435f, 0.185542777f,
    0.0478820056f, 0.161601782f, -0.0319213383f, 0.0119705014f, 0.0179557521f, 0.123695187f, 0.125690266f, 0.109729603f,
    -0.0598525107f, 0.0339164212f, 0.0279311705f, 0.0817984268f, -0.131675526f, -0.111724682f, -0.187537864f, -0.153621435f,
    -0.00199508364f, -0.0399016738f, 0.0319213383f, 0.0498770922f, -0.0319213383f, 0.113719769f, 0.089778766f, 0.0997541845f,
    0.157611609f, 0.109729603f, -0.0219459198f, -0.089778766f, -0.0817984268f, 0.0379065908f, -0.125690266f, -0.191528022f,
    -0.111724682f, -0.0239410028f, -0.121700101f, -0.0498770922f, 0.0857886001f, -0.14763619f, -0.0119705014f, 0.0817984268f,
    -0.119705021f, 0.0638426766f, -0.12968044f, -0.187537864f, -0.00798033457f, 0.0379065908f, 0.00399016729f, 0.151626363f,
    -0.0678328425f, -0.119705021f, 0.0877836794f, -0.181552619f, -0.145641103f, -0.0618475936f, -0.0159606691f, -0.00199508364f,
    -0.12968044f, -0.123695187f, -0.0817984268f, 0.117709935f, -0.14763619f, 0.0857886001f, 0.107734516f, -0.0299262553f,
    -0.0917738453f, -0.0877836794f, 0.0877836794f, 0.00997541845f, 0.135665685f, 0.089778766f, 0.0179557521f, 0.0778082609f,
    0.119705021f, 0.189532951f, 0.0239410028f, -0.0339164212f, 0.227439538f, -0.0299262553f, -0.0518721752f, 0.229434624f,
    0.205493614f, 0.101749264f, 0.0758131817f, 0.183547691f, 0.073818095f, 0.0438918397f, 0.25337562f, 0.223449364f,
    0.179557532f, 0.235419869f, -0.00997541845f, 0.0179557521f, 0.25337562f, 0.0678328425f, 0.195518196f, 0.0598525107f,
    },
    {
    0.00227538031f, 0.10011673f, 0.0341307037f, -0.236639559f, 0.0659860298f, -0.211610362f, -0.11831978f, -0.197958082f,
    -0.104667492f, -0.0477829874f, -0.179755047f, -0.166102767f, 0.0591598898f, -0.0250291824f, -0.0955659747f, -0.0227538031f,
    0.0432322249f, -0.195682704f, 0.138798192f, 0.0136522818f, -0.0910152122f, 0.00910152122f, 0.150175095f, 0.0250291824f,
    -0.106942877f, -0.182030424f, 0.0932905897f, -0.00910152122f, 0.0159276612f, -0.225262657f, 0.00910152122f, -0.13197206f,
    -0.141073585f, 0.11831978f, -0.0637106448f, -0.0887398347f, -0.0887398347f, 0.157001242f, 0.0841890723f, 0.0728121698f,
    -0.0864644498f, 0.0682614073f, 0.0864644498f, 0.211610362f, 0.0682614073f, 0.184305802f, 0.157001242f, 0.0978413522f,
    -0.0659860298f, 0.0295799449f, -0.106942877f, 0.0113769015f, -0.0864644498f, -0.0250291824f, 0.161551997f, 0.202508852f,
    0.218436509f, 0.195682704f, -0.0409568474f, 0.13197206f, 0.204784229f, 0.211610362f, 0.218436509f, 0.202508852f,
    0.1729289f, -0.0546091273f, 0.0341307037f, 0.218436509f, 0.175204277f, 0.166102767f, 0.0341307037f, -0.00455076061f,
    0.109218255f, -0.0523337461f, -0.0341307037f, 0.0659860298f, 0.177479669f, 0.0591598898f, 0.0637106448f, 0.213885754f,
    0.0864644498f, 0.179755047f, 0.243465692f, 0.220711887f, 0.193407327f, 0.0295799449f, 0.0295799449f, 0.0864644498f,
    0.0136522818f, 0.0523337461f, 0.00682614092f, 0.10011673f, -0.0250291824f, 0.0728121698f, 0.00682614092f, -0.0386814661f,
    -0.0409568474f, 0.0887398347f, -0.0705367923f, 0.0182030424f, -0.138798192f, 0.0773629323f, -0.120595157f, 0.0204784237f,
    0.147899717f, -0.0409568474f, -0.0682614073f, -0.0523337461f, 0.134247437f, 0.0546091273f, -0.0295799449f, 0.0864644498f,
    -0.0409568474f, -0.0887398347f, -0.0659860298f, -0.138798192f, 0.14562434f, 0.104667492f, -0.0887398347f, -0.0136522818f,
    0.0864644498f, 0.143348962f, -0.0955659747f, -0.0409568474f, -0.0773629323f, -0.147899717f, 0.1729289f, -0.14562434f,
    -0.170653522f, -0.00227538031f, 0.116044395f, -0.00455076061f, -0.0841890723f, 0.0295799449f, -0.00910152122f, 0.0955659747f,
    0.111493632f, -0.0705367923f, 0.00910152122f, 0.125145912f, -0.0796383098f, -0.00910152122f, 0.0182030424f, 0.0136522818f,
    -0.0728121698f, -0.0910152122f, 0.0113769015f, -0.241190314f, 0.0386814661f, -0.106942877f, -0.102392115f, -0.163827389f,
    -0.0887398347f, 0.00910152122f, -0.14562434f, -0.288973302f, 0.0136522818f, -0.0159276612f, -0.0910152122f, -0.109218255f,
    -0.0477829874f, -0.245741069f, 0.0136522818f, -0.00682614092f, -0.00682614092f, -0.195682704f, 0.0f, 0.0591598898f,
    -0.0204784237f, -0.166102767f, -0.209334984f, -0.0546091273f, -0.0136522818f, -0.0932905897f, 0.00910152122f, -0.0887398347f,
    -0.129696682f, -0.138798192f, -0.147899717f, -0.0978413522f, -0.00682614092f, 0.0591598898f, 0.0341307037f, 0.00910152122f,
    -0.0955659747f, 0.00455076061f, 0.0591598898f, -0.147899717f, -0.122870535f, 0.138798192f, -0.0910152122f, -0.109218255f,
    0.0318553224f, -0.111493632f, -0.136522815f, -0.136522815f, -0.0591598898f, -0.232088789f, -0.0932905897f, -0.175204277f,
    },
    {
    0.249950051f, -0.0234995782f, 0.158088073f, 0.27131331f, 0.108952589f, 0.158088073f, 0.00854530092f, 0.119634211f,
    0.104679935f, -0.00427265046f, 0.0704987347f, 0.13031584f, 0.0790440366f, 0.0512718037f, 0.0769077092f, 0.106816262f,
    0.121770538f, -0.0512718037f, 0.087589331f, 0.126043186f, 0.177314997f, -0.00427265046f, -0.117497891f, 0.149542764f,
    -0.0256359018f, 0.0149542764f, -0.13031584f, 0.00427265046f, 0.121770538f, 0.177314997f, 0.0192269273f, -0.087589331f,
    -0.0512718037f, 0.0854530111f, 0.0320448801f, 0.123906866f, -0.087589331f, -0.0683624074f, 0.0512718037f, 0.123906866f,
    0.134588495f, -0.0170906018f, 0.102543607f, 0.0192269273f, -0.138861135f, -0.0683624074f, -0.117497891f, 0.126043186f,
    -0.00854530092f, -0.0149542764f, 0.115361564f, 0.155951738f, 0.0897256583f, 0.0747713819f, 0.1944056f, 0.217905179f,
    -0.108952589f, 0.138861135f, 0.115361564f, 0.170906022f, -0.0640897602f, 0.136724815f, 0.168769687f, -0.0363175273f,
    -0.0299085528f, 0.0683624074f, 0.0769077092f, 0.093998313f, -0.123906866f, 0.0320448801f, -0.0769077092f, 0.136724815f,
    0.121770538f, -0.111088909f, 0.143133789f, -0.0170906018f, 0.0811803564f, 0.0982709602f, 0.106816262f, 0.140997469f,
    -0.0256359018f, 0.0555444546f, 0.053408131f, 0.0384538546f, -0.0982709602f, -0.123906866f, -0.0555444546f, 0.115361564f,
    0.0662260801f, -0.0234995782f, -0.0811803564f, 0.138861135f, 0.0f, -0.12817952f, -0.0234995782f, 0.155951738f,
    0.0149542764f, -0.0234995782f, 0.00213632523f, -0.053408131f, -0.0448628291f, 0.13245216f, 0.00854530092f, 0.13031584f,
    -0.087589331f, 0.0811803564f, 0.0662260801f, 0.202950895f, 0.104679935f, 0.108952589f, -0.121770538f, -0.0320448801f,
    -0.0683624074f, 0.0662260801f, 0.0897256583f, -0.0106816264f, -0.170906022f, -0.121770538f, -0.181587651f, -0.00213632523f,
    -0.126043186f, 0.155951738f, -0.151679099f, -0.102543607f, 0.121770538f, -0.119634211f, -0.0299085528f, 0.0918619856f,
    0.0918619856f, -0.138861135f, 0.113225237f, 0.053408131f, -0.0790440366f, 0.0299085528f, 0.0363175273f, -0.0170906018f,
    0.0427265055f, 0.151679099f, -0.175178662f, -0.147406444f, 0.0427265055f, -0.0769077092f, -0.190132946f, 0.00427265046f,
    -0.0363175273f, 0.0555444546f, -0.187996626f, 0.087589331f, -0.170906022f, -0.0769077092f, 0.00640897546f, -0.0726350546f,
    -0.0192269273f, -0.0234995782f, -0.140997469f, 0.166633368f, -0.0854530111f, -0.0299085528f, 0.0106816264f, 0.0897256583f,
    -0.0769077092f, -0.00854530092f, -0.0811803564f, -0.100407287f, -0.0149542764f, 0.0854530111f, 0.0341812037f, 0.140997469f,
    -0.0192269273f, 0.13031584f, -0.117497891f, 0.0234995782f, -0.162360713f, 0.102543607f, 0.147406444f, -0.0299085528f,
    -0.093998313f, -0.0299085528f, 0.181587651f, 0.134588495f, 0.158088073f, 0.0491354801f, 0.143133789f, 0.106816262f,
    -0.0769077092f, -0.0769077092f, 0.0234995782f, 0.119634211f, -0.0811803564f, 0.166633368f, -0.12817952f, -0.0341812037f,
    -0.104679935f, -0.138861135f, -0.160224393f, -0.0811803564f, 0.175178662f, -0.111088909f, -0.12817952f, 0.140997469f,
    },
    {
    0.0706743747f, 0.123680152f, -0.109937914f, -0.168833226f, 0.107974738f, 0.00588953122f, -0.0235581249f, -0.153127804f,
    -0.0353371873f, -0.00588953122f, -0.141348749f, 0.0824534371f, 0.117790617f, -0.0137422392f, 0.0628216639f, 0.135459214f,
    0.0647848397f, -0.115827441f, -0.0922693163f, -0.078527078f, -0.147238269f, 0.031410832f, 0.031410832f, 0.084416613f,
    0.0667480156f, -0.113864265f, 0.015705416f, 0.0530057773f, -0.0922693163f, -0.0490794256f, -0.162943691f, -0.0608584881f,
    -0.0746007264f, -0.0667480156f, 0.166870043f, -0.0490794256f, 0.0215949472f, 0.0412267186f, -0.129569679f, 0.0412267186f,
    -0.078527078f, -0.129569679f, 0.102085203f, 0.123680152f, 0.117790617f, 0.078527078f, 0.100122027f, -0.039263539f,
    0.162943691f, 0.0353371873f, 0.0903061405f, 0.127606511f, 0.133496031f, 0.0f, 0.147238269f, 0.0137422392f,
    0.172759578f, 0.1197538f, 0.0824534371f, -0.084416613f, 0.0431898944f, -0.0196317695f, 0.0608584881f, 0.0510426015f,
    -0.0608584881f, -0.155090988f, 0.135459214f, -0.0215949472f, -0.135459214f, -0.149201453f, 0.0706743747f, 0.11190109f,
    -0.001963177f, -0.113864265f, 0.104048379f, 0.149201453f, 0.133496031f, 0.0215949472f, 0.0706743747f, 0.121716976f,
    -0.0687111914f, -0.0667480156f, 0.151164636f, 0.0490794256f, 0.149201453f, -0.113864265f, -0.00588953122f, -0.0647848397f,
    0.0137422392f, 0.0647848397f, 0.0510426015f, -0.084416613f, 0.159017339f, 0.104048379f, -0.00785270799f, -0.0373003632f,
    0.0765639022f, 0.237544417f, 0.0235581249f, 0.196317703f, 0.0647848397f, -0.0451530702f, -0.0608584881f, -0.0235581249f,
    -0.0804902539f, 0.0333740078f, 0.0490794256f, -0.0549689569f, -0.0451530702f, 0.0647848397f, -0.015705416f, -0.1197538f,
    0.106011555f, -0.0431898944f, 0.0176685937f, -0.0922693163f, -0.0981588513f, -0.104048379f, -0.0471162498f, -0.0883429646f,
    0.0903061405f, -0.137422383f, -0.0431898944f, -0.0647848397f, -0.143311918f, -0.198280871f, -0.135459214f, 0.0510426015f,
    -0.184538633f, 0.0883429646f, 0.0f, 0.015705416f, -0.121716976f, -0.00981588475f, -0.137422383f, 0.0255213007f,
    0.145275101f, -0.106011555f, -0.0471162498f, -0.213986292f, -0.145275101f, -0.0196317695f, 0.015705416f, -0.200244054f,
    0.00785270799f, -0.153127804f, 0.0942324996f, -0.100122027f, -0.166870043f, 0.015705416f, -0.137422383f, -0.182575464f,
    0.115827441f, -0.11190109f, -0.139385566f, -0.104048379f, 0.0903061405f, 0.0196317695f, -0.0706743747f, 0.00588953122f,
    0.0608584881f, -0.0353371873f, 0.153127804f, -0.100122027f, -0.139385566f, -0.0137422392f, -0.0804902539f, 0.172759578f,
    0.157054156f, 0.206133589f, 0.123680152f, -0.0687111914f, 0.0274844784f, -0.0687111914f, 0.106011555f, 0.133496031f,
    -0.031410832f, 0.0883429646f, 0.031410832f, 0.015705416f, -0.0471162498f, 0.0490794256f, 0.0903061405f, 0.162943691f,
    0.104048379f, 0.235581234f, 0.249323472f, 0.113864265f, -0.0117790624f, 0.031410832f, 0.196317703f, -0.00981588475f,
    0.0824534371f, 0.0137422392f, 0.131532863f, 0.160980508f, 0.0588953085f, -0.100122027f, 0.149201453f, 0.141348749f,
    },
    {
    -0.0791874826f, -0.0426394157f, 0.0700504705f, 0.170557663f, -0.0761418119f, 0.0319795609f, -0.120304063f, -0.0411165804f,
    -0.0685276315f, -0.169034824f, -0.0319795609f, -0.0959386826f, -0.150760785f, -0.0670047998f, 0.0700504705f, -0.170557663f,
    -0.0137055265f, 0.0578677803f, -0.0807103217f, 0.0f, -0.173603341f, 0.123349741f, 0.0197968706f, 0.0730961412f,
    0.0365480706f, -0.165989161f, -0.130963922f, -0.147715122f, 0.0898473412f, 0.0289338902f, 0.103552863f, -0.108121373f,
    0.0060913451f, -0.162943482f, -0.140100941f, -0.0060913451f, 0.184263185f, 0.0f, -0.0213197079f, -0.0685276315f,
    0.137055263f, -0.106598541f, -0.00761418138f, 0.0106598539f, 0.00761418138f, 0.0060913451f, 0.121826902f, 0.0624362864f,
    0.0472079255f, 0.121826902f, -0.123349741f, -0.077664651f, 0.0441622511f, 0.0335023999f, 0.0350252353f, 0.00152283628f,
    0.0746189803f, -0.0791874826f, -0.0715733021f, -0.117258392f, -0.0563449413f, -0.00913701765f, 0.0532992706f, -0.038070906f,
    0.0228425451f, -0.0167512f, -0.165989161f, -0.0807103217f, -0.117258392f, -0.0715733021f, -0.0913701802f, 0.106598541f,
    0.0121826902f, 0.0228425451f, 0.178171843f, -0.0928930119f, -0.124872573f, -0.0335023999f, 0.0639591217f, -0.00152283628f,
    0.124872573f, -0.0974615216f, -0.0060913451f, -0.0213197079f, 0.0395937413f, -0.00761418138f, -0.100507192f, 0.027411053f,
    -0.0441622511f, -0.060913451f, 0.0578677803f, 0.0989843607f, 0.038070906f, 0.0928930119f, 0.0243653804f, 0.0137055265f,
    0.124872573f, 0.126395404f, 0.0548221059f, 0.126395404f, 0.105075702f, 0.0746189803f, -0.0959386826f, -0.143146604f,
    -0.0700504705f, -0.118781231f, 0.188831702f, -0.0365480706f, -0.0593906157f, -0.077664651f, 0.0472079255f, 0.0243653804f,
    0.190354541f, -0.0411165804f, 0.127918243f, 0.138578102f, 0.0487307608f, -0.0700504705f, -0.123349741f, -0.0319795609f,
    -0.0989843607f, -0.1340096f, 0.112689883f, -0.127918243f, -0.103552863f, -0.108121373f, -0.00152283628f, -0.0837559924f,
    -0.0624362864f, 0.193400204f, -0.0639591217f, 0.0532992706f, -0.159897804f, -0.00152283628f, -0.0441622511f, 0.0182740353f,
    0.130963922f, -0.00761418138f, 0.0441622511f, 0.0593906157f, -0.00304567255f, 0.0700504705f, -0.0532992706f, -0.0944158509f,
    -0.0868016705f, -0.0868016705f, -0.108121373f, -0.150760785f, -0.0517764315f, 0.0852788314f, 0.0060913451f, 0.144669443f,
    -0.0883245021f, -0.060913451f, -0.0487307608f, -0.153806463f, -0.144669443f, 0.0837559924f, -0.118781231f, -0.0715733021f,
    -0.0152283628f, 0.00913701765f, 0.127918243f, -0.117258392f, 0.0456850901f, 0.060913451f, 0.0563449413f, 0.193400204f,
    0.175126165f, 0.159897804f, -0.00761418138f, -0.152283624f, -0.0182740353f, -0.00304567255f, -0.0746189803f, -0.060913451f,
    0.0228425451f, 0.00152283628f, -0.112689883f, -0.0167512f, 0.155329302f, -0.123349741f, -0.105075702f, 0.123349741f,
    0.0365480706f, -0.0106598539f, -0.0060913451f, -0.114212722f, 0.108121373f, 0.0959386826f, 0.0944158509f, -0.140100941f,
    -0.00304567255f, -0.00152283628f, -0.162943482f, -0.0532992706f, -0.0807103217f, -0.127918243f, -0.0472079255f, 0.0639591217f,
    },
    {
    -0.219865948f, -0.297882915f, -0.0922018513f, 0.0283697993f, 0.068560347f, -0.0520112999f, 0.132392406f, -0.082745254f,
    0.0874735489f, 0.0189132001f, 0.0260056499f, 0.0449188501f, -0.082745254f, 0.0969301537f, 0.0543754511f, -0.167854652f,
    0.139484853f, -0.0520112999f, 0.122935802f, 0.0803811029f, -0.118207499f, -0.153669745f, 0.0401905514f, 0.146577299f,
    -0.118207499f, -0.0543754511f, 0.111115053f, -0.182039544f, -0.0472830012f, -0.120571651f, 0.122935802f, -0.1796754f,
    -0.0543754511f, -0.0330981016f, -0.068560347f, 0.0165490508f, -0.0165490508f, 0.0851093978f, 0.125299945f, 0.0945660025f,
    0.0992942974f, 0.0661962032f, 0.0661962032f, 0.137120694f, 0.0f, -0.0803811029f, 0.0945660025f, 0.125299945f,
    -0.0922018513f, -0.0212773494f, -0.0307339504f, 0.0307339504f, -0.0780169517f, 0.203316897f, 0.00236415002f, -0.082745254f,
    0.00236415002f, 0.0567395985f, 0.1040226f, 0.144213155f, -0.0591037497f, -0.068560347f, 0.267148942f, 0.186767846f,
    0.286062151f, 0.170218796f, 0.139484853f, 0.255328208f, 0.241143301f, -0.0118207503f, 0.264784813f, 0.0638320521f,
    0.0780169517f, -0.0543754511f, 0.153669745f, 0.118207499f, 0.0330981016f, 0.125299945f, 0.068560347f, 0.250599891f,
    0.153669745f, 0.0992942974f, 0.0591037497f, -0.0614679009f, 0.170218796f, 0.0803811029f, 0.125299945f, 0.0780169517f,
    0.172582954f, -0.0354622491f, 0.0898377001f, 0.082745254f, -0.0780169517f, 0.22459425f, -0.0520112999f, 0.151305601f,
    0.120571651f, 0.0496471487f, -0.120571651f, -0.13475655f, -0.0118207503f, -0.151305601f, 0.0f, -0.158398047f,
    0.1040226f, 0.0141848996f, -0.00709244981f, 0.139484853f, -0.0141848996f, -0.0449188501f, 0.0709244981f, -0.0591037497f,
    -0.0898377001f, 0.0118207503f, -0.108750902f, 0.144213155f, 0.165490508f, 0.170218796f, -0.0898377001f, 0.165490508f,
    0.0236415006f, 0.182039544f, 0.0496471487f, 0.0212773494f, -0.0165490508f, 0.151305601f, -0.108750902f, -0.0330981016f,
    -0.0732886493f, 0.0780169517f, -0.0851093978f, 0.0449188501f, 0.160762206f, 0.113479197f, -0.0189132001f, -0.00709244981f,
    0.115843348f, 0.0614679009f, 0.219865948f, 0.132392406f, -0.0898377001f, 0.174947098f, 0.0212773494f, -0.0922018513f,
    0.153669745f, -0.127664104f, 0.0496471487f, -0.00945660006f, 0.113479197f, 0.132392406f, -0.0307339504f, -0.0661962032f,
    0.0922018513f, 0.0118207503f, -0.182039544f, -0.0141848996f, -0.00945660006f, -0.22459425f, -0.127664104f, 0.0307339504f,
    -0.0709244981f, -0.182039544f, -0.151305601f, -0.172582954f, -0.108750902f, -0.0401905514f, 0.0189132001f, -0.144213155f,
    0.0591037497f, -0.0756528005f, -0.141848996f, -0.0449188501f, -0.0874735489f, -0.00709244981f, -0.231686696f, -0.262420654f,
    0.0520112999f, -0.300247043f, -0.0851093978f, -0.0283697993f, -0.215137646f, -0.264784813f, -0.153669745f, 0.0354622491f,
    -0.111115053f, -0.217501804f, -0.00236415002f, -0.167854652f, -0.0118207503f, 0.0401905514f, -0.28842631f, -0.00709244981f,
    0.00236415002f, -0.219865948f, 0.106386751f, 0.125299945f, -0.236414999f, -0.293154597f, -0.0401905514f, -0.141848996f,
    },
    {
    0.0319126137f, 0.0787177756f, 0.0638252273f, 0.0404226407f, 0.0872278064f, -0.0574427024f, 0.0723352507f, 0.121267922f,
    0.15318054f, 0.148925528f, 0.134032965f, 0.0893553123f, 0.155308038f, 0.0531876869f, 0.14041549f, 0.0531876869f,
    -0.0595702082f, -0.0106375376f, 0.0106375376f, -0.0765902698f, -0.0999928489f, 0.123395436f, -0.0255300887f, 0.0702077448f,
    0.0659527332f, 0.0382951349f, -0.0638252273f, -0.104247868f, -0.0765902698f, 0.0553151928f, 0.146798015f, 0.163818076f,
    0.0297851041f, -0.125522941f, 0.00212750747f, 0.121267922f, 0.0616977178f, 0.0510601774f, 0.0f, 0.074462764f,
    -0.148925528f, -0.0446776561f, 0.074462764f, 0.068080239f, -0.0489326715f, 0.123395436f, -0.0978653431f, -0.014892552f,
    -0.0829727948f, 0.0765902698f, -0.0531876869f, -0.110630386f, -0.0765902698f, 0.10850288f, 0.0127650443f, 0.0808452815f,
    -0.0319126137f, 0.10850288f, -0.199985698f, -0.129777953f, -0.0829727948f, 0.0361676253f, -0.129777953f, -0.123395436f,
    -0.236153334f, -0.170200601f, -0.0106375376f, -0.18509315f, -0.0936103314f, -0.10850288f, 0.0382951349f, -0.142543003f,
    0.0723352507f, 0.0893553123f, -0.138287991f, -0.155308038f, 0.0361676253f, -0.1723281f, -0.0191475675f, -0.0723352507f,
    -0.0893553123f, -0.134032965f, 0.0808452815f, 0.151053026f, -0.0468051657f, 0.125522941f, 0.15318054f, -0.142543003f,
    -0.0191475675f, -0.119140416f, -0.117012911f, 0.0340401195f, -0.106375374f, -0.0659527332f, 0.146798015f, 0.214878261f,
    0.0595702082f, 0.178710625f, 0.18509315f, 0.270193458f, 0.0723352507f, 0.0851003006f, 0.121267922f, 0.246790871f,
    -0.0276575964f, 0.110630386f, -0.146798015f, 0.0340401195f, -0.0829727948f, -0.144670501f, 0.127650455f, -0.123395436f,
    -0.127650455f, 0.114885405f, -0.151053026f, 0.0702077448f, 0.014892552f, -0.0361676253f, -0.0702077448f, -0.106375374f,
    0.102120355f, 0.0106375376f, -0.151053026f, -0.0702077448f, -0.148925528f, -0.0297851041f, 0.117012911f, -0.0404226407f,
    0.157435551f, -0.0914828181f, -0.0297851041f, 0.0468051657f, 0.0659527332f, 0.0191475675f, 0.127650455f, 0.159563065f,
    -0.125522941f, 0.131905466f, -0.00851002987f, -0.102120355f, -0.0127650443f, -0.14041549f, 0.119140416f, 0.00212750747f,
    0.0106375376f, -0.00425501494f, 0.0829727948f, 0.00638252217f, -0.187220663f, -0.0574427024f, -0.136160478f, -0.0616977178f,
    -0.123395436f, -0.157435551f, 0.110630386f, -0.0936103314f, -0.148925528f, -0.123395436f, -0.176583126f, 0.119140416f,
    -0.014892552f, 0.0510601774f, -0.131905466f, 0.151053026f, 0.0829727948f, 0.123395436f, 0.121267922f, -0.0638252273f,
    -0.0702077448f, -0.157435551f, -0.0361676253f, 0.138287991f, 0.0531876869f, -0.0638252273f, 0.155308038f, 0.10850288f,
    -0.0276575964f, 0.0340401195f, 0.131905466f, -0.0702077448f, -0.0616977178f, 0.0616977178f, -0.102120355f, 0.238280833f,
    0.0595702082f, 0.178710625f, 0.221260771f, 0.00638252217f, 0.0978653431f, -0.0361676253f, 0.0638252273f, -0.0191475675f,
    0.123395436f, 0.174455613f, -0.0659527332f, -0.0893553123f, 0.0404226407f, 0.0255300887f, -0.0361676253f, 0.104247868f,
    },
    {
    0.0686380118f, -0.0193044413f, 0.167305157f, 0.182319716f, 0.13084121f, 0.272407115f, 0.057913322f, 0.0321740694f,
    0.105101958f, 0.169450089f, 0.0643481389f, 0.0772177652f, 0.017159503f, 0.0278841928f, 0.0235943161f, 0.0257392544f,
    0.0514785089f, 0.143710837f, 0.0986671448f, 0.141565904f, -0.111536771f, 0.244522914f, -0.0879424512f, 0.117971584f,
    0.0664930716f, 0.132986143f, -0.0686380118f, 0.246667862f, 0.12655133f, -0.0536234453f, -0.137276024f, -0.0514785089f,
    -0.12655133f, 0.0879424512f, 0.111536771f, -0.040753819f, 0.193044409f, 0.0f, -0.0922323316f, -0.15443553f,
    0.0450436957f, -0.00428987574f, -0.0879424512f, -0.14585577f, 0.0386088826f, -0.171595037f, 0.0150145646f, 0.00214493787f,
    -0.0321740694f, -0.167305157f, 0.0879424512f, 0.0278841928f, -0.17373997f, 0.165160209f, -0.0343190059f, 0.102957018f,
    -0.0686380118f, -0.167305157f, 0.070782952f, -0.15014565f, -0.0471886322f, 0.0793626979f, -0.15014565f, 0.113681704f,
    -0.167305157f, -0.0643481389f, -0.19733429f, 0.137276024f, -0.0193044413f, -0.0729278848f, 0.0514785089f, -0.171595037f,
    0.0214493796f, -0.152290583f, -0.156580463f, -0.117971584f, -0.199479222f, -0.117971584f, -0.0471886322f, 0.0471886322f,
    0.0278841928f, -0.0235943161f, -0.13084121f, 0.0471886322f, 0.109391831f, 0.137276024f, -0.0450436957f, -0.111536771f,
    0.0643481389f, -0.15014565f, -0.111536771f, -0.075072825f, -0.070782952f, 0.0128696272f, 0.15014565f, 0.163015276f,
    0.0150145646f, -0.0364639424f, -0.0257392544f, 0.0943772644f, 0.0257392544f, 0.158725396f, 0.057913322f, 0.218783662f,
    0.0364639424f, 0.124406397f, 0.12655133f, 0.0150145646f, -0.100812078f, 0.0128696272f, -0.186609596f, -0.0150145646f,
    -0.188754529f, -0.0235943161f, -0.107246891f, -0.00428987574f, 0.0235943161f, -0.0257392544f, 0.0600582585f, -0.00214493787f,
    -0.169450089f, -0.0643481389f, -0.0364639424f, -0.15443553f, -0.137276024f, -0.0836525783f, 0.122261457f, -0.0879424512f,
    -0.0471886322f, 0.075072825f, 0.105101958f, 0.0922323316f, -0.139420956f, 0.0364639424f, -0.180174783f, -0.0664930716f,
    -0.15443553f, 0.0600582585f, -0.205914035f, 0.0128696272f, -0.105101958f, 0.102957018f, 0.0772177652f, 0.160870343f,
    0.0965222046f, -0.017159503f, -0.158725396f, -0.0128696272f, -0.143710837f, 0.0986671448f, -0.0857975185f, 0.12655133f,
    0.188754529f, 0.167305157f, -0.017159503f, 0.152290583f, 0.0343190059f, 0.111536771f, 0.0150145646f, -0.17373997f,
    -0.00857975148f, -0.0128696272f, -0.152290583f, 0.0643481389f, 0.0278841928f, 0.109391831f, 0.143710837f, 0.0900873914f,
    0.0343190059f, 0.113681704f, 0.0471886322f, 0.0493335724f, 0.0f, 0.00214493787f, 0.141565904f, -0.0428987592f,
    -0.0857975185f, -0.0514785089f, 0.167305157f, 0.165160209f, -0.0321740694f, 0.210203916f, -0.0536234453f, -0.0300291292f,
    0.160870343f, 0.137276024f, 0.0493335724f, 0.0214493796f, 0.100812078f, -0.102957018f, -0.0235943161f, 0.165160209f,
    0.0900873914f, 0.148000717f, -0.122261457f, 0.075072825f, 0.0686380118f, 0.100812078f, 0.169450089f, 0.184464663f,
    },
    {
    -0.061537195f, -0.0307685975f, 0.0641012415f, -0.19486779f, -0.0923057944f, -0.179483488f, 0.105126038f, -0.17179133f,
    -0.0794855431f, -0.115382239f, 0.0f, -0.192303732f, 0.0666652918f, 0.0897417441f, -0.0794855431f, 0.0666652918f,
    0.0641012415f, -0.0846136436f, -0.166663229f, 0.0974338949f, -0.0307685975f, -0.0589731447f, -0.0461528972f, 0.0974338949f,
    0.0f, -0.0512809977f, -0.212816134f, -0.0897417441f, -0.115382239f, -0.164099187f, -0.0256404988f, -0.151278943f,
    0.0923057944f, -0.0256404988f, 0.0512809977f, 0.0564090945f, 0.0769214928f, -0.0102561992f, -0.00256404979f, -0.12563844f,
    0.235892579f, -0.0333326459f, 0.179483488f, 0.135894641f, -0.0820495933f, 0.0666652918f, 0.135894641f, 0.0358966962f,
    0.0846136436f, 0.189739689f, -0.0410247967f, 0.0871776938f, 0.161535144f, 0.0897417441f, 0.238456637f, 0.0897417441f,
    0.189739689f, -0.0435888469f, -0.0461528972f, 0.207688034f, 0.0589731447f, -0.0923057944f, 0.233328536f, 0.112818189f,
    0.0282045472f, -0.0333326459f, 0.0461528972f, 0.115382239f, 0.0435888469f, 0.0948698446f, 0.112818189f, 0.110254139f,
    0.156407043f, 0.0333326459f, 0.235892579f, 0.110254139f, 0.115382239f, 0.207688034f, 0.189739689f, 0.0641012415f,
    0.0f, 0.0666652918f, -0.0589731447f, 0.148714885f, 0.0102561992f, 0.12563844f, -0.0307685975f, 0.151278943f,
    0.00512809958f, 0.0589731447f, 0.138458684f, -0.12307439f, 0.174355388f, 0.0743574426f, 0.135894641f, 0.0153842987f,
    -0.0153842987f, -0.0794855431f, 0.0717933923f, 0.0487169474f, 0.0358966962f, 0.0461528972f, -0.0230764486f, -0.0820495933f,
    0.0589731447f, -0.133330584f, 0.0974338949f, 0.0538450442f, 0.19486779f, 0.0230764486f, 0.135894641f, 0.128202483f,
    -0.00512809958f, 0.0333326459f, 0.00256404979f, 0.0384607464f, 0.069229342f, 0.0512809977f, 0.135894641f, 0.128202483f,
    0.220508277f, 0.174355388f, 0.0102561992f, 0.00256404979f, 0.00512809958f, 0.0358966962f, 0.189739689f, -0.105126038f,
    0.0666652918f, -0.117946289f, 0.112818189f, -0.105126038f, -0.128202483f, 0.0897417441f, 0.156407043f, 0.189739689f,
    -0.0743574426f, 0.0153842987f, 0.169227287f, -0.105126038f, 0.202559933f, -0.0923057944f, -0.0589731447f, -0.130766541f,
    0.110254139f, 0.0102561992f, 0.0512809977f, 0.0512809977f, -0.0128202494f, -0.102561995f, -0.133330584f, 0.00769214937f,
    -0.12563844f, -0.24614878f, -0.223072335f, -0.197431833f, -0.0948698446f, -0.207688034f, -0.0435888469f, -0.0256404988f,
    -0.0179483481f, -0.0333326459f, 0.00256404979f, -0.184611589f, -0.202559933f, 0.0282045472f, 0.0974338949f, -0.0128202494f,
    -0.0846136436f, 0.0743574426f, 0.0512809977f, -0.279481441f, 0.102561995f, 0.0358966962f, -0.0128202494f, -0.241020679f,
    -0.12051034f, -0.230764478f, -0.243584737f, -0.217944235f, -0.215380177f, -0.0205123983f, -0.238456637f, -0.128202483f,
    -0.12563844f, -0.220508277f, -0.325634331f, -0.248712823f, -0.138458684f, -0.0179483481f, -0.164099187f, -0.258969039f,
    -0.0846136436f, -0.0230764486f, -0.266661167f, -0.310250014f, -0.0820495933f, -0.133330584f, -0.271789283f, -0.323070288f,
    },
    {
    0.109179288f, 0.179365978f, 0.033793591f, 0.298943281f, 0.103980273f, 0.0727861896f, 0.153370902f, 0.288545251f,
    0.171567455f, 0.244353652f, -0.0103980275f, 0.119577318f, -0.020796055f, 0.0129975341f, -0.0233955625f, 0.285945743f,
    0.0389926024f, 0.101380765f, 0.207960546f, 0.192363515f, 0.129975349f, 0.213159561f, 0.00259950687f, 0.033793591f,
    0.0961817577f, 0.171567455f, -0.00519901374f, 0.124776334f, 0.0623881668f, 0.228756607f, 0.174166963f, 0.26774922f,
    0.0753856972f, 0.135174364f, 0.137773871f, 0.161169425f, -0.0805847123f, 0.0415921099f, 0.070186682f, 0.00259950687f,
    -0.0987812579f, -0.0805847123f, -0.0857837275f, 0.0727861896f, 0.0f, 0.116977811f, 0.00519901374f, -0.148171887f,
    -0.0727861896f, -0.184564993f, 0.109179288f, -0.0389926024f, 0.00779852085f, -0.124776334f, 0.0441916175f, -0.168967947f,
    -0.140373364f, -0.16636844f, 0.0545896441f, -0.140373364f, 0.0467911251f, -0.119577318f, -0.00259950687f, -0.0935822502f,
    -0.114378303f, -0.0181965474f, -0.111778796f, -0.020796055f, -0.179365978f, 0.0649876744f, -0.16636844f, -0.088383235f,
    -0.070186682f, -0.033793591f, -0.17676647f, 0.00519901374f, -0.184564993f, -0.140373364f, -0.137773871f, 0.00779852085f,
    0.00779852085f, 0.0389926024f, -0.0805847123f, 0.148171887f, -0.0493906289f, -0.0805847123f, -0.0389926024f, 0.0493906289f,
    -0.17676647f, 0.16636844f, -0.158569917f, 0.103980273f, 0.0779852048f, -0.119577318f, -0.0779852048f, 0.158569917f,
    -0.0233955625f, 0.145572379f, 0.116977811f, 0.0779852048f, 0.330137372f, 0.103980273f, 0.0831842199f, 0.129975349f,
    0.0623881668f, -0.0259950683f, 0.0155970417f, -0.122176826f, -0.00779852085f, 0.033793591f, 0.0259950683f, 0.158569917f,
    0.0259950683f, -0.00259950687f, -0.0623881668f, -0.0597886592f, -0.16636844f, 0.142972872f, 0.0675871819f, -0.0805847123f,
    -0.088383235f, 0.0519901365f, -0.103980273f, -0.111778796f, 0.0961817577f, -0.0519901365f, 0.127375841f, 0.17676647f,
    -0.0753856972f, 0.0727861896f, 0.119577318f, -0.070186682f, 0.109179288f, 0.181965485f, -0.15597041f, -0.0103980275f,
    -0.0363930948f, -0.103980273f, 0.0805847123f, 0.070186682f, -0.0155970417f, 0.0571891516f, -0.153370902f, 0.0597886592f,
    -0.15597041f, 0.0987812579f, -0.192363515f, -0.0363930948f, -0.145572379f, 0.1871645f, -0.103980273f, 0.0909827426f,
    -0.0857837275f, -0.0675871819f, 0.148171887f, -0.0519901365f, 0.0753856972f, 0.0f, 0.122176826f, 0.103980273f,
    0.0571891516f, 0.0831842199f, 0.16636844f, 0.0441916175f, 0.103980273f, 0.210560054f, -0.0363930948f, 0.0467911251f,
    -0.145572379f, -0.0831842199f, 0.158569917f, 0.0f, 0.0987812579f, -0.0103980275f, 0.205361038f, -0.0649876744f,
    0.0935822502f, 0.200162023f, 0.161169425f, 0.200162023f, 0.0961817577f, 0.0805847123f, 0.145572379f, -0.0545896441f,
    -0.070186682f, 0.0571891516f, 0.1871645f, 0.252152175f, -0.0675871819f, 0.0935822502f, -0.00259950687f, 0.244353652f,
    0.0545896441f, 0.210560054f, 0.116977811f, 0.119577318f, -0.0363930948f, 0.0649876744f, 0.106579781f, 0.213159561f,
    },
    {
    0.36557278f, 0.15544039f, 0.181347117f, 0.0949913487f, 0.112262502f, 0.0662060902f, 0.149683341f, 0.054691989f,
    0.0460564122f, -0.0518134646f, 0.0374208353f, 0.0748416707f, 0.00575705152f, 0.158318922f, 0.0230282061f, 0.0604490414f,
    0.054691989f, 0.152561858f, 0.0259067323f, -0.0460564122f, 0.0662060902f, 0.189982697f, 0.166954488f, -0.0489349365f,
    0.299366683f, 0.230282068f, 0.279217005f, 0.0604490414f, 0.175590068f, 0.14680481f, 0.198618278f, 0.169833019f,
    0.0259067323f, 0.161197439f, 0.0633275658f, 0.279217005f, -0.0518134646f, 0.0172711536f, -0.00575705152f, -0.0748416707f,
    0.0374208353f, -0.0805987194f, 0.00287852576f, 0.0892343f, 0.14680481f, -0.141047761f, -0.0374208353f, -0.0921128243f,
    -0.109383978f, 0.0690846145f, -0.097869873f, 0.0690846145f, 0.141047761f, -0.120898083f, -0.00863557681f, -0.109383978f,
    -0.0259067323f, -0.0892343f, -0.0518134646f, 0.0633275658f, -0.112262502f, -0.0805987194f, -0.15544039f, 0.149683341f,
    0.0143926293f, -0.135290712f, 0.0287852585f, 0.112262502f, 0.0201496799f, 0.0662060902f, 0.0834772438f, 0.152561858f,
    -0.112262502f, -0.0518134646f, -0.0316637829f, 0.0719631463f, -0.123776607f, 0.0402993597f, -0.00863557681f, -0.0748416707f,
    0.0748416707f, 0.120898083f, -0.135290712f, 0.00575705152f, 0.0719631463f, 0.0172711536f, -0.00575705152f, 0.0374208353f,
    0.141047761f, -0.0690846145f, -0.112262502f, -0.0201496799f, 0.054691989f, 0.0518134646f, -0.0921128243f, 0.14680481f,
    -0.00575705152f, 0.0374208353f, 0.218767956f, 0.0863557756f, 0.204375327f, -0.00575705152f, -0.0719631463f, 0.0748416707f,
    -0.120898083f, -0.0921128243f, -0.0662060902f, 0.112262502f, -0.0259067323f, 0.164075971f, 0.143926293f, 0.189982697f,
    0.109383978f, 0.118019558f, 0.0143926293f, 0.15544039f, 0.054691989f, -0.00287852576f, -0.166954488f, 0.00287852576f,
    -0.0834772438f, 0.123776607f, -0.1784686f, -0.0719631463f, 0.0172711536f, 0.227403536f, 0.0748416707f, 0.207253858f,
    0.0748416707f, -0.0172711536f, -0.109383978f, 0.233160585f, 0.097869873f, 0.00287852576f, 0.0604490414f, -0.166954488f,
    0.097869873f, 0.0402993597f, -0.00575705152f, -0.1784686f, 0.0719631463f, -0.149683341f, -0.0402993597f, -0.152561858f,
    0.0259067323f, -0.152561858f, -0.161197439f, -0.175590068f, 0.011514103f, 0.161197439f, -0.15544039f, 0.120898083f,
    -0.0402993597f, -0.0460564122f, 0.141047761f, 0.0777201951f, 0.106505454f, -0.138169229f, 0.112262502f, 0.138169229f,
    -0.0949913487f, 0.18710418f, -0.00863557681f, -0.0834772438f, -0.115141034f, -0.0633275658f, 0.13241218f, 0.103626929f,
    -0.0690846145f, -0.011514103f, -0.00863557681f, 0.115141034f, -0.0834772438f, 0.0259067323f, 0.210132375f, 0.0633275658f,
    0.164075971f, 0.149683341f, 0.135290712f, 0.0431778878f, 0.1784686f, -0.00863557681f, -0.054691989f, -0.0834772438f,
    -0.0748416707f, -0.00575705152f, 0.1784686f, -0.00287852576f, 0.0863557756f, -0.0230282061f, 0.0834772438f, 0.1784686f,
    0.011514103f, 0.149683341f, 0.106505454f, 0.195739746f, 0.112262502f, 0.120898083f, 0.138169229f, 0.0287852585f,
    },
    {
    0.140164241f, 0.0394828841f, 0.126345232f, -0.0829140618f, -0.181621268f, -0.0848882049f, 0.0592243262f, -0.152009115f,
    -0.116474509f, -0.136215955f, -0.061198473f, 0.01381901f, -0.0690950453f, 0.146086678f, 0.015793154f, -0.152009115f,
    0.015793154f, 0.0197414421f, -0.148060814f, 0.0197414421f, -0.16977641f, -0.0769916251f, -0.037508741f, -0.142138392f,
    0.128319383f, -0.130293518f, 0.086862348f, -0.0651467592f, 0.023689732f, -0.1026555f, 0.138190091f, 0.0592243262f,
    0.011844866f, -0.104629643f, 0.05527604f, -0.165828124f, -0.086862348f, 0.025663875f, 0.0651467592f, -0.114500366f,
    -0.173724696f, 0.0335604511f, 0.061198473f, -0.017767299f, -0.043431174f, 0.0769916251f, -0.0967330709f, 0.15398325f,
    0.140164241f, 0.0848882049f, -0.0908106342f, -0.0671209022f, -0.0829140618f, -0.0690950453f, 0.0829140618f, -0.031586308f,
    0.0888364911f, -0.075017482f, 0.0967330709f, -0.0296121631f, 0.073043339f, 0.0296121631f, -0.011844866f, 0.171750546f,
    0.0710691959f, 0.00197414425f, 0.142138392f, 0.171750546f, 0.011844866f, 0.250716329f, 0.211233437f, -0.0572501831f,
    0.128319383f, 0.0671209022f, 0.148060814f, 0.0592243262f, 0.16977641f, 0.037508741f, -0.0690950453f, 0.15398325f,
    0.128319383f, -0.017767299f, 0.00592243299f, 0.183595419f, 0.114500366f, -0.011844866f, 0.22110416f, 0.05527604f,
    0.177672982f, 0.155957401f, 0.122396946f, -0.025663875f, 0.00197414425f, 0.031586308f, 0.165828124f, 0.0414570309f,
    0.171750546f, 0.0809399113f, -0.0473794639f, -0.043431174f, 0.017767299f, 0.181621268f, 0.0473794639f, -0.138190091f,
    0.112526223f, 0.136215955f, 0.15398325f, -0.073043339f, 0.132267669f, 0.086862348f, 0.15398325f, -0.0513277501f,
    0.0039482885f, -0.140164241f, -0.0829140618f, -0.124371089f, 0.043431174f, 0.0671209022f, 0.0f, 0.02763802f,
    -0.150034964f, -0.114500366f, 0.120422803f, -0.138190091f, 0.00197414425f, 0.124371089f, 0.0039482885f, -0.104629643f,
    0.05527604f, 0.0710691959f, 0.037508741f, -0.0888364911f, -0.061198473f, 0.0414570309f, -0.0848882049f, -0.128319383f,
    -0.0414570309f, -0.136215955f, -0.11055208f, 0.017767299f, -0.11055208f, -0.0355345979f, -0.112526223f, 0.0631726161f,
    0.0848882049f, 0.100681357f, -0.0848882049f, 0.134241804f, 0.0039482885f, -0.173724696f, -0.167802259f, -0.02763802f,
    -0.120422803f, 0.0039482885f, 0.00592243299f, 0.0414570309f, 0.0927847773f, 0.0848882049f, 0.150034964f, 0.165828124f,
    -0.011844866f, -0.0039482885f, -0.112526223f, 0.0572501831f, 0.025663875f, 0.114500366f, -0.0690950453f, 0.155957401f,
    -0.104629643f, -0.00789657701f, -0.015793154f, 0.155957401f, 0.22110416f, 0.0947589278f, -0.0888364911f, 0.114500366f,
    0.0533018932f, 0.179647133f, 0.165828124f, -0.0394828841f, 0.205311f, -0.0533018932f, -0.061198473f, -0.017767299f,
    0.025663875f, 0.0572501831f, -0.00789657701f, -0.0631726161f, 0.213207573f, 0.213207573f, -0.0671209022f, 0.049353607f,
    0.11055208f, -0.075017482f, 0.05527604f, 0.0789657682f, 0.238871455f, -0.0533018932f, 0.213207573f, 0.225052446f,
    },
    {
    -0.0134310946f, 0.176283121f, 0.0218255296f, -0.0537243783f, -0.134310946f, 0.0805865675f, 0.194750875f, 0.141026497f,
    -0.0436510593f, 0.0822654516f, -0.0117522078f, -0.00167888682f, 0.0335777365f, 0.0419721715f, 0.142705381f, 0.083944343f,
    -0.0604399256f, 0.119200967f, 0.0604399256f, -0.147742033f, -0.142705381f, 0.13598983f, -0.0570821539f, -0.00503666047f,
    -0.0537243783f, 0.167888686f, 0.144384265f, -0.0100733209f, -0.0923387781f, 0.0587610379f, 0.115843192f, 0.0117522078f,
    0.075549908f, -0.144384265f, -0.0117522078f, -0.0537243783f, -0.134310946f, 0.038614396f, -0.130953178f, -0.083944343f,
    0.0654765889f, -0.0335777365f, 0.127595395f, 0.0201466419f, 0.0352566242f, -0.0889810026f, 0.0621188134f, 0.122558735f,
    0.0738710165f, -0.114164308f, -0.139347613f, -0.119200967f, -0.077228792f, 0.105769873f, -0.0218255296f, -0.193071991f,
    0.0285410769f, -0.206503078f, 0.0201466419f, 0.0889810026f, -0.075549908f, 0.0923387781f, 0.127595395f, 0.0873021185f,
    0.0587610379f, -0.0503666028f, -0.075549908f, 0.124237627f, -0.198108643f, 0.107448757f, -0.199787527f, 0.075549908f,
    -0.194750875f, 0.0218255296f, 0.0570821539f, -0.137668714f, 0.0537243783f, 0.0654765889f, -0.0218255296f, -0.213218629f,
    -0.154457584f, -0.156136468f, 0.077228792f, -0.177962005f, -0.146063149f, -0.0402932838f, -0.0923387781f, -0.0537243783f,
    0.0789076835f, -0.167888686f, -0.0419721715f, -0.142705381f, -0.0151099814f, 0.0302199628f, -0.00671554729f, 0.193071991f,
    0.124237627f, 0.0436510593f, -0.119200967f, -0.104090981f, -0.171246454f, -0.083944343f, -0.18635644f, -0.0537243783f,
    -0.137668714f, 0.00167888682f, -0.0486877188f, 0.114164308f, -0.119200967f, 0.0184677541f, 0.0453299433f, 0.119200967f,
    -0.0637976974f, -0.0873021185f, 0.0789076835f, 0.0554032661f, 0.149420932f, 0.0302199628f, -0.0218255296f, 0.0956965461f,
    0.075549908f, -0.154457584f, -0.0436510593f, 0.0134310946f, -0.157815367f, -0.129274279f, 0.182998657f, 0.0f,
    -0.075549908f, 0.0302199628f, -0.137668714f, 0.107448757f, 0.0721921325f, 0.075549908f, -0.00503666047f, -0.149420932f,
    -0.0503666028f, -0.0151099814f, -0.075549908f, -0.0873021185f, -0.0167888682f, -0.167888686f, -0.0285410769f, -0.100733206f,
    0.0369355083f, -0.00839443412f, -0.184677556f, 0.129274279f, -0.125916511f, 0.00671554729f, 0.0117522078f, -0.127595395f,
    -0.124237627f, -0.0721921325f, 0.0436510593f, -0.119200967f, 0.0f, -0.0268621892f, -0.104090981f, 0.115843192f,
    -0.174604237f, -0.147742033f, -0.0520454906f, -0.110806532f, 0.0889810026f, 0.0856232271f, -0.172925338f, 0.0923387781f,
    0.0470088311f, 0.0570821539f, -0.0923387781f, 0.110806532f, 0.0419721715f, 0.0570821539f, -0.0990543216f, -0.115843192f,
    0.161173135f, 0.199787527f, 0.174604237f, 0.13598983f, 0.164530903f, 0.00839443412f, -0.193071991f, -0.181319773f,
    -0.0956965461f, -0.0100733209f, -0.0738710165f, -0.0503666028f, 0.122558735f, 0.0805865675f, 0.0889810026f, 0.0637976974f,
    -0.0789076835f, 0.0100733209f, 0.117522076f, 0.172925338f, 0.00839443412f, -0.083944343f, -0.0151099814f, 0.0285410769f,
    },
    {
    0.1621757f, 0.226333112f, -0.0124750528f, 0.0374251604f, 0.0855432227f, 0.00356430095f, -0.0463359132f, -0.179997191f,
    0.119404085f, -0.156829238f, 0.0463359132f, -0.0213858057f, -0.163957849f, -0.0499002114f, -0.00534645142f, 0.0534645133f,
    -0.131879136f, -0.115839779f, 0.135443434f, -0.128314838f, 0.0730681717f, -0.165739998f, 0.0944539756f, -0.0178215057f,
    -0.128314838f, 0.108711176f, -0.160393536f, -0.140789881f, -0.0998004228f, -0.0106929028f, -0.00712860189f, 0.112275481f,
    -0.00712860189f, 0.0302965585f, 0.0766324699f, -0.0320787095f, 0.142572045f, -0.149700642f, -0.0712860227f, -0.0677217171f,
    0.0962361246f, -0.1906901f, -0.156829238f, 0.0766324699f, 0.0106929028f, 0.060593117f, -0.203165159f, 0.0392073095f,
    -0.0962361246f, -0.0320787095f, -0.0944539756f, -0.126532689f, -0.187125802f, 0.0f, 0.078414619f, -0.108711176f,
    -0.217422351f, 0.101582579f, -0.194254398f, 0.0374251604f, -0.0302965585f, -0.0106929028f, 0.0552466661f, 0.0302965585f,
    -0.0267322566f, -0.108711176f, -0.0409894623f, 0.0231679566f, -0.0944539756f, -0.0962361246f, 0.0427716114f, -0.103364728f,
    -0.00534645142f, 0.0356430113f, 0.0499002114f, -0.0338608585f, -0.0142572038f, -0.0463359132f, -0.0285144076f, -0.106929027f,
    0.151482791f, -0.0231679566f, 0.0944539756f, -0.0320787095f, 0.0124750528f, -0.0980182737f, 0.0142572038f, 0.0962361246f,
    0.0124750528f, -0.0570288152f, 0.187125802f, 0.0730681717f, 0.103364728f, 0.188907951f, 0.0427716114f, 0.00891075283f,
    0.183561504f, -0.0267322566f, 0.0106929028f, 0.0249501057f, 0.0623752661f, -0.121186234f, 0.165739998f, 0.0320787095f,
    -0.119404085f, 0.187125802f, -0.0730681717f, 0.119404085f, 0.00178215047f, 0.124750532f, 0.165739998f, -0.0445537604f,
    0.0748503208f, -0.0409894623f, 0.208511606f, -0.060593117f, -0.0374251604f, 0.0944539756f, 0.0142572038f, 0.0213858057f,
    0.212075904f, -0.0302965585f, 0.121186234f, -0.0463359132f, 0.212075904f, -0.103364728f, -0.060593117f, 0.0499002114f,
    -0.0106929028f, 0.197818696f, -0.0926718265f, 0.126532689f, 0.0837610736f, 0.126532689f, -0.00178215047f, -0.135443434f,
    0.0178215057f, 0.0106929028f, 0.108711176f, -0.130096987f, 0.00712860189f, 0.0160393547f, -0.0908896774f, 0.0962361246f,
    0.0873253718f, 0.0142572038f, -0.00534645142f, 0.0712860227f, -0.194254398f, -0.0873253718f, 0.0695038661f, -0.0944539756f,
    -0.0962361246f, -0.172868595f, -0.0142572038f, 0.0249501057f, -0.11405763f, 0.080196768f, 0.131879136f, 0.112275481f,
    -0.137225583f, 0.142572045f, 0.122968383f, -0.0748503208f, -0.0855432227f, 0.11405763f, 0.0891075209f, 0.1621757f,
    -0.0998004228f, -0.110493332f, -0.0552466661f, -0.106929027f, -0.112275481f, -0.115839779f, -0.146136343f, 0.156829238f,
    -0.0908896774f, 0.124750532f, -0.0463359132f, -0.0552466661f, -0.0819789246f, 0.0285144076f, -0.0534645133f, 0.11405763f,
    -0.149700642f, -0.0855432227f, -0.00178215047f, -0.0730681717f, -0.126532689f, 0.0445537604f, 0.0588109642f, -0.0142572038f,
    -0.0908896774f, -0.122968383f, 0.0106929028f, -0.0855432227f, -0.142572045f, -0.183561504f, 0.163957849f, 0.122968383f,
    },
    {
    -0.121162005f, -0.27977407f, -0.0704942569f, -0.16081503f, 0.125567898f, 0.0771030933f, -0.143191457f, 0.0220294558f,
    -0.0749001503f, -0.121162005f, 0.0418559648f, 0.125567898f, 0.0330441818f, 0.0286382921f, -0.0925237089f, -0.154206187f,
    -0.00660883635f, -0.174032703f, -0.1453944f, -0.0110147279f, -0.121162005f, 0.0110147279f, -0.101335496f, 0.0132176727f,
    0.0176235642f, -0.138785571f, -0.0726971999f, -0.0242324006f, 0.0594795309f, -0.207076877f, -0.0352471285f, -0.202670991f,
    -0.0462618545f, -0.0550736375f, 0.0572765842f, 0.118959062f, -0.0264353454f, 0.110147275f, 0.00220294553f, 0.0991325453f,
    0.0660883635f, 0.123364948f, 0.158612072f, -0.0749001503f, 0.0396530181f, 0.140988514f, -0.0594795309f, -0.0572765842f,
    -0.0704942569f, -0.0550736375f, 0.118959062f, 0.0859148726f, 0.0572765842f, -0.0462618545f, -0.00440589106f, 0.189453319f,
    0.140988514f, 0.0682913139f, 0.182844475f, 0.193859205f, 0.147597358f, -0.0286382921f, 0.0704942569f, 0.0749001503f,
    0.200468048f, 0.0264353454f, 0.266556412f, 0.215888664f, 0.149800301f, -0.0594795309f, 0.0176235642f, 0.116756111f,
    0.16081503f, 0.171829745f, 0.235715166f, -0.00220294553f, 0.198265091f, 0.213685721f, 0.0506677479f, 0.233512223f,
    0.0396530181f, 0.0440589115f, -0.0484648012f, -0.0286382921f, 0.0616824739f, -0.0749001503f, -0.0352471285f, 0.0638854206f,
    -0.0859148726f, -0.0815089867f, 0.0704942569f, 0.112350225f, -0.0506677479f, -0.0749001503f, -0.090320766f, 0.0374500751f,
    0.167423859f, 0.0969296023f, -0.00881178211f, -0.00440589106f, -0.226903394f, -0.213685721f, 0.0771030933f, 0.0110147279f,
    0.163017973f, 0.0616824739f, -0.0352471285f, -0.105741382f, 0.140988514f, 0.185047418f, 0.174032703f, 0.0682913139f,
    -0.118959062f, -0.0374500751f, 0.0352471285f, 0.136582628f, 0.136582628f, 0.0286382921f, 0.118959062f, 0.0771030933f,
    0.1453944f, -0.0440589115f, -0.0396530181f, 0.169626802f, 0.0506677479f, 0.0330441818f, 0.0991325453f, -0.0110147279f,
    0.0374500751f, 0.0682913139f, 0.158612072f, 0.0440589115f, -0.0749001503f, 0.00440589106f, -0.0528706908f, 0.112350225f,
    -0.0594795309f, 0.0264353454f, -0.0176235642f, 0.202670991f, 0.211482763f, 0.215888664f, 0.154206187f, 0.114553168f,
    0.187250376f, -0.0264353454f, 0.0440589115f, 0.090320766f, 0.110147275f, -0.0550736375f, 0.132176727f, -0.0749001503f,
    0.174032703f, 0.0264353454f, -0.00660883635f, 0.163017973f, 0.123364948f, 0.121162005f, -0.0198265091f, -0.0220294558f,
    0.0330441818f, -0.0837119296f, -0.090320766f, -0.0991325453f, 0.118959062f, 0.154206187f, 0.0991325453f, -0.0110147279f,
    0.0572765842f, -0.0749001503f, -0.112350225f, 0.0638854206f, -0.132176727f, -0.0176235642f, -0.0947266594f, -0.147597358f,
    -0.158612072f, 0.0947266594f, -0.129973784f, 0.0176235642f, -0.112350225f, -0.0837119296f, 0.0176235642f, -0.0440589115f,
    -0.193859205f, 0.0837119296f, -0.24232401f, -0.0572765842f, 0.0638854206f, 0.129973784f, 0.0550736375f, 0.0198265091f,
    -0.0308412369f, -0.112350225f, 0.0815089867f, -0.13437967f, -0.211482763f, -0.00660883635f, 0.0572765842f, -0.103538439f,
    },
    {
    0.280854613f, 0.245471358f, 0.101726867f, 0.0663436055f, 0.108361229f, 0.0862466916f, 0.174704835f, -0.0243259892f,
    0.035383258f, -0.00442290725f, 0.0486519784f, 0.148167387f, 0.114995591f, 0.0751894265f, -0.143744484f, -0.00221145363f,
    0.070766516f, 0.159224659f, 0.0574977957f, 0.141533032f, -0.106149778f, -0.0309603512f, 0.0796123296f, 0.176916286f,
    0.108361229f, 0.0486519784f, 0.141533032f, -0.017691629f, 0.112784132f, 0.176916286f, 0.108361229f, 0.0508634336f,
    0.0199030824f, 0.0442290716f, -0.137110129f, -0.0928810537f, -0.0420176201f, -0.0530748889f, -0.0508634336f, 0.0442290716f,
    -0.0729779676f, 0.0530748889f, 0.070766516f, -0.0132687222f, 0.0995154157f, 0.0398061648f, 0.0685550645f, 0.0375947133f,
    -0.0221145358f, -0.0928810537f, -0.139321581f, -0.0221145358f, 0.0862466916f, -0.0619207025f, -0.126052856f, 0.017691629f,
    -0.141533032f, 0.119418494f, -0.0154801756f, 0.103938319f, 0.101726867f, 0.128264308f, -0.0088458145f, 0.0398061648f,
    0.0906696022f, -0.064132154f, 0.00221145363f, 0.0530748889f, 0.0950925052f, -0.112784132f, 0.00663436111f, -0.13047576f,
    0.0729779676f, -0.13047576f, 0.157013208f, 0.0818237811f, 0.126052856f, -0.0508634336f, 0.101726867f, 0.141533032f,
    0.148167387f, 0.0221145358f, 0.132687211f, 0.0221145358f, 0.00221145363f, 0.0950925052f, 0.0221145358f, 0.0508634336f,
    0.0221145358f, -0.0088458145f, 0.0619207025f, -0.0265374444f, 0.0796123296f, 0.0375947133f, -0.0818237811f, 0.13047576f,
    0.035383258f, -0.035383258f, 0.0751894265f, 0.152590305f, 0.0265374444f, 0.0884581432f, 0.0375947133f, -0.0110572679f,
    -0.0287488978f, 0.0464405268f, -0.0818237811f, -0.0199030824f, 0.00221145363f, 0.112784132f, -0.0928810537f, 0.0884581432f,
    0.121629946f, 0.112784132f, 0.161436111f, -0.0132687222f, 0.128264308f, 0.0287488978f, -0.0154801756f, 0.035383258f,
    0.0199030824f, -0.110572681f, -0.134898677f, 0.0398061648f, -0.141533032f, 0.183550656f, 0.0663436055f, -0.017691629f,
    0.0f, -0.13047576f, 0.143744484f, -0.150378853f, 0.121629946f, 0.064132154f, -0.0132687222f, 0.0442290716f,
    0.0906696022f, -0.00442290725f, -0.0751894265f, 0.0574977957f, 0.0265374444f, -0.19681938f, 0.0862466916f, 0.0420176201f,
    -0.117207043f, 0.103938319f, -0.19681938f, 0.110572681f, 0.0464405268f, -0.0375947133f, -0.064132154f, -0.0464405268f,
    0.134898677f, -0.0884581432f, 0.0265374444f, -0.126052856f, 0.132687211f, 0.0f, -0.13047576f, -0.0221145358f,
    0.035383258f, 0.0995154157f, 0.114995591f, 0.064132154f, 0.017691629f, 0.0110572679f, -0.0950925052f, -0.0928810537f,
    -0.128264308f, 0.0442290716f, 0.108361229f, 0.123841405f, 0.0221145358f, 0.148167387f, 0.0265374444f, 0.0398061648f,
    -0.0486519784f, 0.139321581f, 0.170281932f, 0.0928810537f, 0.0154801756f, 0.0751894265f, 0.117207043f, 0.0973039567f,
    0.0906696022f, 0.123841405f, 0.112784132f, -0.017691629f, 0.154801756f, 0.176916286f, 0.157013208f, 0.143744484f,
    -0.0862466916f, 0.0995154157f, 0.0132687222f, 0.123841405f, 0.139321581f, -0.00221145363f, 0.00442290725f, -0.0597092472f,
    },
    {
    0.094898738f, 0.0466962047f, 0.115987346f, -0.0406708866f, -0.115987346f, -0.094898738f, -0.120506331f, 0.0843544304f,
    -0.155151904f, -0.0843544304f, -0.0964050665f, -0.191303805f, 0.0602531657f, -0.114481017f, 0.0286202542f, -0.143101275f,
    0.094898738f, 0.0768227875f, -0.129544303f, -0.00753164571f, 0.0813417733f, 0.085860759f, 0.102430381f, 0.0256075952f,
    -0.0933924094f, 0.0f, -0.01656962f, -0.100924052f, -0.019582279f, 0.0451898761f, 0.131050631f, -0.03313924f,
    0.085860759f, -0.0979113951f, -0.17473419f, 0.13255696f, -0.0482025333f, -0.156658232f, 0.0105443038f, -0.161177218f,
    -0.135569632f, 0.0376582295f, 0.0994177237f, -0.00301265833f, 0.0406708866f, -0.106949374f, 0.0286202542f, -0.17473419f,
    -0.0421772152f, -0.0798354447f, -0.0376582295f, -0.03313924f, 0.0301265828f, -0.112974688f, -0.140088618f, -0.0843544304f,
    0.0376582295f, -0.0964050665f, -0.0918860808f, -0.0617594942f, -0.00150632916f, -0.085860759f, 0.0707974732f, -0.0180759504f,
    -0.102430381f, -0.108455703f, -0.171721518f, 0.0241012666f, 0.137075961f, -0.0150632914f, 0.00301265833f, 0.0180759504f,
    0.0225949381f, 0.143101275f, 0.085860759f, -0.115987346f, -0.164189875f, -0.0873670951f, -0.0376582295f, 0.11146836f,
    -0.109962031f, 0.067784816f, 0.0602531657f, 0.00602531666f, 0.0888734236f, -0.0436835475f, -0.152139246f, 0.085860759f,
    -0.0903797522f, -0.0828481019f, 0.052721519f, -0.165696204f, -0.0225949381f, -0.0286202542f, -0.131050631f, -0.186784819f,
    -0.0964050665f, -0.141594946f, 0.0391645581f, -0.052721519f, -0.0587468371f, 0.0798354447f, 0.0602531657f, 0.094898738f,
    -0.109962031f, -0.123518988f, -0.0406708866f, -0.0421772152f, -0.085860759f, 0.0918860808f, 0.0753164589f, 0.125025317f,
    -0.094898738f, -0.0436835475f, -0.153645575f, 0.0557341799f, -0.00903797522f, 0.112974688f, 0.0406708866f, 0.100924052f,
    -0.158164561f, -0.177746847f, -0.0391645581f, 0.0602531657f, -0.119000003f, 0.085860759f, 0.0843544304f, -0.00301265833f,
    0.019582279f, 0.0723038018f, -0.094898738f, 0.112974688f, -0.149126589f, 0.0873670951f, 0.0873670951f, 0.0542278513f,
    -0.159670889f, -0.11146836f, 0.0918860808f, -0.144607604f, 0.0587468371f, -0.129544303f, 0.085860759f, -0.162683547f,
    -0.171721518f, -0.0497088619f, 0.01656962f, 0.0f, 0.135569632f, 0.0256075952f, -0.13255696f, -0.180759504f,
    0.01656962f, 0.0316329114f, -0.0135569628f, -0.0994177237f, -0.176240519f, 0.120506331f, -0.143101275f, 0.0256075952f,
    -0.168708861f, 0.00602531666f, -0.0707974732f, -0.119000003f, 0.0451898761f, 0.0873670951f, -0.00753164571f, 0.0888734236f,
    0.0557341799f, -0.00301265833f, 0.0994177237f, 0.0451898761f, -0.165696204f, 0.0692911446f, -0.11146836f, 0.123518988f,
    0.01656962f, 0.0798354447f, -0.162683547f, -0.115987346f, 0.0647721514f, -0.0482025333f, -0.0482025333f, 0.019582279f,
    -0.156658232f, 0.0180759504f, 0.00602531666f, 0.00602531666f, 0.06627848f, -0.140088618f, -0.0406708866f, 0.0707974732f,
    -0.125025317f, 0.0256075952f, -0.0918860808f, 0.052721519f, -0.0828481019f, -0.0105443038f, -0.0873670951f, -0.0813417733f,
    },
    {
    -0.0869226903f, -0.12072596f, 0.0209258329f, 0.0820936486f, 0.0482903831f, 0.00160967943f, 0.053119421f, -0.122335635f,
    -0.136822745f, -0.178674415f, -0.0820936486f, 0.016096795f, -0.156138912f, 0.00160967943f, -0.0144871147f, -0.0917517245f,
    0.0692162141f, -0.0659968555f, 0.00160967943f, 0.0466807038f, 0.103019483f, -0.125554994f, 0.141651794f, 0.0128774354f,
    0.140042111f, -0.125554994f, -0.183503449f, 0.114287242f, 0.00321935886f, -0.136822745f, 0.117506601f, 0.0885323659f,
    -0.162577629f, -0.0128774354f, 0.109458201f, -0.0418516658f, 0.114287242f, 0.106238842f, 0.12877436f, -0.141651794f,
    0.107848525f, -0.00804839749f, -0.164187297f, 0.0611678176f, -0.0305839088f, 0.0820936486f, -0.204429284f, -0.0853130072f,
    0.016096795f, -0.112677559f, 0.0547291003f, -0.178674415f, -0.0418516658f, -0.0772646144f, -0.123945318f, -0.133603394f,
    -0.0144871147f, 0.0144871147f, -0.0820936486f, -0.141651794f, -0.0820936486f, -0.0820936486f, -0.0724355727f, -0.0112677561f,
    -0.0499000624f, 0.0434613451f, -0.104629166f, -0.016096795f, -0.00321935886f, -0.138432428f, -0.133603394f, 0.0f,
    -0.0676065385f, 0.164187297f, 0.0965807661f, -0.00321935886f, 0.0241451915f, -0.0289742295f, -0.0386323072f, 0.104629166f,
    -0.0708258972f, 0.181893781f, 0.0998001248f, -0.127164677f, 0.0177064743f, 0.151309863f, -0.0225355122f, 0.154529229f,
    -0.0354129486f, -0.0627774969f, 0.107848525f, -0.0853130072f, 0.109458201f, 0.140042111f, -0.0048290384f, -0.0515097417f,
    -0.0193161536f, -0.0949710831f, 0.109458201f, 0.07887429f, 0.0209258329f, 0.0595581383f, 0.0466807038f, -0.0853130072f,
    -0.159358263f, -0.181893781f, -0.0981904417f, -0.152919546f, -0.109458201f, 0.0048290384f, 0.0965807661f, 0.0273645502f,
    0.0225355122f, -0.0257548708f, 0.03219359f, 0.130384028f, -0.0901420489f, 0.080483973f, 0.0933614075f, -0.080483973f,
    0.0692162141f, -0.15774858f, -0.127164677f, -0.0450710244f, -0.0965807661f, 0.0144871147f, -0.0740452558f, 0.136822745f,
    -0.0515097417f, -0.181893781f, 0.0740452558f, 0.131993711f, 0.143261462f, 0.0209258329f, 0.148090512f, 0.115896918f,
    -0.0096580768f, -0.133603394f, -0.103019483f, 0.0547291003f, 0.1014098f, -0.188332498f, -0.115896918f, -0.0354129486f,
    0.0434613451f, 0.0885323659f, 0.0515097417f, -0.117506601f, -0.194771215f, -0.133603394f, -0.152919546f, 0.0853130072f,
    -0.0338032693f, -0.152919546f, 0.0998001248f, 0.00160967943f, 0.0998001248f, -0.185113132f, -0.016096795f, -0.0820936486f,
    0.0515097417f, -0.0273645502f, 0.0885323659f, -0.133603394f, 0.0112677561f, -0.159358263f, 0.0096580768f, 0.0740452558f,
    -0.15774858f, -0.0418516658f, 0.107848525f, 0.0949710831f, 0.0659968555f, -0.125554994f, -0.189942166f, -0.143261462f,
    -0.0901420489f, -0.152919546f, 0.107848525f, 0.016096795f, -0.0756549314f, -0.119116277f, 0.0676065385f, 0.151309863f,
    0.0965807661f, 0.115896918f, -0.115896918f, -0.173845381f, 0.0965807661f, 0.148090512f, 0.0386323072f, 0.0112677561f,
    0.0772646144f, -0.0128774354f, -0.114287242f, -0.186722815f, 0.0965807661f, -0.125554994f, -0.175455064f, -0.123945318f,
    },
    {
    0.00631063571f, 0.0378638133f, -0.225079343f, -0.172490716f, -0.180904895f, -0.151455253f, 0.00841418095f, -0.212458074f,
    -0.00210354524f, -0.0147248171f, 0.0126212714f, 0.0778311715f, -0.0841418058f, -0.191422611f, -0.00210354524f, -0.138833985f,
    -0.0799347162f, 0.0126212714f, -0.0904524475f, -0.138833985f, -0.0462779962f, -0.0336567238f, -0.128316253f, -0.107280806f,
    -0.0904524475f, -0.0546921752f, 0.0168283619f, -0.0673134476f, 0.0925559923f, -0.199836791f, 0.10938435f, 0.140937537f,
    0.0904524475f, 0.0588992685f, 0.151455253f, -0.0483815409f, 0.0757276267f, -0.031553179f, 0.199836791f, 0.107280806f,
    0.11359144f, 0.0988666266f, 0.00841418095f, 0.115694985f, -0.031553179f, -0.105177261f, 0.189319074f, -0.0694169924f,
    0.0273460876f, -0.0757276267f, 0.115694985f, 0.170387164f, -0.0652099028f, 0.197733253f, 0.176697806f, 0.187215522f,
    -0.0294496343f, 0.0715205371f, -0.0546921752f, -0.0925559923f, -0.0525886305f, 0.206147432f, 0.0694169924f, 0.0231389981f,
    0.206147432f, 0.10938435f, 0.130419806f, 0.0504850857f, 0.111487895f, 0.126212716f, 0.225079343f, 0.0988666266f,
    0.180904895f, 0.130419806f, 0.0778311715f, -0.0252425428f, 0.166180074f, 0.0378638133f, 0.256632507f, 0.239804164f,
    0.0631063581f, -0.0483815409f, 0.262943149f, 0.168283612f, 0.0399673581f, -0.0210354514f, 0.0967630818f, 0.157765895f,
    0.178801343f, 0.0525886305f, 0.00210354524f, 0.111487895f, 0.267150253f, -0.0525886305f, -0.0462779962f, 0.136730447f,
    0.239804164f, 0.204043895f, 0.0462779962f, 0.157765895f, -0.111487895f, 0.0736240819f, 0.130419806f, -0.10938435f,
    0.183008432f, -0.0757276267f, 0.100970171f, -0.086245358f, 0.195629701f, 0.0357602686f, 0.140937537f, 0.0841418058f,
    0.0946595371f, 0.0105177257f, 0.0105177257f, 0.0168283619f, 0.235597074f, -0.0441744514f, -0.0105177257f, 0.145144626f,
    0.00841418095f, -0.0988666266f, 0.256632507f, 0.191422611f, -0.00631063571f, 0.183008432f, 0.0273460876f, -0.0210354514f,
    -0.0967630818f, 0.166180074f, 0.157765895f, -0.140937537f, -0.0799347162f, 0.0694169924f, 0.145144626f, 0.130419806f,
    -0.0736240819f, 0.0610028133f, 0.214561611f, 0.157765895f, 0.151455253f, 0.210354522f, 0.0525886305f, 0.0904524475f,
    0.0378638133f, 0.0967630818f, 0.122005627f, -0.0736240819f, -0.0736240819f, -0.0189319067f, 0.0588992685f, 0.086245358f,
    0.0715205371f, -0.172490716f, -0.0904524475f, -0.0504850857f, 0.164076522f, 0.0841418058f, 0.0441744514f, 0.0357602686f,
    0.168283612f, -0.103073716f, 0.0294496343f, 0.031553179f, -0.0778311715f, -0.0294496343f, -0.134626895f, -0.0673134476f,
    0.189319074f, 0.159869432f, -0.0652099028f, 0.0357602686f, 0.0189319067f, -0.136730447f, 0.126212716f, -0.0610028133f,
    0.0778311715f, -0.0420709029f, 0.153558806f, -0.204043895f, 0.0736240819f, -0.145144626f, 0.130419806f, 0.126212716f,
    0.134626895f, 0.0925559923f, 0.0273460876f, 0.107280806f, 0.0736240819f, 0.0610028133f, 0.0105177257f, -0.0504850857f,
    0.161972985f, 0.119902082f, -0.0588992685f, -0.0778311715f, 0.0631063581f, -0.0252425428f, 0.122005627f, -0.0841418058f,
    },
    {
    -0.0213221945f, -0.179461807f, 0.0888424814f, 0.12615633f, -0.0284295939f, -0.0106610972f, -0.0995035768f, 0.165247008f,
    -0.0835119337f, 0.0621897355f, 0.145701662f, -0.0710739866f, 0.00177684962f, 0.199007154f, 0.0923961774f, 0.106610976f,
    0.00177684962f, 0.119048923f, -0.135040566f, -0.0888424814f, -0.0284295939f, -0.12615633f, -0.0941730291f, -0.129710019f,
    0.0302064437f, 0.214998797f, 0.174131259f, 0.197230309f, 0.174131259f, 0.0995035768f, -0.0230990443f, -0.0710739866f,
    -0.0835119337f, 0.00888424832f, 0.0586360358f, -0.119048923f, 0.0213221945f, -0.0106610972f, -0.0213221945f, -0.0657434389f,
    -0.159916461f, -0.0355369933f, 0.0710739866f, -0.168800712f, 0.0479749404f, 0.127933174f, 0.145701662f, 0.143924817f,
    0.145701662f, -0.163470164f, 0.081735082f, -0.0639665872f, -0.0159916468f, 0.170577556f, -0.127933174f, 0.174131259f,
    0.0337601416f, -0.00888424832f, -0.0177684966f, 0.0248758942f, 0.174131259f, 0.11016468f, -0.0355369933f, 0.136817425f,
    -0.10305728f, 0.0639665872f, -0.0373138413f, 0.0479749404f, 0.156362772f, -0.0923961774f, 0.154585913f, 0.104834124f,
    0.111941524f, 0.158139616f, -0.0355369933f, 0.0195453465f, -0.0941730291f, 0.181238666f, -0.0195453465f, 0.0586360358f,
    0.184792355f, -0.00533054862f, 0.225659907f, -0.00710739847f, 0.039090693f, 0.209668249f, 0.078181386f, 0.225659907f,
    0.0461980887f, 0.042644389f, 0.147478521f, 0.078181386f, 0.039090693f, -0.0248758942f, -0.119048923f, -0.0657434389f,
    -0.0995035768f, -0.143924817f, 0.0604128875f, 0.0604128875f, 0.156362772f, -0.00177684962f, -0.0852887779f, -0.106610976f,
    -0.0195453465f, 0.190122902f, 0.145701662f, 0.0533054881f, 0.0764045343f, 0.0941730291f, -0.0355369933f, -0.0852887779f,
    0.0213221945f, -0.0870656297f, 0.133263722f, -0.12615633f, -0.190122902f, -0.0692971349f, 0.106610976f, 0.0923961774f,
    -0.127933174f, -0.152809069f, -0.165247008f, -0.152809069f, -0.163470164f, 0.00355369924f, 0.0888424814f, 0.13859427f,
    -0.0479749404f, 0.12615633f, -0.120825775f, 0.0604128875f, 0.124379471f, -0.040867541f, -0.00177684962f, 0.081735082f,
    -0.0515286401f, 0.0444212407f, 0.0692971349f, -0.0728508309f, -0.120825775f, -0.0302064437f, -0.0550823398f, 0.156362772f,
    -0.104834124f, -0.0319832936f, -0.170577556f, 0.104834124f, 0.0870656297f, 0.0497517884f, 0.0f, 0.124379471f,
    -0.135040566f, 0.11016468f, -0.039090693f, 0.0941730291f, -0.0710739866f, 0.00177684962f, -0.16169332f, 0.081735082f,
    0.026652744f, -0.0764045343f, -0.131486878f, 0.0604128875f, 0.143924817f, 0.10305728f, 0.026652744f, -0.172354415f,
    -0.078181386f, 0.0284295939f, -0.12615633f, 0.0302064437f, -0.081735082f, -0.179461807f, 0.101280428f, 0.0302064437f,
    0.039090693f, 0.00710739847f, -0.0977267325f, 0.042644389f, -0.0230990443f, 0.0621897355f, 0.0586360358f, 0.0586360358f,
    -0.149255365f, -0.10305728f, -0.078181386f, 0.0888424814f, 0.131486878f, 0.117272072f, -0.11016468f, 0.0461980887f,
    0.0675202832f, -0.00710739847f, -0.0995035768f, -0.113718376f, 0.0923961774f, 0.0852887779f, 0.0373138413f, -0.0302064437f,
    },
    {
    0.127212688f, -0.0811211318f, -0.0129056349f, -0.0571535267f, -0.0958704278f, 0.0848084539f, -0.18252255f, -0.165929586f,
    0.116150714f, 0.0940267667f, 0.00184366212f, -0.0479352139f, -0.0221239459f, 0.140118316f, 0.165929586f, 0.108776063f,
    0.15671128f, 0.0276549309f, 0.0165929589f, 0.0313422568f, -0.0184366219f, 0.0534662008f, -0.0258112699f, 0.138274655f,
    0.0866521224f, -0.0294985939f, 0.0663718358f, 0.0405605659f, -0.119838037f, 0.129056349f, 0.0553098619f, 0.114307053f,
    -0.151180297f, -0.129056349f, -0.117994376f, 0.0977140889f, 0.10324508f, -0.129056349f, -0.110619724f, -0.112463392f,
    -0.145649314f, -0.140118316f, -0.184366211f, 0.0792774707f, -0.0682154968f, -0.00737464847f, 0.0645281747f, 0.0958704278f,
    -0.134587333f, -0.0626845136f, 0.121681698f, -0.0516225398f, 0.145649314f, -0.180678889f, 0.112463392f, 0.0921831056f,
    0.0571535267f, 0.0811211318f, -0.0774338096f, -0.123525359f, 0.129056349f, 0.0645281747f, 0.035029579f, -0.0774338096f,
    -0.0958704278f, 0.10324508f, 0.035029579f, -0.0313422568f, 0.0331859179f, -0.165929586f, -0.141961977f, 0.0626845136f,
    0.0663718358f, -0.10324508f, -0.0202802829f, -0.0903394446f, 0.140118316f, 0.0497788787f, 0.071902819f, -0.154867619f,
    0.0165929589f, -0.143805638f, -0.143805638f, -0.0571535267f, -0.117994376f, 0.0848084539f, 0.129056349f, 0.00368732424f,
    -0.0608408488f, 0.140118316f, -0.0884957835f, -0.162242264f, -0.0202802829f, -0.106932402f, -0.129056349f, -0.116150714f,
    0.0479352139f, 0.112463392f, 0.129056349f, -0.0940267667f, -0.0792774707f, -0.0516225398f, 0.0626845136f, 0.143805638f,
    0.0645281747f, 0.0884957835f, -0.0368732437f, 0.0903394446f, -0.158554941f, 0.141961977f, 0.0110619729f, -0.00921831094f,
    0.138274655f, -0.125369027f, -0.0958704278f, -0.00921831094f, -0.0663718358f, 0.0682154968f, 0.101401418f, -0.0645281747f,
    -0.0848084539f, -0.0460915528f, -0.119838037f, -0.0405605659f, -0.108776063f, 0.197271854f, 0.0737464875f, -0.0995577574f,
    0.123525359f, 0.0645281747f, -0.134587333f, 0.00184366212f, 0.0811211318f, -0.106932402f, -0.0663718358f, -0.210177481f,
    -0.141961977f, 0.0110619729f, -0.0774338096f, 0.0f, -0.10324508f, -0.200959176f, -0.23414509f, 0.0165929589f,
    -0.116150714f, 0.0848084539f, -0.193584517f, -0.202802837f, -0.0165929589f, -0.193584517f, 0.0571535267f, -0.105088741f,
    -0.116150714f, 0.0f, -0.0387169048f, 0.0553098619f, 0.108776063f, -0.00184366212f, 0.0147492969f, 0.0626845136f,
    0.110619724f, 0.13090001f, 0.145649314f, -0.0405605659f, -0.117994376f, 0.0737464875f, 0.0221239459f, -0.108776063f,
    -0.13090001f, 0.0921831056f, 0.0682154968f, 0.147492975f, 0.0110619729f, 0.0682154968f, 0.042404227f, 0.141961977f,
    0.0331859179f, 0.0110619729f, -0.0497788787f, 0.0608408488f, 0.071902819f, 0.071902819f, 0.132743672f, 0.153023958f,
    0.20833382f, 0.204646498f, -0.0387169048f, 0.151180297f, 0.162242264f, 0.197271854f, 0.0608408488f, -0.0589971878f,
    -0.0258112699f, 0.228614107f, -0.0294985939f, 0.123525359f, 0.0995577574f, 0.134587333f, -0.0663718358f, 0.210177481f,
    },
    {
    -0.0233740769f, -0.269864351f, -0.223116189f, -0.22524111f, 0.110495634f, -0.0828717276f, 0.148744121f, -0.206116855f,
    -0.0488730706f, 0.065872401f, -0.0169993285f, -0.180617869f, 0.125370041f, -0.0169993285f, -0.174243122f, 0.0892464742f,
    0.123245135f, 0.0743720606f, 0.0956212208f, -0.0871215612f, -0.0361235738f, 0.0637474805f, -0.0786218941f, 0.0913713872f,
    -0.182742774f, -0.176368028f, -0.0701222271f, -0.163618535f, -0.0127494968f, -0.210366696f, 0.0552478172f, -0.0594976507f,
    -0.148744121f, -0.193367362f, 0.0424983203f, -0.0616225675f, -0.0977461413f, 0.065872401f, -0.0382484905f, 0.0722471476f,
    0.186992615f, 0.0467481539f, 0.22524111f, 0.174243122f, 0.191242442f, 0.186992615f, -0.0127494968f, 0.167868376f,
    0.106245801f, 0.0531229004f, -0.0169993285f, 0.0786218941f, -0.0318737403f, 0.212491602f, -0.0254989937f, 0.220991269f,
    -0.033998657f, 0.125370041f, 0.176368028f, 0.00212491606f, 0.269864351f, 0.0594976507f, 0.110495634f, -0.0297488254f,
    0.261364669f, 0.0977461413f, 0.220991269f, 0.167868376f, 0.142369375f, 0.178492948f, 0.0169993285f, 0.0191242453f,
    0.24649027f, 0.20399195f, 0.159368709f, 0.195492283f, 0.131744802f, 0.0552478172f, 0.244365349f, 0.254989922f,
    0.0552478172f, 0.0701222271f, 0.142369375f, -0.065872401f, -0.0424983203f, -0.00424983213f, 0.0424983203f, -0.00849966425f,
    0.0786218941f, 0.191242442f, 0.227366015f, 0.0871215612f, 0.178492948f, -0.0509979874f, 0.0828717276f, 0.0382484905f,
    -0.0913713872f, 0.118995301f, 0.0977461413f, -0.125370041f, -0.216741443f, -0.161493614f, 0.159368709f, -0.0191242453f,
    0.0382484905f, -0.129619882f, 0.20399195f, 0.174243122f, -0.057372734f, -0.125370041f, -0.0934963077f, 0.0743720606f,
    0.0701222271f, -0.0871215612f, 0.199742109f, 0.114745468f, 0.0254989937f, -0.110495634f, 0.0828717276f, 0.20399195f,
    -0.0743720606f, -0.0743720606f, 0.242240429f, 0.184867695f, -0.0701222271f, 0.159368709f, 0.121120214f, -0.0828717276f,
    -0.0531229004f, -0.148744121f, 0.057372734f, 0.057372734f, 0.0127494968f, 0.144494295f, 0.220991269f, 0.0403734036f,
    -0.00424983213f, -0.0807468072f, 0.0509979874f, 0.216741443f, 0.0871215612f, 0.0233740769f, -0.00637474842f, 0.133869708f,
    0.235865682f, -0.0552478172f, 0.193367362f, 0.142369375f, -0.065872401f, 0.172118202f, 0.133869708f, -0.065872401f,
    0.148744121f, 0.108370721f, 0.0722471476f, 0.057372734f, 0.180617869f, 0.0552478172f, 0.0212491602f, -0.0467481539f,
    0.148744121f, 0.0127494968f, 0.0722471476f, -0.0191242453f, -0.0424983203f, 0.0488730706f, 0.155118868f, 0.108370721f,
    -0.0424983203f, 0.0509979874f, 0.108370721f, -0.167868376f, -0.110495634f, 0.0764969811f, -0.161493614f, 0.0786218941f,
    0.0807468072f, -0.220991269f, 0.0297488254f, -0.00637474842f, -0.0191242453f, -0.133869708f, 0.00212491606f, 0.057372734f,
    0.0488730706f, 0.065872401f, -0.208241776f, -0.131744802f, 0.0616225675f, 0.127494961f, 0.0233740769f, -0.121120214f,
    -0.189117536f, -0.0637474805f, 0.0467481539f, 0.00849966425f, -0.118995301f, -0.0871215612f, -0.252865016f, 0.0106245801f,
    },
    {
    0.143615082f, 0.212003216f, 0.0045592091f, 0.21884203f, -0.0501512997f, -0.0341940671f, -0.0775065571f, 0.111700624f,
    0.00911841821f, 0.0934637859f, 0.104861811f, -0.00911841821f, 0.0843453705f, 0.150453895f, -0.0934637859f, -0.0387532786f,
    0.0547105074f, 0.223401248f, 0.00227960455f, -0.047871694f, 0.00683881342f, 0.223401248f, -0.0592697188f, -0.111700624f,
    0.143615082f, 0.243917689f, 0.0775065571f, 0.045592092f, 0.159572318f, -0.0159572326f, 0.0843453705f, 0.166411132f,
    0.0341940671f, -0.0797861591f, 0.0136776268f, -0.100302599f, 0.157292709f, 0.0638289303f, 0.150453895f, -0.0889045745f,
    -0.152733505f, -0.0136776268f, 0.107141413f, -0.0797861591f, 0.0319144651f, -0.0045592091f, 0.0729473457f, -0.0364736728f,
    0.0980229974f, -0.129937455f, 0.0045592091f, 0.177809149f, -0.0433124863f, 0.125378251f, -0.0934637859f, -0.0182368364f,
    -0.091184184f, 0.0706677437f, -0.129937455f, 0.164131522f, -0.0136776268f, -0.0661085322f, 0.0136776268f, -0.045592092f,
    -0.159572318f, 0.123098649f, -0.00911841821f, -0.0683881342f, -0.0934637859f, -0.00683881342f, 0.111700624f, 0.125378251f,
    0.145894691f, -0.125378251f, 0.113980226f, 0.109421015f, 0.0797861591f, -0.022796046f, 0.0866249725f, -0.113980226f,
    -0.0410328805f, 0.047871694f, 0.0638289303f, 0.0433124863f, 0.0934637859f, 0.164131522f, 0.0820657611f, -0.0205164403f,
    0.139055878f, 0.0319144651f, 0.0683881342f, -0.116259836f, 0.0341940671f, -0.132217064f, 0.141335487f, 0.168690741f,
    -0.125378251f, -0.0364736728f, -0.0205164403f, 0.00683881342f, 0.0729473457f, 0.0820657611f, -0.0752269477f, -0.0250756498f,
    0.0433124863f, 0.227960452f, -0.00227960455f, 0.184647962f, -0.155013114f, 0.141335487f, -0.0501512997f, 0.116259836f,
    0.157292709f, 0.116259836f, 0.152733505f, -0.129937455f, -0.0159572326f, -0.045592092f, 0.0f, 0.0866249725f,
    0.102582201f, 0.141335487f, 0.0866249725f, 0.141335487f, 0.148174301f, 0.155013114f, 0.104861811f, -0.104861811f,
    -0.0820657611f, -0.022796046f, -0.0980229974f, 0.0980229974f, -0.132217064f, 0.164131522f, 0.0433124863f, -0.104861811f,
    -0.0775065571f, 0.045592092f, 0.0615493245f, 0.102582201f, 0.0797861591f, 0.00683881342f, -0.0752269477f, -0.0387532786f,
    0.0957433879f, 0.0205164403f, -0.091184184f, 0.100302599f, 0.0775065571f, -0.0045592091f, 0.0182368364f, 0.180088758f,
    0.12081904f, 0.0775065571f, 0.109421015f, -0.150453895f, -0.0683881342f, 0.0547105074f, 0.0205164403f, -0.0273552537f,
    -0.0752269477f, -0.0524309054f, 0.0296348594f, -0.0661085322f, -0.129937455f, 0.0f, 0.0296348594f, 0.127657861f,
    -0.091184184f, 0.102582201f, 0.123098649f, 0.0569901131f, 0.107141413f, 0.132217064f, 0.022796046f, 0.0866249725f,
    0.0136776268f, -0.0410328805f, 0.177809149f, 0.0592697188f, 0.0341940671f, 0.127657861f, -0.0843453705f, -0.011398023f,
    0.150453895f, -0.0205164403f, 0.150453895f, 0.0341940671f, 0.0524309054f, 0.202884808f, 0.145894691f, 0.289509773f,
    -0.0045592091f, 0.0250756498f, -0.0547105074f, 0.202884808f, 0.159572318f, 0.196045995f, 0.0980229974f, 0.214282826f,
    },
};
const float g_kws_dense1_bias[24] = {
    -0.009581903f, 0.0375936367f, 0.00278399489f, 0.0472169816f, 0.0151973004f, 0.0197013225f, 0.000584084133f, 0.0206827112f,
    0.0391219892f, 0.022503309f, 0.0600537099f, 0.0631582439f, 0.0521019287f, 0.0627179518f, 0.0396196507f, 0.000146863051f,
    0.0817283913f, -0.0273915641f, -0.00170436664f, -0.00391011965f, 0.0303876139f, 0.0550712757f, 0.00100829359f, 0.0635965019f,
};

const float g_kws_dense2_weights[12][24] = {
    {
    0.0622136593f, -0.253298461f, 0.435495615f, 0.119983479f, 0.124427319f, 0.066657491f, 0.431051761f, -0.324399799f,
    -0.115539648f, 0.204416305f, 0.168865636f, -0.0622136593f, 0.506596923f, -0.435495615f, 0.159977973f, 0.555479109f,
    0.26218614f, 0.315512121f, 0.288849115f, 0.0888766497f, 0.226635471f, -0.0533259921f, 0.564366758f, 0.00888766535f,
    },
    {
    0.104553312f, 0.0101180617f, 0.18887049f, 0.18887049f, 0.124789432f, -0.428331286f, -0.0539629981f, -0.340641439f,
    -0.391231745f, 0.290051103f, -0.323777974f, 0.138280183f, -0.198988557f, 0.192243174f, -0.11129868f, -0.11129868f,
    -0.219224676f, -0.121416748f, 0.33726874f, 0.370995611f, -0.0202361234f, -0.242833495f, 0.370995611f, 0.22597006f,
    },
    {
    0.310530156f, 0.121890336f, -0.194444105f, 0.136401087f, -0.121890336f, 0.269900024f, -0.124792486f, 0.255389273f,
    0.255389273f, -0.255389273f, 0.275704324f, 0.304725826f, -0.365671009f, 0.368573159f, -0.182835504f, 0.220563471f,
    -0.0783580765f, -0.345355958f, -0.153813988f, 0.339551657f, 0.0348258093f, -0.0203150567f, -0.159618303f, -0.0812602267f,
    },
    {
    0.285251051f, 0.161527708f, -0.0790454745f, -0.233699664f, 0.195895314f, 0.175274745f, -0.0343675986f, 0.278377533f,
    0.357423007f, -0.113413073f, 0.357423007f, 0.374606818f, 0.130596876f, 0.137470394f, 0.305871636f, 0.192458555f,
    -0.237136424f, -0.347112745f, 0.0721719563f, -0.0687351972f, -0.305871636f, 0.436468482f, 0.0274940785f, -0.0412411168f,
    },
    {
    0.197626144f, -0.193751112f, 0.263501525f, 0.0387502238f, -0.492127836f, 0.174375996f, 0.0155000892f, 0.0542503111f,
    0.395252287f, 0.271251559f, 0.255751461f, -0.0813754648f, -0.275126576f, 0.178251028f, -0.255751461f, -0.193751112f,
    0.116250671f, 0.275126576f, -0.0155000892f, -0.251876444f, -0.0465002656f, -0.104625605f, 0.286751658f, -0.306126773f,
    },
    {
    0.188376024f, -0.0478922129f, 0.166026324f, 0.309702963f, 0.172411963f, 0.379944861f, -0.332052648f, 0.0f,
    -0.0223496985f, 0.0606634691f, -0.0925916061f, -0.0670490935f, 0.405487388f, -0.0510850251f, 0.309702963f, -0.284160465f,
    0.0893987939f, 0.328859836f, 0.156447887f, -0.0989772379f, -0.239461049f, 0.338438302f, -0.399101764f, 0.351209551f,
    },
    {
    0.387370676f, -0.110134803f, -0.417752713f, 0.387370676f, -0.0455730222f, -0.345595419f, -0.113932557f, 0.243056118f,
    0.482314497f, -0.0075955037f, 0.300022393f, 0.178494334f, -0.17089884f, -0.167101085f, 0.273438126f, -0.148112327f,
    0.406359434f, -0.0873482898f, -0.364584178f, -0.413954943f, 0.0911460444f, -0.258247137f, -0.417752713f, 0.284831375f,
    },
    {
    0.22877188f, 0.263967574f, -0.307962149f, 0.131983787f, 0.11438594f, -0.255168647f, -0.171578914f, 0.360755652f,
    0.272766471f, -0.360755652f, 0.558731318f, 0.233171344f, 0.325560004f, 0.321160525f, -0.0571929701f, -0.373954058f,
    0.241970271f, -0.202375129f, -0.365155131f, -0.0571929701f, 0.378353506f, 0.395951331f, -0.250769168f, 0.378353506f,
    },
    {
    -0.423515499f, 0.158818305f, -0.0244335867f, -0.256552637f, 0.38279283f, 0.0651562288f, -0.0122167934f, 0.415370971f,
    -0.362431526f, 0.097734347f, 0.061083965f, 0.346142471f, -0.342070192f, -0.280986249f, 0.517177582f, 0.0733007565f,
    0.101806611f, -0.378720582f, -0.321708888f, 0.268769443f, -0.0814452842f, 0.272841722f, 0.020361321f, 0.0f,
    },
    {
    0.364776403f, 0.0761621073f, 0.148315683f, 0.104221836f, -0.316674024f, -0.456972659f, -0.392836154f, 0.240511924f,
    0.0921962336f, -0.300639898f, 0.296631366f, 0.0240511931f, -0.0561194494f, 0.509083569f, 0.268571645f, 0.172366872f,
    -0.244520456f, 0.392836154f, 0.40887028f, -0.104221836f, -0.0280597247f, -0.044093851f, -0.0360767879f, 0.344733745f,
    },
    {
    -0.377637744f, -0.294822454f, 0.228570208f, -0.420701683f, 0.20538193f, -0.324635953f, -0.377637744f, 0.341199011f,
    0.106003575f, -0.139129698f, -0.0596270114f, -0.3146981f, -0.112628795f, 0.324635953f, -0.0132504469f, -0.0430639535f,
    -0.384262949f, 0.102690965f, 0.0463765636f, -0.0231882818f, -0.337886393f, -0.231882825f, 0.0695648491f, -0.00662522344f,
    },
    {
    -0.190485954f, -0.0706641451f, 0.215064779f, 0.255005389f, -0.285728931f, -0.110604748f, 0.233498901f, -0.199703008f,
    -0.251933038f, -0.273439497f, 0.227354199f, -0.14132829f, -0.368682474f, 0.159762412f, 0.0829535574f, -0.0829535574f,
    -0.239643618f, -0.337958932f, -0.390188962f, -0.159762412f, -0.233498901f, -0.119821809f, -0.264222443f, -0.337958932f,
    },
};
const float g_kws_dense2_bias[12] = {
    0.028215697f, 0.0895601735f, -0.00148049963f, 0.0690958276f, 0.038088683f, 0.0532552302f, 0.0504410826f, 0.0468104109f,
    0.0464451723f, 0.0152272591f, -0.0200071111f, -0.0121187959f,
};

const float g_kws_scores_weights[3][12] = {
    {
    -0.694793642f, -0.305709213f, 0.705910325f, -0.32794261f, -0.339059293f, 0.116725333f, 0.433551252f, 0.466901332f,
    -0.661443532f, 0.244567364f, -0.250125706f, 0.100050285f,
    },
    {
    -0.476014286f, -0.182656646f, 0.0387453474f, -0.359778225f, -0.702951312f, 0.575645208f, -0.498154491f, 0.171586543f,
    0.376383394f, -0.398523599f, -0.0664205998f, 0.01660515f,
    },
    {
    0.150021076f, 0.336047202f, -0.0240033716f, -0.762107074f, -0.594083428f, -0.522073328f, -0.414058149f, -0.690096915f,
    -0.336047202f, -0.204028666f, 0.324045509f, 0.606085122f,
    },
};
const float g_kws_scores_bias[3] = {
    -0.0520031415f, 0.0183261149f, 0.0184384007f,
};
